digraph Tree {
node [shape=box, style="filled", color="black", fontname="helvetica"] ;
edge [fontname="helvetica"] ;
0 [label="ang_vel3 <= -3.551\nsquared_error = 0.558\nsamples = 222154\nvalue = [[0.043]\n[0.097]\n[0.024]]", fillcolor="#f8dcc8"] ;
1 [label="ang1 <= -0.451\nsquared_error = 0.484\nsamples = 56036\nvalue = [[0.157]\n[-0.104]\n[-0.874]]", fillcolor="#f5d0b5"] ;
0 -> 1 [labeldistance=2.5, labelangle=45, headlabel="True"] ;
3 [label="vel_z <= 0.869\nsquared_error = 0.34\nsamples = 34878\nvalue = [[0.482]\n[-0.442]\n[-0.961]]", fillcolor="#f0b990"] ;
1 -> 3 ;
9 [label="ang_vel0 <= -0.365\nsquared_error = 0.347\nsamples = 11919\nvalue = [[0.286]\n[0.088]\n[-0.949]]", fillcolor="#f1ba92"] ;
3 -> 9 ;
43 [label="ang_vel3 <= -9.511\nsquared_error = 0.303\nsamples = 7357\nvalue = [[0.484]\n[0.218]\n[-0.965]]", fillcolor="#efb387"] ;
9 -> 43 ;
89 [label="ang0 <= -0.032\nsquared_error = 0.392\nsamples = 1903\nvalue = [[0.376]\n[-0.257]\n[-0.962]]", fillcolor="#f2c19e"] ;
43 -> 89 ;
185 [label="ang_vel0 <= -2.471\nsquared_error = 0.306\nsamples = 1471\nvalue = [[0.579]\n[-0.27]\n[-0.965]]", fillcolor="#efb388"] ;
89 -> 185 ;
497 [label="vel_x <= 2.783\nsquared_error = 0.19\nsamples = 843\nvalue = [[0.802]\n[-0.276]\n[-0.986]]", fillcolor="#eba06a"] ;
185 -> 497 ;
1035 [label="squared_error = 0.232\nsamples = 266\nvalue = [[0.729]\n[-0.624]\n[-0.975]]", fillcolor="#eda775"] ;
497 -> 1035 ;
1036 [label="squared_error = 0.142\nsamples = 577\nvalue = [[0.836]\n[-0.115]\n[-0.991]]", fillcolor="#ea985e"] ;
497 -> 1036 ;
498 [label="ang0 <= -0.096\nsquared_error = 0.41\nsamples = 628\nvalue = [[0.279]\n[-0.264]\n[-0.937]]", fillcolor="#f3c4a2"] ;
185 -> 498 ;
499 [label="z_coord <= 1.133\nsquared_error = 0.257\nsamples = 317\nvalue = [[0.684]\n[-0.419]\n[-0.965]]", fillcolor="#eeab7b"] ;
498 -> 499 ;
909 [label="squared_error = 0.34\nsamples = 130\nvalue = [[0.552]\n[0.067]\n[-0.962]]", fillcolor="#f0b990"] ;
499 -> 909 ;
910 [label="squared_error = 0.099\nsamples = 187\nvalue = [[0.776]\n[-0.757]\n[-0.967]]", fillcolor="#e89152"] ;
499 -> 910 ;
500 [label="vel_x <= 3.077\nsquared_error = 0.435\nsamples = 311\nvalue = [[-0.133]\n[-0.105]\n[-0.908]]", fillcolor="#f4c8a9"] ;
498 -> 500 ;
1327 [label="squared_error = 0.307\nsamples = 126\nvalue = [[-0.519]\n[-0.283]\n[-0.937]]", fillcolor="#efb388"] ;
500 -> 1327 ;
1328 [label="squared_error = 0.453\nsamples = 185\nvalue = [[0.129]\n[0.017]\n[-0.889]]", fillcolor="#f4cbad"] ;
500 -> 1328 ;
186 [label="vel_z <= -1.776\nsquared_error = 0.479\nsamples = 432\nvalue = [[-0.314]\n[-0.211]\n[-0.952]]", fillcolor="#f5cfb4"] ;
89 -> 186 ;
633 [label="ang_vel1 <= -4.138\nsquared_error = 0.382\nsamples = 320\nvalue = [[-0.532]\n[-0.337]\n[-0.992]]", fillcolor="#f2bf9b"] ;
186 -> 633 ;
969 [label="squared_error = 0.298\nsamples = 95\nvalue = [[0.01]\n[-0.65]\n[-1.0]]", fillcolor="#efb286"] ;
633 -> 969 ;
970 [label="ang3 <= 0.392\nsquared_error = 0.339\nsamples = 225\nvalue = [[-0.761]\n[-0.205]\n[-0.989]]", fillcolor="#f0b890"] ;
633 -> 970 ;
977 [label="squared_error = 0.288\nsamples = 167\nvalue = [[-0.781]\n[-0.49]\n[-0.986]]", fillcolor="#efb083"] ;
970 -> 977 ;
978 [label="squared_error = 0.183\nsamples = 58\nvalue = [[-0.703]\n[0.614]\n[-1.0]]", fillcolor="#eb9f68"] ;
970 -> 978 ;
634 [label="ang3 <= -0.369\nsquared_error = 0.518\nsamples = 112\nvalue = [[0.308]\n[0.149]\n[-0.835]]", fillcolor="#f6d6be"] ;
186 -> 634 ;
1443 [label="squared_error = 0.497\nsamples = 25\nvalue = [[-0.666]\n[0.418]\n[-0.517]]", fillcolor="#f6d2b9"] ;
634 -> 1443 ;
1444 [label="squared_error = 0.386\nsamples = 87\nvalue = [[0.588]\n[0.072]\n[-0.926]]", fillcolor="#f2c09c"] ;
634 -> 1444 ;
90 [label="ang1 <= -0.607\nsquared_error = 0.235\nsamples = 5454\nvalue = [[0.522]\n[0.383]\n[-0.966]]", fillcolor="#eda775"] ;
43 -> 90 ;
115 [label="vel_z <= -0.506\nsquared_error = 0.355\nsamples = 1194\nvalue = [[0.637]\n[-0.121]\n[-0.921]]", fillcolor="#f1bb94"] ;
90 -> 115 ;
291 [label="ang3 <= -0.162\nsquared_error = 0.381\nsamples = 361\nvalue = [[0.519]\n[0.451]\n[-0.883]]", fillcolor="#f2bf9b"] ;
115 -> 291 ;
1535 [label="squared_error = 0.588\nsamples = 50\nvalue = [[0.481]\n[-0.119]\n[-0.365]]", fillcolor="#f9e1d0"] ;
291 -> 1535 ;
1536 [label="squared_error = 0.311\nsamples = 311\nvalue = [[0.525]\n[0.543]\n[-0.966]]", fillcolor="#efb489"] ;
291 -> 1536 ;
292 [label="ang3 <= -0.346\nsquared_error = 0.272\nsamples = 833\nvalue = [[0.688]\n[-0.369]\n[-0.937]]", fillcolor="#eead7f"] ;
115 -> 292 ;
437 [label="squared_error = 0.57\nsamples = 31\nvalue = [[-0.324]\n[0.496]\n[0.436]]", fillcolor="#f8decc"] ;
292 -> 437 ;
438 [label="ang_vel3 <= -6.367\nsquared_error = 0.212\nsamples = 802\nvalue = [[0.727]\n[-0.403]\n[-0.99]]", fillcolor="#eca46f"] ;
292 -> 438 ;
771 [label="ang_vel2 <= -2.289\nsquared_error = 0.147\nsamples = 498\nvalue = [[0.799]\n[-0.616]\n[-0.997]]", fillcolor="#ea995f"] ;
438 -> 771 ;
1037 [label="squared_error = 0.24\nsamples = 20\nvalue = [[0.533]\n[0.899]\n[-0.999]]", fillcolor="#eda877"] ;
771 -> 1037 ;
1038 [label="z_coord <= 0.982\nsquared_error = 0.109\nsamples = 478\nvalue = [[0.81]\n[-0.679]\n[-0.997]]", fillcolor="#e99355"] ;
771 -> 1038 ;
1631 [label="squared_error = 0.021\nsamples = 12\nvalue = [[0.85]\n[0.937]\n[-1.0]]", fillcolor="#e6843e"] ;
1038 -> 1631 ;
1632 [label="squared_error = 0.088\nsamples = 466\nvalue = [[0.809]\n[-0.721]\n[-0.997]]", fillcolor="#e88f50"] ;
1038 -> 1632 ;
772 [label="squared_error = 0.245\nsamples = 304\nvalue = [[0.61]\n[-0.054]\n[-0.98]]", fillcolor="#eda978"] ;
438 -> 772 ;
116 [label="ang3 <= 0.066\nsquared_error = 0.169\nsamples = 4260\nvalue = [[0.489]\n[0.525]\n[-0.979]]", fillcolor="#eb9d64"] ;
90 -> 116 ;
227 [label="ang_vel3 <= -7.84\nsquared_error = 0.226\nsamples = 268\nvalue = [[0.508]\n[-0.351]\n[-0.953]]", fillcolor="#eda673"] ;
116 -> 227 ;
1221 [label="squared_error = 0.124\nsamples = 180\nvalue = [[0.59]\n[-0.608]\n[-0.996]]", fillcolor="#e99559"] ;
227 -> 1221 ;
1222 [label="squared_error = 0.281\nsamples = 88\nvalue = [[0.34]\n[0.174]\n[-0.866]]", fillcolor="#eeaf81"] ;
227 -> 1222 ;
228 [label="ang_vel1 <= -4.618\nsquared_error = 0.147\nsamples = 3992\nvalue = [[0.488]\n[0.584]\n[-0.981]]", fillcolor="#ea995f"] ;
116 -> 228 ;
253 [label="ang_vel2 <= 0.979\nsquared_error = 0.1\nsamples = 1753\nvalue = [[0.734]\n[0.623]\n[-0.995]]", fillcolor="#e89153"] ;
228 -> 253 ;
611 [label="squared_error = 0.068\nsamples = 1573\nvalue = [[0.743]\n[0.695]\n[-0.996]]", fillcolor="#e78c4a"] ;
253 -> 611 ;
612 [label="squared_error = 0.234\nsamples = 180\nvalue = [[0.654]\n[-0.012]\n[-0.988]]", fillcolor="#eda775"] ;
253 -> 612 ;
254 [label="vel_z <= 0.54\nsquared_error = 0.154\nsamples = 2239\nvalue = [[0.296]\n[0.553]\n[-0.969]]", fillcolor="#ea9a61"] ;
228 -> 254 ;
757 [label="ang_vel3 <= -8.632\nsquared_error = 0.155\nsamples = 1650\nvalue = [[0.246]\n[0.643]\n[-0.969]]", fillcolor="#ea9a61"] ;
254 -> 757 ;
907 [label="squared_error = 0.266\nsamples = 191\nvalue = [[0.154]\n[0.141]\n[-0.954]]", fillcolor="#eeac7d"] ;
757 -> 907 ;
908 [label="ang_vel1 <= -3.175\nsquared_error = 0.128\nsamples = 1459\nvalue = [[0.258]\n[0.709]\n[-0.971]]", fillcolor="#e9965a"] ;
757 -> 908 ;
1089 [label="squared_error = 0.102\nsamples = 1172\nvalue = [[0.346]\n[0.704]\n[-0.976]]", fillcolor="#e89253"] ;
908 -> 1089 ;
1090 [label="squared_error = 0.178\nsamples = 287\nvalue = [[-0.103]\n[0.728]\n[-0.948]]", fillcolor="#eb9e67"] ;
908 -> 1090 ;
758 [label="squared_error = 0.112\nsamples = 589\nvalue = [[0.435]\n[0.299]\n[-0.971]]", fillcolor="#e99356"] ;
254 -> 758 ;
44 [label="z_coord <= 1.13\nsquared_error = 0.338\nsamples = 4562\nvalue = [[-0.032]\n[-0.12]\n[-0.924]]", fillcolor="#f0b890"] ;
9 -> 44 ;
111 [label="ang3 <= -0.559\nsquared_error = 0.283\nsamples = 3940\nvalue = [[-0.01]\n[-0.239]\n[-0.937]]", fillcolor="#efaf82"] ;
44 -> 111 ;
343 [label="ang_vel2 <= -2.995\nsquared_error = 0.652\nsamples = 111\nvalue = [[-0.653]\n[-0.202]\n[0.018]]", fillcolor="#fbece0"] ;
111 -> 343 ;
1469 [label="vel_z <= -0.119\nsquared_error = 0.534\nsamples = 33\nvalue = [[-0.62]\n[0.647]\n[-0.169]]", fillcolor="#f7d8c2"] ;
343 -> 1469 ;
1663 [label="squared_error = 0.302\nsamples = 20\nvalue = [[-0.379]\n[0.546]\n[-0.912]]", fillcolor="#efb287"] ;
1469 -> 1663 ;
1664 [label="squared_error = 0.083\nsamples = 13\nvalue = [[-0.992]\n[0.801]\n[0.973]]", fillcolor="#e88f4e"] ;
1469 -> 1664 ;
1470 [label="squared_error = 0.55\nsamples = 78\nvalue = [[-0.667]\n[-0.561]\n[0.097]]", fillcolor="#f8dbc6"] ;
343 -> 1470 ;
344 [label="ang1 <= -0.661\nsquared_error = 0.259\nsamples = 3829\nvalue = [[0.008]\n[-0.24]\n[-0.965]]", fillcolor="#eeab7c"] ;
111 -> 344 ;
345 [label="vel_z <= 0.069\nsquared_error = 0.315\nsamples = 1690\nvalue = [[0.205]\n[-0.349]\n[-0.947]]", fillcolor="#f0b58a"] ;
344 -> 345 ;
349 [label="ang_vel1 <= -4.431\nsquared_error = 0.362\nsamples = 984\nvalue = [[0.062]\n[-0.132]\n[-0.919]]", fillcolor="#f1bc96"] ;
345 -> 349 ;
747 [label="squared_error = 0.194\nsamples = 230\nvalue = [[0.452]\n[-0.393]\n[-0.983]]", fillcolor="#eca16b"] ;
349 -> 747 ;
748 [label="ang3 <= 0.086\nsquared_error = 0.384\nsamples = 754\nvalue = [[-0.057]\n[-0.053]\n[-0.9]]", fillcolor="#f2c09c"] ;
349 -> 748 ;
921 [label="ang_vel1 <= -0.888\nsquared_error = 0.577\nsamples = 220\nvalue = [[0.046]\n[-0.39]\n[-0.669]]", fillcolor="#f8dfcd"] ;
748 -> 921 ;
1913 [label="squared_error = 0.509\nsamples = 114\nvalue = [[0.382]\n[-0.417]\n[-0.723]]", fillcolor="#f6d4bc"] ;
921 -> 1913 ;
1914 [label="squared_error = 0.563\nsamples = 106\nvalue = [[-0.316]\n[-0.36]\n[-0.611]]", fillcolor="#f8ddca"] ;
921 -> 1914 ;
922 [label="vel_x <= 3.398\nsquared_error = 0.27\nsamples = 534\nvalue = [[-0.1]\n[0.086]\n[-0.995]]", fillcolor="#eead7e"] ;
748 -> 922 ;
1121 [label="squared_error = 0.197\nsamples = 395\nvalue = [[-0.021]\n[-0.068]\n[-0.999]]", fillcolor="#eca16b"] ;
922 -> 1121 ;
1122 [label="squared_error = 0.37\nsamples = 139\nvalue = [[-0.324]\n[0.524]\n[-0.986]]", fillcolor="#f1bd98"] ;
922 -> 1122 ;
350 [label="ang_vel1 <= -0.628\nsquared_error = 0.173\nsamples = 706\nvalue = [[0.404]\n[-0.652]\n[-0.986]]", fillcolor="#eb9d66"] ;
345 -> 350 ;
1555 [label="ang1 <= -0.732\nsquared_error = 0.134\nsamples = 645\nvalue = [[0.471]\n[-0.656]\n[-0.994]]", fillcolor="#ea975c"] ;
350 -> 1555 ;
1935 [label="squared_error = 0.115\nsamples = 359\nvalue = [[0.614]\n[-0.77]\n[-0.994]]", fillcolor="#e99457"] ;
1555 -> 1935 ;
1936 [label="squared_error = 0.127\nsamples = 286\nvalue = [[0.291]\n[-0.512]\n[-0.993]]", fillcolor="#e9965a"] ;
1555 -> 1936 ;
1556 [label="squared_error = 0.402\nsamples = 61\nvalue = [[-0.301]\n[-0.615]\n[-0.901]]", fillcolor="#f3c3a0"] ;
350 -> 1556 ;
346 [label="ang_vel2 <= 7.316\nsquared_error = 0.191\nsamples = 2139\nvalue = [[-0.147]\n[-0.154]\n[-0.978]]", fillcolor="#eba06a"] ;
344 -> 346 ;
347 [label="ang_vel1 <= -4.26\nsquared_error = 0.168\nsamples = 1456\nvalue = [[-0.21]\n[0.03]\n[-0.987]]", fillcolor="#eb9d64"] ;
346 -> 347 ;
1043 [label="squared_error = 0.097\nsamples = 644\nvalue = [[-0.015]\n[-0.036]\n[-0.996]]", fillcolor="#e89152"] ;
347 -> 1043 ;
1044 [label="ang0 <= -0.094\nsquared_error = 0.205\nsamples = 812\nvalue = [[-0.364]\n[0.083]\n[-0.98]]", fillcolor="#eca36e"] ;
347 -> 1044 ;
1401 [label="squared_error = 0.227\nsamples = 284\nvalue = [[-0.229]\n[0.34]\n[-0.961]]", fillcolor="#eda673"] ;
1044 -> 1401 ;
1402 [label="squared_error = 0.169\nsamples = 528\nvalue = [[-0.437]\n[-0.056]\n[-0.99]]", fillcolor="#eb9d65"] ;
1044 -> 1402 ;
348 [label="vel_x <= 2.284\nsquared_error = 0.155\nsamples = 683\nvalue = [[-0.012]\n[-0.548]\n[-0.96]]", fillcolor="#ea9a61"] ;
346 -> 348 ;
903 [label="squared_error = 0.0\nsamples = 11\nvalue = [[1.0]\n[-1.0]\n[0.998]]", fillcolor="#e58139"] ;
348 -> 903 ;
904 [label="ang_vel0 <= 2.635\nsquared_error = 0.129\nsamples = 672\nvalue = [[-0.029]\n[-0.54]\n[-0.992]]", fillcolor="#e9965a"] ;
348 -> 904 ;
1025 [label="ang_vel1 <= -5.02\nsquared_error = 0.099\nsamples = 493\nvalue = [[0.121]\n[-0.473]\n[-0.992]]", fillcolor="#e89152"] ;
904 -> 1025 ;
1601 [label="squared_error = 0.042\nsamples = 58\nvalue = [[0.716]\n[-0.853]\n[-0.999]]", fillcolor="#e68844"] ;
1025 -> 1601 ;
1602 [label="squared_error = 0.081\nsamples = 435\nvalue = [[0.042]\n[-0.423]\n[-0.992]]", fillcolor="#e88e4e"] ;
1025 -> 1602 ;
1026 [label="squared_error = 0.12\nsamples = 179\nvalue = [[-0.442]\n[-0.726]\n[-0.99]]", fillcolor="#e99558"] ;
904 -> 1026 ;
112 [label="ang3 <= 0.056\nsquared_error = 0.455\nsamples = 622\nvalue = [[-0.171]\n[0.635]\n[-0.845]]", fillcolor="#f4cbae"] ;
44 -> 112 ;
309 [label="ang2 <= -0.106\nsquared_error = 0.644\nsamples = 89\nvalue = [[-0.349]\n[-0.414]\n[-0.176]]", fillcolor="#fbeadf"] ;
112 -> 309 ;
839 [label="squared_error = 0.518\nsamples = 44\nvalue = [[-0.562]\n[-0.119]\n[0.579]]", fillcolor="#f6d6be"] ;
309 -> 839 ;
840 [label="squared_error = 0.316\nsamples = 45\nvalue = [[-0.142]\n[-0.703]\n[-0.914]]", fillcolor="#f0b58a"] ;
309 -> 840 ;
310 [label="ang3 <= 0.559\nsquared_error = 0.321\nsamples = 533\nvalue = [[-0.142]\n[0.81]\n[-0.956]]", fillcolor="#f0b58b"] ;
112 -> 310 ;
719 [label="ang1 <= -0.734\nsquared_error = 0.275\nsamples = 243\nvalue = [[-0.538]\n[0.812]\n[-0.929]]", fillcolor="#eeae80"] ;
310 -> 719 ;
1825 [label="squared_error = 0.387\nsamples = 40\nvalue = [[0.231]\n[0.71]\n[-0.908]]", fillcolor="#f2c09d"] ;
719 -> 1825 ;
1826 [label="squared_error = 0.206\nsamples = 203\nvalue = [[-0.69]\n[0.833]\n[-0.933]]", fillcolor="#eca36e"] ;
719 -> 1826 ;
720 [label="z_coord <= 1.194\nsquared_error = 0.278\nsamples = 290\nvalue = [[0.19]\n[0.808]\n[-0.979]]", fillcolor="#eeaf81"] ;
310 -> 720 ;
1759 [label="squared_error = 0.382\nsamples = 81\nvalue = [[-0.277]\n[0.59]\n[-0.975]]", fillcolor="#f2bf9b"] ;
720 -> 1759 ;
1760 [label="squared_error = 0.19\nsamples = 209\nvalue = [[0.371]\n[0.893]\n[-0.98]]", fillcolor="#eba06a"] ;
720 -> 1760 ;
10 [label="ang2 <= -0.294\nsquared_error = 0.253\nsamples = 22959\nvalue = [[0.584]\n[-0.717]\n[-0.967]]", fillcolor="#eeaa7a"] ;
3 -> 10 ;
11 [label="ang2 <= -0.339\nsquared_error = 0.373\nsamples = 2009\nvalue = [[-0.511]\n[0.642]\n[-0.797]]", fillcolor="#f2be99"] ;
10 -> 11 ;
163 [label="vel_z <= 2.115\nsquared_error = 0.288\nsamples = 1383\nvalue = [[-0.637]\n[0.863]\n[-0.753]]", fillcolor="#efb083"] ;
11 -> 163 ;
201 [label="ang3 <= -0.702\nsquared_error = 0.48\nsamples = 245\nvalue = [[-0.372]\n[0.974]\n[0.121]]", fillcolor="#f5d0b4"] ;
163 -> 201 ;
621 [label="vel_x <= 2.277\nsquared_error = 0.366\nsamples = 172\nvalue = [[-0.4]\n[0.993]\n[0.493]]", fillcolor="#f1bd97"] ;
201 -> 621 ;
801 [label="squared_error = 0.319\nsamples = 56\nvalue = [[0.212]\n[0.999]\n[-0.129]]", fillcolor="#f0b58b"] ;
621 -> 801 ;
802 [label="squared_error = 0.206\nsamples = 116\nvalue = [[-0.695]\n[0.99]\n[0.794]]", fillcolor="#eca36e"] ;
621 -> 802 ;
622 [label="squared_error = 0.383\nsamples = 73\nvalue = [[-0.308]\n[0.928]\n[-0.757]]", fillcolor="#f2c09b"] ;
201 -> 622 ;
202 [label="ang1 <= -0.584\nsquared_error = 0.173\nsamples = 1138\nvalue = [[-0.694]\n[0.84]\n[-0.941]]", fillcolor="#eb9d65"] ;
163 -> 202 ;
703 [label="vel_x <= 2.132\nsquared_error = 0.38\nsamples = 106\nvalue = [[0.033]\n[0.553]\n[-0.999]]", fillcolor="#f2bf9b"] ;
202 -> 703 ;
1703 [label="squared_error = 0.178\nsamples = 64\nvalue = [[-0.179]\n[0.934]\n[-0.998]]", fillcolor="#eb9e67"] ;
703 -> 1703 ;
1704 [label="squared_error = 0.442\nsamples = 42\nvalue = [[0.357]\n[-0.028]\n[-1.0]]", fillcolor="#f4c9ab"] ;
703 -> 1704 ;
704 [label="ang3 <= -0.479\nsquared_error = 0.129\nsamples = 1032\nvalue = [[-0.769]\n[0.869]\n[-0.935]]", fillcolor="#e9965a"] ;
202 -> 704 ;
1521 [label="squared_error = 0.1\nsamples = 900\nvalue = [[-0.818]\n[0.919]\n[-0.93]]", fillcolor="#e89153"] ;
704 -> 1521 ;
1522 [label="ang0 <= -0.055\nsquared_error = 0.235\nsamples = 132\nvalue = [[-0.433]\n[0.528]\n[-0.966]]", fillcolor="#eda775"] ;
704 -> 1522 ;
1813 [label="squared_error = 0.26\nsamples = 38\nvalue = [[0.066]\n[-0.015]\n[-1.0]]", fillcolor="#eeac7c"] ;
1522 -> 1813 ;
1814 [label="squared_error = 0.122\nsamples = 94\nvalue = [[-0.634]\n[0.748]\n[-0.952]]", fillcolor="#e99558"] ;
1522 -> 1814 ;
164 [label="ang3 <= -0.519\nsquared_error = 0.404\nsamples = 626\nvalue = [[-0.232]\n[0.154]\n[-0.895]]", fillcolor="#f3c3a1"] ;
11 -> 164 ;
653 [label="vel_x <= 3.204\nsquared_error = 0.367\nsamples = 250\nvalue = [[-0.574]\n[0.405]\n[-0.827]]", fillcolor="#f1bd97"] ;
164 -> 653 ;
895 [label="ang0 <= -0.077\nsquared_error = 0.301\nsamples = 234\nvalue = [[-0.553]\n[0.364]\n[-0.943]]", fillcolor="#efb286"] ;
653 -> 895 ;
1571 [label="squared_error = 0.324\nsamples = 176\nvalue = [[-0.434]\n[0.184]\n[-0.949]]", fillcolor="#f0b68c"] ;
895 -> 1571 ;
1572 [label="squared_error = 0.037\nsamples = 58\nvalue = [[-0.916]\n[0.911]\n[-0.926]]", fillcolor="#e68743"] ;
895 -> 1572 ;
896 [label="squared_error = 0.144\nsamples = 16\nvalue = [[-0.878]\n[1.0]\n[0.873]]", fillcolor="#ea995e"] ;
653 -> 896 ;
654 [label="vel_x <= 2.062\nsquared_error = 0.361\nsamples = 376\nvalue = [[-0.005]\n[-0.013]\n[-0.941]]", fillcolor="#f1bc96"] ;
164 -> 654 ;
655 [label="ang3 <= -0.412\nsquared_error = 0.297\nsamples = 224\nvalue = [[-0.225]\n[0.329]\n[-0.901]]", fillcolor="#efb285"] ;
654 -> 655 ;
1831 [label="z_coord <= 1.28\nsquared_error = 0.234\nsamples = 124\nvalue = [[-0.524]\n[0.447]\n[-0.893]]", fillcolor="#eda775"] ;
655 -> 1831 ;
1833 [label="squared_error = 0.156\nsamples = 95\nvalue = [[-0.667]\n[0.672]\n[-0.873]]", fillcolor="#ea9a61"] ;
1831 -> 1833 ;
1834 [label="squared_error = 0.158\nsamples = 29\nvalue = [[-0.055]\n[-0.289]\n[-0.959]]", fillcolor="#ea9b62"] ;
1831 -> 1834 ;
1832 [label="squared_error = 0.279\nsamples = 100\nvalue = [[0.146]\n[0.183]\n[-0.911]]", fillcolor="#eeaf81"] ;
655 -> 1832 ;
656 [label="squared_error = 0.252\nsamples = 152\nvalue = [[0.32]\n[-0.516]\n[-1.0]]", fillcolor="#eeaa7a"] ;
654 -> 656 ;
12 [label="z_coord <= 1.165\nsquared_error = 0.134\nsamples = 20950\nvalue = [[0.689]\n[-0.847]\n[-0.983]]", fillcolor="#ea975b"] ;
10 -> 12 ;
77 [label="ang_vel2 <= -0.366\nsquared_error = 0.184\nsamples = 7599\nvalue = [[0.485]\n[-0.725]\n[-0.983]]", fillcolor="#eb9f68"] ;
12 -> 77 ;
155 [label="ang3 <= -0.599\nsquared_error = 0.18\nsamples = 5653\nvalue = [[0.478]\n[-0.842]\n[-0.981]]", fillcolor="#eb9e67"] ;
77 -> 155 ;
203 [label="ang_vel2 <= -2.653\nsquared_error = 0.746\nsamples = 69\nvalue = [[-0.329]\n[0.431]\n[0.163]]", fillcolor="#fefbf9"] ;
155 -> 203 ;
1697 [label="vel_z <= 1.689\nsquared_error = 0.63\nsamples = 57\nvalue = [[-0.373]\n[0.72]\n[0.257]]", fillcolor="#fae8db"] ;
203 -> 1697 ;
1699 [label="squared_error = 0.415\nsamples = 45\nvalue = [[-0.587]\n[0.853]\n[0.558]]", fillcolor="#f3c5a4"] ;
1697 -> 1699 ;
1700 [label="squared_error = 0.523\nsamples = 12\nvalue = [[0.426]\n[0.219]\n[-0.871]]", fillcolor="#f7d7bf"] ;
1697 -> 1700 ;
1698 [label="squared_error = 0.443\nsamples = 12\nvalue = [[-0.116]\n[-0.938]\n[-0.282]]", fillcolor="#f4c9ab"] ;
203 -> 1698 ;
204 [label="ang_vel0 <= -0.259\nsquared_error = 0.158\nsamples = 5584\nvalue = [[0.488]\n[-0.857]\n[-0.995]]", fillcolor="#ea9b62"] ;
155 -> 204 ;
353 [label="ang_vel0 <= -1.999\nsquared_error = 0.146\nsamples = 2328\nvalue = [[0.677]\n[-0.81]\n[-0.993]]", fillcolor="#ea995f"] ;
204 -> 353 ;
517 [label="squared_error = 0.266\nsamples = 114\nvalue = [[0.95]\n[0.05]\n[-0.989]]", fillcolor="#eead7d"] ;
353 -> 517 ;
518 [label="ang2 <= -0.155\nsquared_error = 0.125\nsamples = 2214\nvalue = [[0.663]\n[-0.854]\n[-0.994]]", fillcolor="#e99559"] ;
353 -> 518 ;
1559 [label="vel_x <= 3.448\nsquared_error = 0.306\nsamples = 103\nvalue = [[0.67]\n[-0.297]\n[-0.991]]", fillcolor="#efb388"] ;
518 -> 1559 ;
1561 [label="squared_error = 0.2\nsamples = 94\nvalue = [[0.804]\n[-0.414]\n[-0.999]]", fillcolor="#eca26c"] ;
1559 -> 1561 ;
1562 [label="squared_error = 0.149\nsamples = 9\nvalue = [[-0.73]\n[0.923]\n[-0.904]]", fillcolor="#ea995f"] ;
1559 -> 1562 ;
1560 [label="vel_x <= 2.364\nsquared_error = 0.111\nsamples = 2111\nvalue = [[0.662]\n[-0.882]\n[-0.994]]", fillcolor="#e99356"] ;
518 -> 1560 ;
1611 [label="squared_error = 0.059\nsamples = 632\nvalue = [[0.844]\n[-0.938]\n[-0.984]]", fillcolor="#e78b48"] ;
1560 -> 1611 ;
1612 [label="ang0 <= -0.082\nsquared_error = 0.126\nsamples = 1479\nvalue = [[0.585]\n[-0.857]\n[-0.998]]", fillcolor="#e99659"] ;
1560 -> 1612 ;
1613 [label="squared_error = 0.091\nsamples = 991\nvalue = [[0.701]\n[-0.831]\n[-0.998]]", fillcolor="#e89050"] ;
1612 -> 1613 ;
1614 [label="ang1 <= -0.74\nsquared_error = 0.17\nsamples = 488\nvalue = [[0.348]\n[-0.911]\n[-0.998]]", fillcolor="#eb9d65"] ;
1612 -> 1614 ;
1953 [label="squared_error = 0.135\nsamples = 310\nvalue = [[0.526]\n[-0.912]\n[-0.996]]", fillcolor="#ea975c"] ;
1614 -> 1953 ;
1954 [label="squared_error = 0.18\nsamples = 178\nvalue = [[0.037]\n[-0.91]\n[-1.0]]", fillcolor="#eb9e67"] ;
1614 -> 1954 ;
354 [label="ang_vel0 <= 0.621\nsquared_error = 0.151\nsamples = 3256\nvalue = [[0.353]\n[-0.891]\n[-0.997]]", fillcolor="#ea9a60"] ;
204 -> 354 ;
595 [label="ang0 <= 0.012\nsquared_error = 0.134\nsamples = 2904\nvalue = [[0.409]\n[-0.896]\n[-0.996]]", fillcolor="#ea975b"] ;
354 -> 595 ;
783 [label="vel_x <= 2.306\nsquared_error = 0.122\nsamples = 2760\nvalue = [[0.443]\n[-0.894]\n[-0.996]]", fillcolor="#e99558"] ;
595 -> 783 ;
979 [label="ang2 <= -0.152\nsquared_error = 0.092\nsamples = 910\nvalue = [[0.639]\n[-0.905]\n[-0.996]]", fillcolor="#e89051"] ;
783 -> 979 ;
1997 [label="squared_error = 0.195\nsamples = 114\nvalue = [[0.377]\n[-0.538]\n[-1.0]]", fillcolor="#eca16b"] ;
979 -> 1997 ;
1998 [label="squared_error = 0.066\nsamples = 796\nvalue = [[0.677]\n[-0.958]\n[-0.996]]", fillcolor="#e78c4a"] ;
979 -> 1998 ;
980 [label="ang0 <= -0.13\nsquared_error = 0.128\nsamples = 1850\nvalue = [[0.346]\n[-0.889]\n[-0.996]]", fillcolor="#e9965a"] ;
783 -> 980 ;
1019 [label="squared_error = 0.076\nsamples = 577\nvalue = [[0.583]\n[-0.828]\n[-1.0]]", fillcolor="#e88d4d"] ;
980 -> 1019 ;
1020 [label="squared_error = 0.138\nsamples = 1273\nvalue = [[0.239]\n[-0.917]\n[-0.994]]", fillcolor="#ea985d"] ;
980 -> 1020 ;
784 [label="squared_error = 0.198\nsamples = 144\nvalue = [[-0.248]\n[-0.915]\n[-1.0]]", fillcolor="#eca16c"] ;
595 -> 784 ;
596 [label="squared_error = 0.214\nsamples = 352\nvalue = [[-0.106]\n[-0.854]\n[-1.0]]", fillcolor="#eca470"] ;
354 -> 596 ;
156 [label="ang_vel3 <= -4.663\nsquared_error = 0.146\nsamples = 1946\nvalue = [[0.504]\n[-0.388]\n[-0.987]]", fillcolor="#ea995f"] ;
77 -> 156 ;
483 [label="ang_vel1 <= -2.994\nsquared_error = 0.127\nsamples = 1737\nvalue = [[0.52]\n[-0.466]\n[-0.987]]", fillcolor="#e9965a"] ;
156 -> 483 ;
685 [label="ang3 <= 0.053\nsquared_error = 0.124\nsamples = 769\nvalue = [[0.59]\n[-0.246]\n[-0.99]]", fillcolor="#e99559"] ;
483 -> 685 ;
1921 [label="squared_error = 0.082\nsamples = 215\nvalue = [[0.597]\n[-0.55]\n[-0.989]]", fillcolor="#e88e4e"] ;
685 -> 1921 ;
1922 [label="ang1 <= -0.624\nsquared_error = 0.124\nsamples = 554\nvalue = [[0.587]\n[-0.129]\n[-0.99]]", fillcolor="#e99559"] ;
685 -> 1922 ;
1923 [label="squared_error = 0.108\nsamples = 92\nvalue = [[0.822]\n[-0.575]\n[-1.0]]", fillcolor="#e99355"] ;
1922 -> 1923 ;
1924 [label="squared_error = 0.107\nsamples = 462\nvalue = [[0.54]\n[-0.04]\n[-0.988]]", fillcolor="#e99254"] ;
1922 -> 1924 ;
686 [label="squared_error = 0.104\nsamples = 968\nvalue = [[0.465]\n[-0.64]\n[-0.984]]", fillcolor="#e89254"] ;
483 -> 686 ;
484 [label="squared_error = 0.148\nsamples = 209\nvalue = [[0.372]\n[0.26]\n[-0.988]]", fillcolor="#ea995f"] ;
156 -> 484 ;
78 [label="ang2 <= -0.22\nsquared_error = 0.088\nsamples = 13351\nvalue = [[0.806]\n[-0.916]\n[-0.984]]", fillcolor="#e88f50"] ;
12 -> 78 ;
93 [label="vel_x <= 2.076\nsquared_error = 0.269\nsamples = 1493\nvalue = [[0.376]\n[-0.512]\n[-0.931]]", fillcolor="#eead7e"] ;
78 -> 93 ;
313 [label="ang_vel1 <= 7.207\nsquared_error = 0.285\nsamples = 547\nvalue = [[0.183]\n[-0.129]\n[-0.872]]", fillcolor="#efb082"] ;
93 -> 313 ;
515 [label="ang_vel0 <= 0.265\nsquared_error = 0.205\nsamples = 346\nvalue = [[0.457]\n[0.021]\n[-0.955]]", fillcolor="#eca36e"] ;
313 -> 515 ;
1427 [label="squared_error = 0.188\nsamples = 159\nvalue = [[0.48]\n[0.372]\n[-0.961]]", fillcolor="#eba069"] ;
515 -> 1427 ;
1428 [label="squared_error = 0.155\nsamples = 187\nvalue = [[0.437]\n[-0.278]\n[-0.95]]", fillcolor="#ea9a61"] ;
515 -> 1428 ;
516 [label="vel_x <= 1.824\nsquared_error = 0.259\nsamples = 201\nvalue = [[-0.287]\n[-0.387]\n[-0.728]]", fillcolor="#eeab7c"] ;
313 -> 516 ;
1193 [label="squared_error = 0.249\nsamples = 43\nvalue = [[-0.581]\n[-0.005]\n[0.009]]", fillcolor="#edaa79"] ;
516 -> 1193 ;
1194 [label="squared_error = 0.172\nsamples = 158\nvalue = [[-0.207]\n[-0.491]\n[-0.929]]", fillcolor="#eb9d65"] ;
516 -> 1194 ;
314 [label="ang3 <= -0.679\nsquared_error = 0.202\nsamples = 946\nvalue = [[0.488]\n[-0.734]\n[-0.966]]", fillcolor="#eca26d"] ;
93 -> 314 ;
351 [label="ang_vel3 <= -9.166\nsquared_error = 0.617\nsamples = 74\nvalue = [[-0.366]\n[0.264]\n[-0.565]]", fillcolor="#fae6d8"] ;
314 -> 351 ;
899 [label="squared_error = 0.439\nsamples = 59\nvalue = [[-0.213]\n[0.077]\n[-0.934]]", fillcolor="#f4c9aa"] ;
351 -> 899 ;
900 [label="squared_error = 0.058\nsamples = 15\nvalue = [[-0.97]\n[1.0]\n[0.888]]", fillcolor="#e78a48"] ;
351 -> 900 ;
352 [label="ang_vel1 <= 7.27\nsquared_error = 0.109\nsamples = 872\nvalue = [[0.56]\n[-0.819]\n[-1.0]]", fillcolor="#e99355"] ;
314 -> 352 ;
901 [label="squared_error = 0.098\nsamples = 592\nvalue = [[0.729]\n[-0.773]\n[-1.0]]", fillcolor="#e89152"] ;
352 -> 901 ;
902 [label="squared_error = 0.065\nsamples = 280\nvalue = [[0.202]\n[-0.915]\n[-1.0]]", fillcolor="#e78c4a"] ;
352 -> 902 ;
94 [label="ang3 <= -0.715\nsquared_error = 0.049\nsamples = 11858\nvalue = [[0.86]\n[-0.967]\n[-0.991]]", fillcolor="#e78945"] ;
78 -> 94 ;
531 [label="ang3 <= -0.837\nsquared_error = 0.771\nsamples = 35\nvalue = [[-0.109]\n[-0.249]\n[0.129]]", fillcolor="#ffffff"] ;
94 -> 531 ;
1949 [label="squared_error = 0.155\nsamples = 9\nvalue = [[-0.692]\n[0.884]\n[0.913]]", fillcolor="#ea9a61"] ;
531 -> 1949 ;
1950 [label="squared_error = 0.636\nsamples = 26\nvalue = [[0.093]\n[-0.641]\n[-0.143]]", fillcolor="#fae9dc"] ;
531 -> 1950 ;
532 [label="vel_x <= 3.035\nsquared_error = 0.044\nsamples = 11823\nvalue = [[0.862]\n[-0.969]\n[-0.994]]", fillcolor="#e68844"] ;
94 -> 532 ;
675 [label="ang0 <= -0.083\nsquared_error = 0.038\nsamples = 10707\nvalue = [[0.888]\n[-0.97]\n[-0.993]]", fillcolor="#e68743"] ;
532 -> 675 ;
811 [label="ang_vel1 <= 7.238\nsquared_error = 0.028\nsamples = 9746\nvalue = [[0.908]\n[-0.983]\n[-0.995]]", fillcolor="#e68640"] ;
675 -> 811 ;
1803 [label="z_coord <= 1.208\nsquared_error = 0.026\nsamples = 9692\nvalue = [[0.912]\n[-0.984]\n[-0.995]]", fillcolor="#e68540"] ;
811 -> 1803 ;
1805 [label="squared_error = 0.042\nsamples = 3590\nvalue = [[0.84]\n[-0.972]\n[-0.992]]", fillcolor="#e68844"] ;
1803 -> 1805 ;
1806 [label="squared_error = 0.015\nsamples = 6102\nvalue = [[0.955]\n[-0.99]\n[-0.997]]", fillcolor="#e6833d"] ;
1803 -> 1806 ;
1804 [label="squared_error = 0.125\nsamples = 54\nvalue = [[0.191]\n[-0.871]\n[-0.884]]", fillcolor="#e99559"] ;
811 -> 1804 ;
812 [label="ang_vel0 <= 0.526\nsquared_error = 0.116\nsamples = 961\nvalue = [[0.683]\n[-0.839]\n[-0.979]]", fillcolor="#e99457"] ;
675 -> 812 ;
1917 [label="ang_vel2 <= -7.226\nsquared_error = 0.107\nsamples = 499\nvalue = [[0.806]\n[-0.732]\n[-0.977]]", fillcolor="#e99355"] ;
812 -> 1917 ;
1973 [label="squared_error = 0.096\nsamples = 135\nvalue = [[0.745]\n[-0.356]\n[-0.988]]", fillcolor="#e89152"] ;
1917 -> 1973 ;
1974 [label="squared_error = 0.087\nsamples = 364\nvalue = [[0.829]\n[-0.871]\n[-0.973]]", fillcolor="#e88f4f"] ;
1917 -> 1974 ;
1918 [label="squared_error = 0.106\nsamples = 462\nvalue = [[0.55]\n[-0.954]\n[-0.981]]", fillcolor="#e99254"] ;
812 -> 1918 ;
676 [label="ang_vel0 <= 0.118\nsquared_error = 0.081\nsamples = 1116\nvalue = [[0.617]\n[-0.96]\n[-1.0]]", fillcolor="#e88e4e"] ;
532 -> 676 ;
1103 [label="squared_error = 0.057\nsamples = 936\nvalue = [[0.706]\n[-0.953]\n[-1.0]]", fillcolor="#e78a48"] ;
676 -> 1103 ;
1104 [label="squared_error = 0.122\nsamples = 180\nvalue = [[0.155]\n[-0.997]\n[-1.0]]", fillcolor="#e99558"] ;
676 -> 1104 ;
4 [label="vel_z <= 2.918\nsquared_error = 0.39\nsamples = 21158\nvalue = [[-0.381]\n[0.453]\n[-0.731]]", fillcolor="#f2c19d"] ;
1 -> 4 ;
19 [label="ang_vel0 <= -2.606\nsquared_error = 0.352\nsamples = 19343\nvalue = [[-0.398]\n[0.569]\n[-0.721]]", fillcolor="#f1ba93"] ;
4 -> 19 ;
21 [label="ang3 <= 0.418\nsquared_error = 0.219\nsamples = 6523\nvalue = [[0.053]\n[0.249]\n[-0.92]]", fillcolor="#eca571"] ;
19 -> 21 ;
45 [label="vel_z <= -0.879\nsquared_error = 0.149\nsamples = 2626\nvalue = [[0.452]\n[0.034]\n[-0.939]]", fillcolor="#ea995f"] ;
21 -> 45 ;
245 [label="ang0 <= -0.054\nsquared_error = 0.12\nsamples = 2204\nvalue = [[0.4]\n[-0.075]\n[-0.943]]", fillcolor="#e99558"] ;
45 -> 245 ;
453 [label="squared_error = 0.089\nsamples = 1134\nvalue = [[0.618]\n[-0.099]\n[-0.927]]", fillcolor="#e89050"] ;
245 -> 453 ;
454 [label="ang_vel0 <= -4.055\nsquared_error = 0.119\nsamples = 1070\nvalue = [[0.17]\n[-0.049]\n[-0.96]]", fillcolor="#e99458"] ;
245 -> 454 ;
625 [label="squared_error = 0.081\nsamples = 421\nvalue = [[0.506]\n[-0.103]\n[-0.962]]", fillcolor="#e88e4e"] ;
454 -> 625 ;
626 [label="squared_error = 0.102\nsamples = 649\nvalue = [[-0.048]\n[-0.014]\n[-0.959]]", fillcolor="#e89253"] ;
454 -> 626 ;
246 [label="ang_vel3 <= -9.832\nsquared_error = 0.137\nsamples = 422\nvalue = [[0.722]\n[0.604]\n[-0.918]]", fillcolor="#ea975c"] ;
45 -> 246 ;
1763 [label="squared_error = 0.158\nsamples = 141\nvalue = [[0.78]\n[0.233]\n[-0.903]]", fillcolor="#ea9b62"] ;
246 -> 1763 ;
1764 [label="squared_error = 0.091\nsamples = 281\nvalue = [[0.693]\n[0.79]\n[-0.926]]", fillcolor="#e89050"] ;
246 -> 1764 ;
46 [label="ang_vel0 <= -3.918\nsquared_error = 0.189\nsamples = 3897\nvalue = [[-0.216]\n[0.393]\n[-0.907]]", fillcolor="#eba069"] ;
21 -> 46 ;
211 [label="vel_x <= 2.877\nsquared_error = 0.161\nsamples = 585\nvalue = [[0.379]\n[0.363]\n[-0.917]]", fillcolor="#ea9b62"] ;
46 -> 211 ;
481 [label="squared_error = 0.135\nsamples = 182\nvalue = [[0.816]\n[0.805]\n[-0.854]]", fillcolor="#ea975c"] ;
211 -> 481 ;
482 [label="squared_error = 0.088\nsamples = 403\nvalue = [[0.182]\n[0.163]\n[-0.945]]", fillcolor="#e88f50"] ;
211 -> 482 ;
212 [label="ang_vel3 <= -8.751\nsquared_error = 0.169\nsamples = 3312\nvalue = [[-0.322]\n[0.398]\n[-0.906]]", fillcolor="#eb9d64"] ;
46 -> 212 ;
307 [label="ang0 <= -0.035\nsquared_error = 0.1\nsamples = 1562\nvalue = [[-0.39]\n[0.173]\n[-0.922]]", fillcolor="#e89153"] ;
212 -> 307 ;
971 [label="squared_error = 0.146\nsamples = 435\nvalue = [[-0.104]\n[0.117]\n[-0.874]]", fillcolor="#ea995f"] ;
307 -> 971 ;
972 [label="ang_vel1 <= -8.152\nsquared_error = 0.066\nsamples = 1127\nvalue = [[-0.501]\n[0.195]\n[-0.94]]", fillcolor="#e78c4a"] ;
307 -> 972 ;
1669 [label="squared_error = 0.096\nsamples = 71\nvalue = [[0.094]\n[-0.045]\n[-0.999]]", fillcolor="#e89152"] ;
972 -> 1669 ;
1670 [label="squared_error = 0.054\nsamples = 1056\nvalue = [[-0.541]\n[0.211]\n[-0.936]]", fillcolor="#e78a47"] ;
972 -> 1670 ;
308 [label="ang0 <= -0.011\nsquared_error = 0.199\nsamples = 1750\nvalue = [[-0.26]\n[0.599]\n[-0.892]]", fillcolor="#eca26c"] ;
212 -> 308 ;
557 [label="z_coord <= 1.224\nsquared_error = 0.257\nsamples = 329\nvalue = [[0.202]\n[0.605]\n[-0.801]]", fillcolor="#eeab7b"] ;
308 -> 557 ;
1681 [label="squared_error = 0.202\nsamples = 293\nvalue = [[0.133]\n[0.6]\n[-0.883]]", fillcolor="#eca26d"] ;
557 -> 1681 ;
1682 [label="squared_error = 0.41\nsamples = 36\nvalue = [[0.769]\n[0.64]\n[-0.132]]", fillcolor="#f3c4a2"] ;
557 -> 1682 ;
558 [label="ang_vel2 <= 1.184\nsquared_error = 0.165\nsamples = 1421\nvalue = [[-0.368]\n[0.598]\n[-0.913]]", fillcolor="#eb9c63"] ;
308 -> 558 ;
749 [label="ang_vel1 <= -4.047\nsquared_error = 0.13\nsamples = 1237\nvalue = [[-0.442]\n[0.637]\n[-0.91]]", fillcolor="#e9965a"] ;
558 -> 749 ;
1597 [label="ang3 <= 0.614\nsquared_error = 0.126\nsamples = 1012\nvalue = [[-0.366]\n[0.649]\n[-0.916]]", fillcolor="#e99659"] ;
749 -> 1597 ;
1599 [label="squared_error = 0.057\nsamples = 669\nvalue = [[-0.547]\n[0.569]\n[-0.939]]", fillcolor="#e78a48"] ;
1597 -> 1599 ;
1600 [label="squared_error = 0.186\nsamples = 343\nvalue = [[-0.012]\n[0.803]\n[-0.872]]", fillcolor="#eb9f69"] ;
1597 -> 1600 ;
1598 [label="squared_error = 0.1\nsamples = 225\nvalue = [[-0.781]\n[0.584]\n[-0.881]]", fillcolor="#e89153"] ;
749 -> 1598 ;
750 [label="ang_vel0 <= -3.123\nsquared_error = 0.277\nsamples = 184\nvalue = [[0.13]\n[0.334]\n[-0.932]]", fillcolor="#eeae80"] ;
558 -> 750 ;
1705 [label="squared_error = 0.184\nsamples = 89\nvalue = [[0.508]\n[0.521]\n[-0.913]]", fillcolor="#eb9f68"] ;
750 -> 1705 ;
1706 [label="squared_error = 0.257\nsamples = 95\nvalue = [[-0.223]\n[0.158]\n[-0.949]]", fillcolor="#eeab7b"] ;
750 -> 1706 ;
22 [label="ang3 <= -0.846\nsquared_error = 0.331\nsamples = 12820\nvalue = [[-0.628]\n[0.732]\n[-0.62]]", fillcolor="#f0b78e"] ;
19 -> 22 ;
29 [label="z_coord <= 1.326\nsquared_error = 0.216\nsamples = 1466\nvalue = [[-0.509]\n[0.998]\n[0.487]]", fillcolor="#eca471"] ;
22 -> 29 ;
205 [label="ang_vel1 <= 2.618\nsquared_error = 0.281\nsamples = 274\nvalue = [[-0.055]\n[0.998]\n[-0.241]]", fillcolor="#eeaf81"] ;
29 -> 205 ;
683 [label="squared_error = 0.164\nsamples = 128\nvalue = [[0.48]\n[0.996]\n[-0.375]]", fillcolor="#eb9c63"] ;
205 -> 683 ;
684 [label="vel_z <= 2.138\nsquared_error = 0.216\nsamples = 146\nvalue = [[-0.525]\n[1.0]\n[-0.124]]", fillcolor="#eca471"] ;
205 -> 684 ;
1223 [label="squared_error = 0.126\nsamples = 66\nvalue = [[-0.443]\n[1.0]\n[0.453]]", fillcolor="#e99659"] ;
684 -> 1223 ;
1224 [label="squared_error = 0.12\nsamples = 80\nvalue = [[-0.592]\n[0.999]\n[-0.6]]", fillcolor="#e99558"] ;
684 -> 1224 ;
206 [label="ang_vel3 <= -6.714\nsquared_error = 0.132\nsamples = 1192\nvalue = [[-0.614]\n[0.998]\n[0.654]]", fillcolor="#e9975b"] ;
29 -> 206 ;
555 [label="vel_x <= 1.996\nsquared_error = 0.234\nsamples = 251\nvalue = [[-0.76]\n[1.0]\n[0.142]]", fillcolor="#eda775"] ;
206 -> 555 ;
1501 [label="squared_error = 0.187\nsamples = 118\nvalue = [[-0.777]\n[1.0]\n[-0.255]]", fillcolor="#eba069"] ;
555 -> 1501 ;
1502 [label="squared_error = 0.187\nsamples = 133\nvalue = [[-0.745]\n[1.0]\n[0.494]]", fillcolor="#eba069"] ;
555 -> 1502 ;
556 [label="ang_vel0 <= -0.135\nsquared_error = 0.073\nsamples = 941\nvalue = [[-0.575]\n[0.998]\n[0.79]]", fillcolor="#e78d4c"] ;
206 -> 556 ;
939 [label="squared_error = 0.078\nsamples = 502\nvalue = [[-0.394]\n[0.999]\n[0.656]]", fillcolor="#e88e4d"] ;
556 -> 939 ;
940 [label="squared_error = 0.027\nsamples = 439\nvalue = [[-0.781]\n[0.997]\n[0.944]]", fillcolor="#e68540"] ;
556 -> 940 ;
30 [label="ang1 <= -0.142\nsquared_error = 0.282\nsamples = 11354\nvalue = [[-0.643]\n[0.698]\n[-0.763]]", fillcolor="#efaf81"] ;
22 -> 30 ;
97 [label="ang3 <= -0.643\nsquared_error = 0.249\nsamples = 8933\nvalue = [[-0.667]\n[0.634]\n[-0.854]]", fillcolor="#edaa79"] ;
30 -> 97 ;
99 [label="vel_x <= 1.578\nsquared_error = 0.108\nsamples = 3511\nvalue = [[-0.856]\n[0.9]\n[-0.864]]", fillcolor="#e99355"] ;
97 -> 99 ;
465 [label="vel_z <= 2.764\nsquared_error = 0.262\nsamples = 508\nvalue = [[-0.753]\n[0.779]\n[-0.464]]", fillcolor="#eeac7c"] ;
99 -> 465 ;
983 [label="vel_x <= 1.398\nsquared_error = 0.23\nsamples = 444\nvalue = [[-0.732]\n[0.852]\n[-0.558]]", fillcolor="#eda774"] ;
465 -> 983 ;
1143 [label="squared_error = 0.269\nsamples = 83\nvalue = [[-0.803]\n[0.846]\n[0.099]]", fillcolor="#eead7e"] ;
983 -> 1143 ;
1144 [label="squared_error = 0.18\nsamples = 361\nvalue = [[-0.715]\n[0.853]\n[-0.709]]", fillcolor="#eb9e67"] ;
983 -> 1144 ;
984 [label="squared_error = 0.215\nsamples = 64\nvalue = [[-0.902]\n[0.27]\n[0.191]]", fillcolor="#eca470"] ;
465 -> 984 ;
466 [label="ang_vel1 <= 2.913\nsquared_error = 0.07\nsamples = 3003\nvalue = [[-0.873]\n[0.921]\n[-0.932]]", fillcolor="#e78c4b"] ;
99 -> 466 ;
529 [label="squared_error = 0.452\nsamples = 73\nvalue = [[-0.176]\n[0.745]\n[-0.061]]", fillcolor="#f4cbad"] ;
466 -> 529 ;
530 [label="ang_vel1 <= 5.34\nsquared_error = 0.05\nsamples = 2930\nvalue = [[-0.891]\n[0.925]\n[-0.953]]", fillcolor="#e78946"] ;
466 -> 530 ;
1875 [label="squared_error = 0.077\nsamples = 770\nvalue = [[-0.739]\n[0.97]\n[-0.91]]", fillcolor="#e88e4d"] ;
530 -> 1875 ;
1876 [label="squared_error = 0.035\nsamples = 2160\nvalue = [[-0.945]\n[0.909]\n[-0.969]]", fillcolor="#e68742"] ;
530 -> 1876 ;
100 [label="ang1 <= -0.263\nsquared_error = 0.302\nsamples = 5422\nvalue = [[-0.545]\n[0.461]\n[-0.848]]", fillcolor="#efb287"] ;
97 -> 100 ;
151 [label="vel_z <= 2.764\nsquared_error = 0.338\nsamples = 2983\nvalue = [[-0.442]\n[0.276]\n[-0.878]]", fillcolor="#f0b890"] ;
100 -> 151 ;
399 [label="ang0 <= -0.1\nsquared_error = 0.325\nsamples = 2527\nvalue = [[-0.427]\n[0.362]\n[-0.892]]", fillcolor="#f0b68c"] ;
151 -> 399 ;
401 [label="ang_vel1 <= -3.958\nsquared_error = 0.522\nsamples = 261\nvalue = [[0.179]\n[0.28]\n[-0.63]]", fillcolor="#f7d6bf"] ;
399 -> 401 ;
701 [label="vel_z <= -0.329\nsquared_error = 0.317\nsamples = 162\nvalue = [[0.485]\n[0.095]\n[-0.831]]", fillcolor="#f0b58b"] ;
401 -> 701 ;
1365 [label="squared_error = 0.302\nsamples = 97\nvalue = [[0.465]\n[-0.297]\n[-0.791]]", fillcolor="#efb287"] ;
701 -> 1365 ;
1366 [label="squared_error = 0.147\nsamples = 65\nvalue = [[0.516]\n[0.681]\n[-0.89]]", fillcolor="#ea995f"] ;
701 -> 1366 ;
702 [label="ang2 <= -0.054\nsquared_error = 0.615\nsamples = 99\nvalue = [[-0.322]\n[0.582]\n[-0.3]]", fillcolor="#fae6d7"] ;
401 -> 702 ;
893 [label="squared_error = 0.266\nsamples = 52\nvalue = [[-0.557]\n[0.514]\n[-0.979]]", fillcolor="#eead7d"] ;
702 -> 893 ;
894 [label="vel_x <= 3.052\nsquared_error = 0.595\nsamples = 47\nvalue = [[-0.062]\n[0.658]\n[0.452]]", fillcolor="#f9e2d2"] ;
702 -> 894 ;
1627 [label="squared_error = 0.297\nsamples = 27\nvalue = [[0.369]\n[0.85]\n[0.987]]", fillcolor="#efb285"] ;
894 -> 1627 ;
1628 [label="squared_error = 0.46\nsamples = 20\nvalue = [[-0.645]\n[0.398]\n[-0.271]]", fillcolor="#f5ccaf"] ;
894 -> 1628 ;
402 [label="ang_vel3 <= -8.688\nsquared_error = 0.283\nsamples = 2266\nvalue = [[-0.497]\n[0.371]\n[-0.922]]", fillcolor="#efaf82"] ;
399 -> 402 ;
691 [label="ang3 <= -0.551\nsquared_error = 0.216\nsamples = 998\nvalue = [[-0.679]\n[0.285]\n[-0.917]]", fillcolor="#eca471"] ;
402 -> 691 ;
705 [label="ang2 <= -0.324\nsquared_error = 0.177\nsamples = 267\nvalue = [[-0.821]\n[0.703]\n[-0.871]]", fillcolor="#eb9e66"] ;
691 -> 705 ;
1897 [label="squared_error = 0.122\nsamples = 244\nvalue = [[-0.851]\n[0.796]\n[-0.89]]", fillcolor="#e99558"] ;
705 -> 1897 ;
1898 [label="squared_error = 0.358\nsamples = 23\nvalue = [[-0.499]\n[-0.275]\n[-0.661]]", fillcolor="#f1bb95"] ;
705 -> 1898 ;
706 [label="vel_z <= -0.869\nsquared_error = 0.198\nsamples = 731\nvalue = [[-0.628]\n[0.133]\n[-0.934]]", fillcolor="#eca16c"] ;
691 -> 706 ;
935 [label="ang_vel3 <= -9.504\nsquared_error = 0.134\nsamples = 609\nvalue = [[-0.741]\n[0.178]\n[-0.943]]", fillcolor="#ea975c"] ;
706 -> 935 ;
1971 [label="squared_error = 0.141\nsamples = 382\nvalue = [[-0.73]\n[0.017]\n[-0.933]]", fillcolor="#ea985d"] ;
935 -> 1971 ;
1972 [label="squared_error = 0.083\nsamples = 227\nvalue = [[-0.759]\n[0.449]\n[-0.961]]", fillcolor="#e88f4e"] ;
935 -> 1972 ;
936 [label="squared_error = 0.366\nsamples = 122\nvalue = [[-0.063]\n[-0.095]\n[-0.888]]", fillcolor="#f1bd97"] ;
706 -> 936 ;
692 [label="vel_z <= -0.642\nsquared_error = 0.316\nsamples = 1268\nvalue = [[-0.354]\n[0.439]\n[-0.926]]", fillcolor="#f0b58a"] ;
402 -> 692 ;
767 [label="ang2 <= -0.099\nsquared_error = 0.272\nsamples = 1143\nvalue = [[-0.395]\n[0.501]\n[-0.94]]", fillcolor="#eead7f"] ;
692 -> 767 ;
769 [label="ang_vel0 <= 0.548\nsquared_error = 0.254\nsamples = 355\nvalue = [[-0.027]\n[0.613]\n[-0.973]]", fillcolor="#eeab7a"] ;
767 -> 769 ;
1455 [label="squared_error = 0.197\nsamples = 304\nvalue = [[0.085]\n[0.679]\n[-0.978]]", fillcolor="#eca16c"] ;
769 -> 1455 ;
1456 [label="squared_error = 0.364\nsamples = 51\nvalue = [[-0.694]\n[0.219]\n[-0.94]]", fillcolor="#f1bc96"] ;
769 -> 1456 ;
770 [label="ang_vel2 <= 1.397\nsquared_error = 0.247\nsamples = 788\nvalue = [[-0.561]\n[0.45]\n[-0.926]]", fillcolor="#eda978"] ;
767 -> 770 ;
937 [label="squared_error = 0.15\nsamples = 430\nvalue = [[-0.627]\n[0.68]\n[-0.909]]", fillcolor="#ea995f"] ;
770 -> 937 ;
938 [label="ang_vel3 <= -6.529\nsquared_error = 0.313\nsamples = 358\nvalue = [[-0.482]\n[0.174]\n[-0.945]]", fillcolor="#f0b489"] ;
770 -> 938 ;
1329 [label="squared_error = 0.229\nsamples = 203\nvalue = [[-0.585]\n[0.437]\n[-0.989]]", fillcolor="#eda674"] ;
938 -> 1329 ;
1330 [label="squared_error = 0.342\nsamples = 155\nvalue = [[-0.348]\n[-0.171]\n[-0.888]]", fillcolor="#f1b991"] ;
938 -> 1330 ;
768 [label="ang_vel0 <= -1.55\nsquared_error = 0.544\nsamples = 125\nvalue = [[0.027]\n[-0.125]\n[-0.798]]", fillcolor="#f7dac5"] ;
692 -> 768 ;
1233 [label="squared_error = 0.364\nsamples = 41\nvalue = [[0.418]\n[0.586]\n[-0.71]]", fillcolor="#f1bd97"] ;
768 -> 1233 ;
1234 [label="squared_error = 0.471\nsamples = 84\nvalue = [[-0.164]\n[-0.472]\n[-0.841]]", fillcolor="#f5ceb2"] ;
768 -> 1234 ;
400 [label="ang2 <= -0.307\nsquared_error = 0.32\nsamples = 456\nvalue = [[-0.525]\n[-0.2]\n[-0.798]]", fillcolor="#f0b58b"] ;
151 -> 400 ;
491 [label="ang_vel2 <= -9.031\nsquared_error = 0.242\nsamples = 296\nvalue = [[-0.698]\n[0.097]\n[-0.827]]", fillcolor="#eda977"] ;
400 -> 491 ;
1523 [label="squared_error = 0.132\nsamples = 109\nvalue = [[-0.85]\n[0.514]\n[-0.893]]", fillcolor="#e9975b"] ;
491 -> 1523 ;
1524 [label="squared_error = 0.244\nsamples = 187\nvalue = [[-0.61]\n[-0.146]\n[-0.788]]", fillcolor="#eda978"] ;
491 -> 1524 ;
492 [label="ang_vel1 <= 6.976\nsquared_error = 0.256\nsamples = 160\nvalue = [[-0.204]\n[-0.75]\n[-0.745]]", fillcolor="#eeab7b"] ;
400 -> 492 ;
1591 [label="squared_error = 0.104\nsamples = 39\nvalue = [[0.555]\n[-0.908]\n[-0.932]]", fillcolor="#e99254"] ;
492 -> 1591 ;
1592 [label="vel_x <= 1.756\nsquared_error = 0.215\nsamples = 121\nvalue = [[-0.449]\n[-0.7]\n[-0.685]]", fillcolor="#eca470"] ;
492 -> 1592 ;
1637 [label="squared_error = 0.173\nsamples = 28\nvalue = [[-0.763]\n[-0.38]\n[0.138]]", fillcolor="#eb9d65"] ;
1592 -> 1637 ;
1638 [label="squared_error = 0.113\nsamples = 93\nvalue = [[-0.354]\n[-0.796]\n[-0.933]]", fillcolor="#e99356"] ;
1592 -> 1638 ;
152 [label="ang_vel2 <= 2.046\nsquared_error = 0.216\nsamples = 2439\nvalue = [[-0.672]\n[0.688]\n[-0.812]]", fillcolor="#eca470"] ;
100 -> 152 ;
337 [label="ang_vel3 <= -6.947\nsquared_error = 0.183\nsamples = 1970\nvalue = [[-0.654]\n[0.808]\n[-0.796]]", fillcolor="#eb9f68"] ;
152 -> 337 ;
619 [label="vel_x <= 2.965\nsquared_error = 0.124\nsamples = 643\nvalue = [[-0.792]\n[0.552]\n[-0.781]]", fillcolor="#e99559"] ;
337 -> 619 ;
1219 [label="squared_error = 0.61\nsamples = 38\nvalue = [[-0.394]\n[0.157]\n[0.057]]", fillcolor="#fae5d6"] ;
619 -> 1219 ;
1220 [label="squared_error = 0.071\nsamples = 605\nvalue = [[-0.817]\n[0.577]\n[-0.834]]", fillcolor="#e78d4b"] ;
619 -> 1220 ;
620 [label="ang_vel1 <= -4.707\nsquared_error = 0.192\nsamples = 1327\nvalue = [[-0.587]\n[0.932]\n[-0.804]]", fillcolor="#eba06a"] ;
337 -> 620 ;
739 [label="vel_x <= 3.334\nsquared_error = 0.182\nsamples = 531\nvalue = [[-0.321]\n[0.904]\n[-0.879]]", fillcolor="#eb9f68"] ;
620 -> 739 ;
1619 [label="squared_error = 0.273\nsamples = 89\nvalue = [[0.177]\n[0.941]\n[-0.649]]", fillcolor="#eeae7f"] ;
739 -> 1619 ;
1620 [label="squared_error = 0.139\nsamples = 442\nvalue = [[-0.422]\n[0.897]\n[-0.925]]", fillcolor="#ea985d"] ;
739 -> 1620 ;
740 [label="vel_z <= -0.536\nsquared_error = 0.17\nsamples = 796\nvalue = [[-0.764]\n[0.951]\n[-0.754]]", fillcolor="#eb9d65"] ;
620 -> 740 ;
1047 [label="squared_error = 0.145\nsamples = 776\nvalue = [[-0.8]\n[0.95]\n[-0.771]]", fillcolor="#ea995e"] ;
740 -> 1047 ;
1048 [label="squared_error = 0.324\nsamples = 20\nvalue = [[0.623]\n[1.0]\n[-0.082]]", fillcolor="#f0b68c"] ;
740 -> 1048 ;
338 [label="z_coord <= 1.227\nsquared_error = 0.242\nsamples = 469\nvalue = [[-0.747]\n[0.183]\n[-0.88]]", fillcolor="#eda977"] ;
152 -> 338 ;
1333 [label="ang_vel0 <= -0.95\nsquared_error = 0.182\nsamples = 432\nvalue = [[-0.814]\n[0.195]\n[-0.929]]", fillcolor="#eb9f68"] ;
338 -> 1333 ;
1955 [label="squared_error = 0.139\nsamples = 268\nvalue = [[-0.765]\n[0.384]\n[-0.918]]", fillcolor="#ea985d"] ;
1333 -> 1955 ;
1956 [label="squared_error = 0.198\nsamples = 164\nvalue = [[-0.893]\n[-0.115]\n[-0.947]]", fillcolor="#eca16c"] ;
1333 -> 1956 ;
1334 [label="squared_error = 0.6\nsamples = 37\nvalue = [[0.031]\n[0.053]\n[-0.304]]", fillcolor="#f9e3d3"] ;
338 -> 1334 ;
98 [label="vel_x <= 3.432\nsquared_error = 0.329\nsamples = 2421\nvalue = [[-0.554]\n[0.935]\n[-0.426]]", fillcolor="#f0b78e"] ;
30 -> 98 ;
219 [label="vel_z <= -1.434\nsquared_error = 0.413\nsamples = 785\nvalue = [[-0.458]\n[0.931]\n[0.007]]", fillcolor="#f3c4a3"] ;
98 -> 219 ;
533 [label="z_coord <= 1.233\nsquared_error = 0.357\nsamples = 565\nvalue = [[-0.637]\n[0.931]\n[-0.115]]", fillcolor="#f1bb95"] ;
219 -> 533 ;
751 [label="squared_error = 0.257\nsamples = 209\nvalue = [[-0.821]\n[0.848]\n[-0.517]]", fillcolor="#eeab7b"] ;
533 -> 751 ;
752 [label="vel_z <= -2.067\nsquared_error = 0.353\nsamples = 356\nvalue = [[-0.529]\n[0.979]\n[0.121]]", fillcolor="#f1bb94"] ;
533 -> 752 ;
809 [label="squared_error = 0.211\nsamples = 120\nvalue = [[-0.797]\n[0.994]\n[-0.403]]", fillcolor="#eca36f"] ;
752 -> 809 ;
810 [label="vel_x <= 3.2\nsquared_error = 0.337\nsamples = 236\nvalue = [[-0.393]\n[0.972]\n[0.387]]", fillcolor="#f0b890"] ;
752 -> 810 ;
1095 [label="squared_error = 0.309\nsamples = 98\nvalue = [[0.023]\n[0.935]\n[0.709]]", fillcolor="#efb388"] ;
810 -> 1095 ;
1096 [label="squared_error = 0.244\nsamples = 138\nvalue = [[-0.689]\n[0.998]\n[0.159]]", fillcolor="#eda978"] ;
810 -> 1096 ;
534 [label="ang3 <= 0.288\nsquared_error = 0.412\nsamples = 220\nvalue = [[0.003]\n[0.934]\n[0.319]]", fillcolor="#f3c4a3"] ;
219 -> 534 ;
1807 [label="squared_error = 0.224\nsamples = 40\nvalue = [[-0.763]\n[0.869]\n[0.234]]", fillcolor="#eda673"] ;
534 -> 1807 ;
1808 [label="z_coord <= 1.224\nsquared_error = 0.4\nsamples = 180\nvalue = [[0.173]\n[0.948]\n[0.338]]", fillcolor="#f2c2a0"] ;
534 -> 1808 ;
1987 [label="squared_error = 0.359\nsamples = 64\nvalue = [[-0.141]\n[0.954]\n[-0.074]]", fillcolor="#f1bc95"] ;
1808 -> 1987 ;
1988 [label="squared_error = 0.346\nsamples = 116\nvalue = [[0.346]\n[0.945]\n[0.566]]", fillcolor="#f1ba92"] ;
1808 -> 1988 ;
220 [label="ang_vel0 <= -1.059\nsquared_error = 0.242\nsamples = 1636\nvalue = [[-0.601]\n[0.936]\n[-0.634]]", fillcolor="#eda977"] ;
98 -> 220 ;
371 [label="vel_z <= -1.228\nsquared_error = 0.266\nsamples = 603\nvalue = [[-0.223]\n[0.959]\n[-0.711]]", fillcolor="#eead7d"] ;
220 -> 371 ;
459 [label="squared_error = 0.139\nsamples = 267\nvalue = [[-0.702]\n[0.953]\n[-0.769]]", fillcolor="#ea985d"] ;
371 -> 459 ;
460 [label="z_coord <= 1.22\nsquared_error = 0.256\nsamples = 336\nvalue = [[0.158]\n[0.964]\n[-0.666]]", fillcolor="#eeab7b"] ;
371 -> 460 ;
835 [label="squared_error = 0.165\nsamples = 102\nvalue = [[-0.465]\n[0.896]\n[-0.822]]", fillcolor="#eb9c63"] ;
460 -> 835 ;
836 [label="vel_x <= 3.661\nsquared_error = 0.209\nsamples = 234\nvalue = [[0.43]\n[0.994]\n[-0.598]]", fillcolor="#eca36f"] ;
460 -> 836 ;
1797 [label="squared_error = 0.197\nsamples = 95\nvalue = [[0.664]\n[0.993]\n[-0.239]]", fillcolor="#eca16c"] ;
836 -> 1797 ;
1798 [label="squared_error = 0.147\nsamples = 139\nvalue = [[0.27]\n[0.995]\n[-0.843]]", fillcolor="#ea995f"] ;
836 -> 1798 ;
372 [label="vel_z <= -0.285\nsquared_error = 0.182\nsamples = 1033\nvalue = [[-0.822]\n[0.923]\n[-0.589]]", fillcolor="#eb9f68"] ;
220 -> 372 ;
1125 [label="z_coord <= 1.208\nsquared_error = 0.164\nsamples = 1013\nvalue = [[-0.84]\n[0.922]\n[-0.612]]", fillcolor="#eb9c63"] ;
372 -> 1125 ;
1203 [label="squared_error = 0.205\nsamples = 82\nvalue = [[-0.959]\n[0.319]\n[-0.91]]", fillcolor="#eca36e"] ;
1125 -> 1203 ;
1204 [label="ang1 <= -0.066\nsquared_error = 0.145\nsamples = 931\nvalue = [[-0.829]\n[0.975]\n[-0.586]]", fillcolor="#ea995e"] ;
1125 -> 1204 ;
1753 [label="squared_error = 0.114\nsamples = 659\nvalue = [[-0.831]\n[0.966]\n[-0.7]]", fillcolor="#e99456"] ;
1204 -> 1753 ;
1754 [label="vel_x <= 3.657\nsquared_error = 0.184\nsamples = 272\nvalue = [[-0.824]\n[0.997]\n[-0.307]]", fillcolor="#eb9f68"] ;
1204 -> 1754 ;
1823 [label="squared_error = 0.206\nsamples = 102\nvalue = [[-0.799]\n[0.993]\n[0.112]]", fillcolor="#eca36e"] ;
1754 -> 1823 ;
1824 [label="squared_error = 0.114\nsamples = 170\nvalue = [[-0.838]\n[0.999]\n[-0.559]]", fillcolor="#e99456"] ;
1754 -> 1824 ;
1126 [label="squared_error = 0.361\nsamples = 20\nvalue = [[0.097]\n[0.95]\n[0.583]]", fillcolor="#f1bc96"] ;
372 -> 1126 ;
20 [label="vel_x <= 1.803\nsquared_error = 0.214\nsamples = 1815\nvalue = [[-0.19]\n[-0.79]\n[-0.834]]", fillcolor="#eca470"] ;
4 -> 20 ;
137 [label="vel_x <= 1.597\nsquared_error = 0.223\nsamples = 294\nvalue = [[-0.693]\n[-0.397]\n[-0.124]]", fillcolor="#eda572"] ;
20 -> 137 ;
1489 [label="squared_error = 0.247\nsamples = 54\nvalue = [[-0.772]\n[0.128]\n[0.377]]", fillcolor="#eda979"] ;
137 -> 1489 ;
1490 [label="squared_error = 0.169\nsamples = 240\nvalue = [[-0.675]\n[-0.515]\n[-0.236]]", fillcolor="#eb9d64"] ;
137 -> 1490 ;
138 [label="ang_vel1 <= 7.563\nsquared_error = 0.142\nsamples = 1521\nvalue = [[-0.092]\n[-0.865]\n[-0.971]]", fillcolor="#ea985d"] ;
20 -> 138 ;
189 [label="ang_vel1 <= 7.059\nsquared_error = 0.041\nsamples = 410\nvalue = [[0.576]\n[-0.982]\n[-1.0]]", fillcolor="#e68844"] ;
138 -> 189 ;
1893 [label="squared_error = 0.013\nsamples = 197\nvalue = [[0.847]\n[-0.989]\n[-1.0]]", fillcolor="#e5833c"] ;
189 -> 1893 ;
1894 [label="squared_error = 0.024\nsamples = 213\nvalue = [[0.325]\n[-0.975]\n[-1.0]]", fillcolor="#e6853f"] ;
189 -> 1894 ;
190 [label="ang3 <= -0.648\nsquared_error = 0.101\nsamples = 1111\nvalue = [[-0.339]\n[-0.823]\n[-0.961]]", fillcolor="#e89253"] ;
138 -> 190 ;
475 [label="squared_error = 0.174\nsamples = 143\nvalue = [[-0.806]\n[-0.172]\n[-0.979]]", fillcolor="#eb9d66"] ;
190 -> 475 ;
476 [label="ang2 <= -0.281\nsquared_error = 0.054\nsamples = 968\nvalue = [[-0.27]\n[-0.919]\n[-0.958]]", fillcolor="#e78a47"] ;
190 -> 476 ;
1409 [label="squared_error = 0.061\nsamples = 343\nvalue = [[-0.513]\n[-0.818]\n[-0.938]]", fillcolor="#e78b49"] ;
476 -> 1409 ;
1410 [label="squared_error = 0.031\nsamples = 625\nvalue = [[-0.137]\n[-0.974]\n[-0.969]]", fillcolor="#e68641"] ;
476 -> 1410 ;
2 [label="ang3 <= 0.788\nsquared_error = 0.454\nsamples = 166118\nvalue = [[0.005]\n[0.165]\n[0.327]]", fillcolor="#f4cbae"] ;
0 -> 2 [labeldistance=2.5, labelangle=-45, headlabel="False"] ;
5 [label="vel_z <= 1.577\nsquared_error = 0.477\nsamples = 109032\nvalue = [[-0.026]\n[0.141]\n[0.144]]", fillcolor="#f5cfb4"] ;
2 -> 5 ;
7 [label="z_coord <= 1.373\nsquared_error = 0.483\nsamples = 88567\nvalue = [[0.032]\n[-0.0]\n[0.142]]", fillcolor="#f5d0b5"] ;
5 -> 7 ;
13 [label="vel_x <= 2.281\nsquared_error = 0.631\nsamples = 33094\nvalue = [[-0.044]\n[0.204]\n[-0.067]]", fillcolor="#fae8db"] ;
7 -> 13 ;
17 [label="ang_vel3 <= 2.075\nsquared_error = 0.657\nsamples = 17533\nvalue = [[0.065]\n[0.073]\n[0.201]]", fillcolor="#fbece2"] ;
13 -> 17 ;
23 [label="ang_vel1 <= 1.21\nsquared_error = 0.531\nsamples = 6190\nvalue = [[0.256]\n[-0.143]\n[0.622]]", fillcolor="#f7d8c1"] ;
17 -> 23 ;
53 [label="vel_x <= 1.298\nsquared_error = 0.491\nsamples = 5258\nvalue = [[0.406]\n[-0.17]\n[0.627]]", fillcolor="#f6d1b7"] ;
23 -> 53 ;
65 [label="ang_vel2 <= -2.778\nsquared_error = 0.441\nsamples = 4424\nvalue = [[0.478]\n[-0.3]\n[0.687]]", fillcolor="#f4c9aa"] ;
53 -> 65 ;
139 [label="ang0 <= -0.166\nsquared_error = 0.417\nsamples = 754\nvalue = [[0.581]\n[0.196]\n[0.389]]", fillcolor="#f3c5a4"] ;
65 -> 139 ;
561 [label="ang1 <= -0.024\nsquared_error = 0.299\nsamples = 230\nvalue = [[0.828]\n[0.608]\n[0.191]]", fillcolor="#efb286"] ;
139 -> 561 ;
1031 [label="ang_vel0 <= -0.415\nsquared_error = 0.246\nsamples = 159\nvalue = [[0.824]\n[0.479]\n[0.473]]", fillcolor="#eda978"] ;
561 -> 1031 ;
1641 [label="squared_error = 0.094\nsamples = 86\nvalue = [[0.95]\n[0.871]\n[0.457]]", fillcolor="#e89051"] ;
1031 -> 1641 ;
1642 [label="squared_error = 0.279\nsamples = 73\nvalue = [[0.675]\n[0.016]\n[0.491]]", fillcolor="#eeaf81"] ;
1031 -> 1642 ;
1032 [label="squared_error = 0.185\nsamples = 71\nvalue = [[0.837]\n[0.896]\n[-0.44]]", fillcolor="#eb9f69"] ;
561 -> 1032 ;
562 [label="vel_z <= -0.176\nsquared_error = 0.412\nsamples = 524\nvalue = [[0.473]\n[0.015]\n[0.476]]", fillcolor="#f3c4a3"] ;
139 -> 562 ;
605 [label="ang_vel2 <= -3.452\nsquared_error = 0.355\nsamples = 406\nvalue = [[0.667]\n[-0.067]\n[0.438]]", fillcolor="#f1bb94"] ;
562 -> 605 ;
1083 [label="squared_error = 0.344\nsamples = 146\nvalue = [[0.708]\n[0.367]\n[0.307]]", fillcolor="#f1b991"] ;
605 -> 1083 ;
1084 [label="squared_error = 0.301\nsamples = 260\nvalue = [[0.643]\n[-0.311]\n[0.512]]", fillcolor="#efb286"] ;
605 -> 1084 ;
606 [label="ang0 <= -0.14\nsquared_error = 0.373\nsamples = 118\nvalue = [[-0.193]\n[0.3]\n[0.607]]", fillcolor="#f2be99"] ;
562 -> 606 ;
1873 [label="squared_error = 0.211\nsamples = 35\nvalue = [[0.475]\n[0.642]\n[0.662]]", fillcolor="#eca46f"] ;
606 -> 1873 ;
1874 [label="squared_error = 0.329\nsamples = 83\nvalue = [[-0.474]\n[0.155]\n[0.584]]", fillcolor="#f0b78d"] ;
606 -> 1874 ;
140 [label="vel_z <= 0.428\nsquared_error = 0.417\nsamples = 3670\nvalue = [[0.457]\n[-0.402]\n[0.749]]", fillcolor="#f3c5a4"] ;
65 -> 140 ;
221 [label="ang_vel3 <= 0.153\nsquared_error = 0.392\nsamples = 3232\nvalue = [[0.407]\n[-0.468]\n[0.79]]", fillcolor="#f2c19e"] ;
140 -> 221 ;
249 [label="vel_z <= -0.618\nsquared_error = 0.175\nsamples = 765\nvalue = [[0.812]\n[-0.547]\n[0.95]]", fillcolor="#eb9e66"] ;
221 -> 249 ;
549 [label="squared_error = 0.386\nsamples = 94\nvalue = [[0.222]\n[0.139]\n[0.774]]", fillcolor="#f2c09c"] ;
249 -> 549 ;
550 [label="squared_error = 0.101\nsamples = 671\nvalue = [[0.894]\n[-0.643]\n[0.975]]", fillcolor="#e89153"] ;
249 -> 550 ;
250 [label="ang0 <= 0.007\nsquared_error = 0.432\nsamples = 2467\nvalue = [[0.282]\n[-0.443]\n[0.74]]", fillcolor="#f4c8a8"] ;
221 -> 250 ;
251 [label="ang_vel1 <= 0.381\nsquared_error = 0.401\nsamples = 2118\nvalue = [[0.403]\n[-0.389]\n[0.73]]", fillcolor="#f3c3a0"] ;
250 -> 251 ;
405 [label="ang0 <= -0.17\nsquared_error = 0.385\nsamples = 1624\nvalue = [[0.524]\n[-0.327]\n[0.725]]", fillcolor="#f2c09c"] ;
251 -> 405 ;
523 [label="ang_vel2 <= -2.01\nsquared_error = 0.378\nsamples = 324\nvalue = [[0.777]\n[0.043]\n[0.533]]", fillcolor="#f2bf9a"] ;
405 -> 523 ;
949 [label="ang1 <= -0.021\nsquared_error = 0.292\nsamples = 172\nvalue = [[0.894]\n[0.401]\n[0.457]]", fillcolor="#efb184"] ;
523 -> 949 ;
1843 [label="squared_error = 0.252\nsamples = 101\nvalue = [[0.943]\n[0.245]\n[0.757]]", fillcolor="#eeaa7a"] ;
949 -> 1843 ;
1844 [label="squared_error = 0.214\nsamples = 71\nvalue = [[0.823]\n[0.623]\n[0.03]]", fillcolor="#eca470"] ;
949 -> 1844 ;
950 [label="ang1 <= -0.004\nsquared_error = 0.357\nsamples = 152\nvalue = [[0.646]\n[-0.363]\n[0.619]]", fillcolor="#f1bb95"] ;
523 -> 950 ;
1683 [label="squared_error = 0.181\nsamples = 75\nvalue = [[0.9]\n[-0.567]\n[0.941]]", fillcolor="#eb9f67"] ;
950 -> 1683 ;
1684 [label="squared_error = 0.394\nsamples = 77\nvalue = [[0.398]\n[-0.164]\n[0.305]]", fillcolor="#f2c19e"] ;
950 -> 1684 ;
524 [label="vel_x <= 0.393\nsquared_error = 0.362\nsamples = 1300\nvalue = [[0.461]\n[-0.42]\n[0.773]]", fillcolor="#f1bc96"] ;
405 -> 524 ;
525 [label="vel_z <= -0.073\nsquared_error = 0.318\nsamples = 712\nvalue = [[0.393]\n[-0.236]\n[0.924]]", fillcolor="#f0b58b"] ;
524 -> 525 ;
1149 [label="squared_error = 0.358\nsamples = 197\nvalue = [[0.147]\n[0.085]\n[0.942]]", fillcolor="#f1bc95"] ;
525 -> 1149 ;
1150 [label="ang_vel2 <= -1.723\nsquared_error = 0.273\nsamples = 515\nvalue = [[0.487]\n[-0.358]\n[0.917]]", fillcolor="#eeae7f"] ;
525 -> 1150 ;
1151 [label="squared_error = 0.293\nsamples = 121\nvalue = [[0.128]\n[0.066]\n[0.802]]", fillcolor="#efb184"] ;
1150 -> 1151 ;
1152 [label="vel_z <= 0.267\nsquared_error = 0.224\nsamples = 394\nvalue = [[0.597]\n[-0.489]\n[0.953]]", fillcolor="#eda673"] ;
1150 -> 1152 ;
1815 [label="squared_error = 0.24\nsamples = 290\nvalue = [[0.473]\n[-0.593]\n[0.956]]", fillcolor="#eda877"] ;
1152 -> 1815 ;
1816 [label="squared_error = 0.088\nsamples = 104\nvalue = [[0.945]\n[-0.198]\n[0.944]]", fillcolor="#e88f50"] ;
1152 -> 1816 ;
526 [label="ang2 <= -0.769\nsquared_error = 0.362\nsamples = 588\nvalue = [[0.543]\n[-0.642]\n[0.59]]", fillcolor="#f1bc96"] ;
524 -> 526 ;
1383 [label="squared_error = 0.288\nsamples = 15\nvalue = [[0.235]\n[0.827]\n[0.174]]", fillcolor="#efb083"] ;
526 -> 1383 ;
1384 [label="z_coord <= 1.224\nsquared_error = 0.342\nsamples = 573\nvalue = [[0.551]\n[-0.681]\n[0.601]]", fillcolor="#f1b991"] ;
526 -> 1384 ;
1493 [label="squared_error = 0.186\nsamples = 288\nvalue = [[0.783]\n[-0.692]\n[0.684]]", fillcolor="#eb9f69"] ;
1384 -> 1493 ;
1494 [label="ang0 <= -0.084\nsquared_error = 0.459\nsamples = 285\nvalue = [[0.317]\n[-0.67]\n[0.517]]", fillcolor="#f4ccaf"] ;
1384 -> 1494 ;
1495 [label="ang_vel1 <= -0.163\nsquared_error = 0.347\nsamples = 188\nvalue = [[0.399]\n[-0.698]\n[0.755]]", fillcolor="#f1ba92"] ;
1494 -> 1495 ;
1695 [label="squared_error = 0.263\nsamples = 108\nvalue = [[0.737]\n[-0.774]\n[0.716]]", fillcolor="#eeac7c"] ;
1495 -> 1695 ;
1696 [label="squared_error = 0.332\nsamples = 80\nvalue = [[-0.057]\n[-0.595]\n[0.808]]", fillcolor="#f0b78e"] ;
1495 -> 1696 ;
1496 [label="ang_vel3 <= 1.493\nsquared_error = 0.553\nsamples = 97\nvalue = [[0.158]\n[-0.616]\n[0.056]]", fillcolor="#f8dbc7"] ;
1494 -> 1496 ;
1959 [label="squared_error = 0.432\nsamples = 41\nvalue = [[0.262]\n[-0.7]\n[0.658]]", fillcolor="#f4c8a8"] ;
1496 -> 1959 ;
1960 [label="squared_error = 0.481\nsamples = 56\nvalue = [[0.082]\n[-0.554]\n[-0.384]]", fillcolor="#f5d0b5"] ;
1496 -> 1960 ;
406 [label="z_coord <= 1.224\nsquared_error = 0.366\nsamples = 494\nvalue = [[0.006]\n[-0.591]\n[0.745]]", fillcolor="#f1bd97"] ;
251 -> 406 ;
687 [label="squared_error = 0.284\nsamples = 249\nvalue = [[0.379]\n[-0.661]\n[0.723]]", fillcolor="#efaf82"] ;
406 -> 687 ;
688 [label="squared_error = 0.35\nsamples = 245\nvalue = [[-0.374]\n[-0.519]\n[0.768]]", fillcolor="#f1ba93"] ;
406 -> 688 ;
252 [label="vel_z <= 0.042\nsquared_error = 0.369\nsamples = 349\nvalue = [[-0.455]\n[-0.773]\n[0.8]]", fillcolor="#f1bd98"] ;
250 -> 252 ;
891 [label="squared_error = 0.246\nsamples = 239\nvalue = [[-0.699]\n[-0.777]\n[0.927]]", fillcolor="#eda978"] ;
252 -> 891 ;
892 [label="ang_vel3 <= 1.396\nsquared_error = 0.464\nsamples = 110\nvalue = [[0.075]\n[-0.764]\n[0.524]]", fillcolor="#f5cdb0"] ;
252 -> 892 ;
1791 [label="squared_error = 0.278\nsamples = 56\nvalue = [[0.473]\n[-0.84]\n[0.83]]", fillcolor="#eeaf81"] ;
892 -> 1791 ;
1792 [label="vel_x <= 0.344\nsquared_error = 0.474\nsamples = 54\nvalue = [[-0.338]\n[-0.684]\n[0.206]]", fillcolor="#f5cfb3"] ;
892 -> 1792 ;
1837 [label="squared_error = 0.298\nsamples = 33\nvalue = [[-0.218]\n[-0.678]\n[0.775]]", fillcolor="#efb285"] ;
1792 -> 1837 ;
1838 [label="squared_error = 0.296\nsamples = 21\nvalue = [[-0.528]\n[-0.694]\n[-0.688]]", fillcolor="#efb185"] ;
1792 -> 1838 ;
222 [label="ang_vel3 <= 1.032\nsquared_error = 0.431\nsamples = 438\nvalue = [[0.826]\n[0.078]\n[0.447]]", fillcolor="#f4c8a8"] ;
140 -> 222 ;
1075 [label="squared_error = 0.212\nsamples = 104\nvalue = [[0.876]\n[-0.264]\n[0.925]]", fillcolor="#eca470"] ;
222 -> 1075 ;
1076 [label="vel_x <= 0.344\nsquared_error = 0.452\nsamples = 334\nvalue = [[0.81]\n[0.185]\n[0.299]]", fillcolor="#f4cbad"] ;
222 -> 1076 ;
1077 [label="ang0 <= -0.017\nsquared_error = 0.341\nsamples = 144\nvalue = [[0.792]\n[0.168]\n[0.732]]", fillcolor="#f1b991"] ;
1076 -> 1077 ;
1677 [label="squared_error = 0.188\nsamples = 84\nvalue = [[0.939]\n[0.522]\n[0.823]]", fillcolor="#eba069"] ;
1077 -> 1677 ;
1678 [label="squared_error = 0.382\nsamples = 60\nvalue = [[0.585]\n[-0.327]\n[0.606]]", fillcolor="#f2bf9b"] ;
1077 -> 1678 ;
1078 [label="ang1 <= -0.018\nsquared_error = 0.453\nsamples = 190\nvalue = [[0.824]\n[0.198]\n[-0.03]]", fillcolor="#f4cbad"] ;
1076 -> 1078 ;
1079 [label="squared_error = 0.358\nsamples = 74\nvalue = [[0.814]\n[-0.014]\n[0.652]]", fillcolor="#f1bc95"] ;
1078 -> 1079 ;
1080 [label="squared_error = 0.335\nsamples = 116\nvalue = [[0.831]\n[0.333]\n[-0.465]]", fillcolor="#f0b88f"] ;
1078 -> 1080 ;
66 [label="ang1 <= -0.525\nsquared_error = 0.468\nsamples = 834\nvalue = [[0.02]\n[0.52]\n[0.305]]", fillcolor="#f5ceb1"] ;
53 -> 66 ;
283 [label="ang0 <= -0.016\nsquared_error = 0.627\nsamples = 113\nvalue = [[0.045]\n[-0.208]\n[-0.611]]", fillcolor="#fae8da"] ;
66 -> 283 ;
1245 [label="ang_vel2 <= 5.649\nsquared_error = 0.651\nsamples = 72\nvalue = [[0.382]\n[-0.009]\n[-0.39]]", fillcolor="#fbebe0"] ;
283 -> 1245 ;
1757 [label="squared_error = 0.57\nsamples = 56\nvalue = [[0.256]\n[0.243]\n[-0.589]]", fillcolor="#f8decb"] ;
1245 -> 1757 ;
1758 [label="squared_error = 0.311\nsamples = 16\nvalue = [[0.822]\n[-0.887]\n[0.307]]", fillcolor="#f0b489"] ;
1245 -> 1758 ;
1246 [label="squared_error = 0.261\nsamples = 41\nvalue = [[-0.545]\n[-0.558]\n[-1.0]]", fillcolor="#eeac7c"] ;
283 -> 1246 ;
284 [label="z_coord <= 1.17\nsquared_error = 0.36\nsamples = 721\nvalue = [[0.016]\n[0.634]\n[0.449]]", fillcolor="#f1bc96"] ;
66 -> 284 ;
635 [label="ang_vel0 <= 0.257\nsquared_error = 0.366\nsamples = 281\nvalue = [[-0.258]\n[0.567]\n[0.757]]", fillcolor="#f1bd97"] ;
284 -> 635 ;
1139 [label="squared_error = 0.242\nsamples = 199\nvalue = [[-0.201]\n[0.811]\n[0.812]]", fillcolor="#eda977"] ;
635 -> 1139 ;
1140 [label="squared_error = 0.482\nsamples = 82\nvalue = [[-0.395]\n[-0.024]\n[0.622]]", fillcolor="#f5d0b5"] ;
635 -> 1140 ;
636 [label="ang0 <= 0.036\nsquared_error = 0.296\nsamples = 440\nvalue = [[0.19]\n[0.677]\n[0.253]]", fillcolor="#efb185"] ;
284 -> 636 ;
887 [label="squared_error = 0.179\nsamples = 163\nvalue = [[0.588]\n[0.733]\n[0.497]]", fillcolor="#eb9e67"] ;
636 -> 887 ;
888 [label="ang_vel2 <= 0.942\nsquared_error = 0.296\nsamples = 277\nvalue = [[-0.044]\n[0.643]\n[0.109]]", fillcolor="#efb185"] ;
636 -> 888 ;
1747 [label="ang1 <= -0.122\nsquared_error = 0.238\nsamples = 244\nvalue = [[-0.015]\n[0.761]\n[0.109]]", fillcolor="#eda876"] ;
888 -> 1747 ;
1847 [label="squared_error = 0.331\nsamples = 48\nvalue = [[-0.163]\n[0.652]\n[-0.557]]", fillcolor="#f0b78e"] ;
1747 -> 1847 ;
1848 [label="squared_error = 0.166\nsamples = 196\nvalue = [[0.021]\n[0.788]\n[0.272]]", fillcolor="#eb9c64"] ;
1747 -> 1848 ;
1748 [label="squared_error = 0.429\nsamples = 33\nvalue = [[-0.259]\n[-0.225]\n[0.105]]", fillcolor="#f3c7a7"] ;
888 -> 1748 ;
54 [label="ang_vel2 <= -3.067\nsquared_error = 0.465\nsamples = 932\nvalue = [[-0.587]\n[0.014]\n[0.596]]", fillcolor="#f5cdb1"] ;
23 -> 54 ;
331 [label="ang_vel3 <= 1.786\nsquared_error = 0.477\nsamples = 228\nvalue = [[-0.442]\n[0.342]\n[-0.023]]", fillcolor="#f5cfb4"] ;
54 -> 331 ;
1667 [label="squared_error = 0.428\nsamples = 104\nvalue = [[-0.407]\n[0.349]\n[0.381]]", fillcolor="#f3c7a7"] ;
331 -> 1667 ;
1668 [label="squared_error = 0.434\nsamples = 124\nvalue = [[-0.471]\n[0.337]\n[-0.362]]", fillcolor="#f4c8a8"] ;
331 -> 1668 ;
332 [label="vel_x <= 0.515\nsquared_error = 0.388\nsamples = 704\nvalue = [[-0.635]\n[-0.092]\n[0.796]]", fillcolor="#f2c09d"] ;
54 -> 332 ;
339 [label="vel_z <= 0.368\nsquared_error = 0.315\nsamples = 359\nvalue = [[-0.634]\n[0.361]\n[0.862]]", fillcolor="#f0b58a"] ;
332 -> 339 ;
973 [label="ang0 <= 0.044\nsquared_error = 0.236\nsamples = 286\nvalue = [[-0.804]\n[0.358]\n[0.955]]", fillcolor="#eda876"] ;
339 -> 973 ;
975 [label="squared_error = 0.167\nsamples = 223\nvalue = [[-0.799]\n[0.597]\n[0.964]]", fillcolor="#eb9c64"] ;
973 -> 975 ;
976 [label="squared_error = 0.171\nsamples = 63\nvalue = [[-0.821]\n[-0.489]\n[0.924]]", fillcolor="#eb9d65"] ;
973 -> 976 ;
974 [label="squared_error = 0.386\nsamples = 73\nvalue = [[0.032]\n[0.373]\n[0.5]]", fillcolor="#f2c09c"] ;
339 -> 974 ;
340 [label="ang_vel2 <= -2.6\nsquared_error = 0.315\nsamples = 345\nvalue = [[-0.635]\n[-0.564]\n[0.728]]", fillcolor="#f0b58a"] ;
332 -> 340 ;
1321 [label="ang_vel3 <= 1.649\nsquared_error = 0.413\nsamples = 122\nvalue = [[-0.597]\n[-0.275]\n[0.382]]", fillcolor="#f3c5a3"] ;
340 -> 1321 ;
1859 [label="squared_error = 0.312\nsamples = 75\nvalue = [[-0.577]\n[-0.235]\n[0.762]]", fillcolor="#f0b489"] ;
1321 -> 1859 ;
1860 [label="squared_error = 0.372\nsamples = 47\nvalue = [[-0.627]\n[-0.338]\n[-0.224]]", fillcolor="#f2be99"] ;
1321 -> 1860 ;
1322 [label="squared_error = 0.204\nsamples = 223\nvalue = [[-0.657]\n[-0.722]\n[0.917]]", fillcolor="#eca26d"] ;
340 -> 1322 ;
24 [label="vel_x <= 0.312\nsquared_error = 0.653\nsamples = 11343\nvalue = [[-0.04]\n[0.191]\n[-0.03]]", fillcolor="#fbece1"] ;
17 -> 24 ;
31 [label="ang0 <= -0.092\nsquared_error = 0.575\nsamples = 6110\nvalue = [[-0.1]\n[0.391]\n[0.305]]", fillcolor="#f8dfcd"] ;
24 -> 31 ;
61 [label="ang_vel0 <= -2.416\nsquared_error = 0.574\nsamples = 2302\nvalue = [[0.264]\n[0.583]\n[0.125]]", fillcolor="#f8dfcd"] ;
31 -> 61 ;
169 [label="ang3 <= 0.222\nsquared_error = 0.326\nsamples = 430\nvalue = [[0.813]\n[0.902]\n[-0.269]]", fillcolor="#f0b68d"] ;
61 -> 169 ;
709 [label="squared_error = 0.373\nsamples = 192\nvalue = [[0.614]\n[0.887]\n[0.137]]", fillcolor="#f2be99"] ;
169 -> 709 ;
710 [label="squared_error = 0.189\nsamples = 238\nvalue = [[0.973]\n[0.915]\n[-0.597]]", fillcolor="#eba06a"] ;
169 -> 710 ;
170 [label="ang1 <= -0.13\nsquared_error = 0.579\nsamples = 1872\nvalue = [[0.138]\n[0.51]\n[0.215]]", fillcolor="#f9e0ce"] ;
61 -> 170 ;
265 [label="ang_vel0 <= -0.804\nsquared_error = 0.637\nsamples = 835\nvalue = [[0.393]\n[0.266]\n[0.183]]", fillcolor="#fae9dd"] ;
170 -> 265 ;
299 [label="ang0 <= -0.138\nsquared_error = 0.507\nsamples = 561\nvalue = [[0.64]\n[0.431]\n[0.079]]", fillcolor="#f6d4bb"] ;
265 -> 299 ;
773 [label="ang_vel3 <= 3.167\nsquared_error = 0.371\nsamples = 312\nvalue = [[0.762]\n[0.705]\n[0.018]]", fillcolor="#f2be98"] ;
299 -> 773 ;
1449 [label="squared_error = 0.306\nsamples = 73\nvalue = [[0.587]\n[0.509]\n[0.573]]", fillcolor="#efb388"] ;
773 -> 1449 ;
1450 [label="squared_error = 0.341\nsamples = 239\nvalue = [[0.815]\n[0.765]\n[-0.152]]", fillcolor="#f0b991"] ;
773 -> 1450 ;
774 [label="ang_vel3 <= 8.293\nsquared_error = 0.588\nsamples = 249\nvalue = [[0.488]\n[0.087]\n[0.157]]", fillcolor="#f9e1d0"] ;
299 -> 774 ;
775 [label="vel_x <= 0.096\nsquared_error = 0.524\nsamples = 203\nvalue = [[0.378]\n[0.188]\n[0.352]]", fillcolor="#f7d7c0"] ;
774 -> 775 ;
1901 [label="squared_error = 0.393\nsamples = 45\nvalue = [[0.457]\n[0.876]\n[0.364]]", fillcolor="#f2c19e"] ;
775 -> 1901 ;
1902 [label="ang_vel2 <= -2.382\nsquared_error = 0.503\nsamples = 158\nvalue = [[0.356]\n[-0.008]\n[0.349]]", fillcolor="#f6d3ba"] ;
775 -> 1902 ;
1903 [label="squared_error = 0.319\nsamples = 51\nvalue = [[-0.066]\n[0.556]\n[0.265]]", fillcolor="#f0b58b"] ;
1902 -> 1903 ;
1904 [label="squared_error = 0.473\nsamples = 107\nvalue = [[0.557]\n[-0.277]\n[0.388]]", fillcolor="#f5ceb2"] ;
1902 -> 1904 ;
776 [label="squared_error = 0.387\nsamples = 46\nvalue = [[0.972]\n[-0.36]\n[-0.703]]", fillcolor="#f2c09d"] ;
774 -> 776 ;
300 [label="ang_vel2 <= 0.169\nsquared_error = 0.699\nsamples = 274\nvalue = [[-0.113]\n[-0.072]\n[0.394]]", fillcolor="#fdf3ed"] ;
265 -> 300 ;
725 [label="ang_vel0 <= 0.147\nsquared_error = 0.668\nsamples = 206\nvalue = [[-0.002]\n[0.185]\n[0.315]]", fillcolor="#fceee4"] ;
300 -> 725 ;
1293 [label="ang_vel2 <= -2.036\nsquared_error = 0.63\nsamples = 167\nvalue = [[0.171]\n[0.268]\n[0.23]]", fillcolor="#fae8db"] ;
725 -> 1293 ;
1451 [label="squared_error = 0.43\nsamples = 39\nvalue = [[-0.421]\n[0.618]\n[-0.251]]", fillcolor="#f4c7a8"] ;
1293 -> 1451 ;
1452 [label="vel_x <= 0.199\nsquared_error = 0.597\nsamples = 128\nvalue = [[0.351]\n[0.162]\n[0.376]]", fillcolor="#f9e3d2"] ;
1293 -> 1452 ;
1453 [label="squared_error = 0.487\nsamples = 70\nvalue = [[0.426]\n[0.669]\n[0.368]]", fillcolor="#f5d1b6"] ;
1452 -> 1453 ;
1454 [label="squared_error = 0.497\nsamples = 58\nvalue = [[0.261]\n[-0.45]\n[0.386]]", fillcolor="#f6d2b9"] ;
1452 -> 1454 ;
1294 [label="squared_error = 0.496\nsamples = 39\nvalue = [[-0.742]\n[-0.171]\n[0.683]]", fillcolor="#f6d2b9"] ;
725 -> 1294 ;
726 [label="ang2 <= -0.105\nsquared_error = 0.452\nsamples = 68\nvalue = [[-0.448]\n[-0.849]\n[0.631]]", fillcolor="#f4cbad"] ;
300 -> 726 ;
1509 [label="squared_error = 0.509\nsamples = 11\nvalue = [[0.672]\n[-0.566]\n[-0.524]]", fillcolor="#f6d4bc"] ;
726 -> 1509 ;
1510 [label="squared_error = 0.236\nsamples = 57\nvalue = [[-0.665]\n[-0.904]\n[0.854]]", fillcolor="#eda876"] ;
726 -> 1510 ;
266 [label="ang0 <= -0.154\nsquared_error = 0.471\nsamples = 1037\nvalue = [[-0.067]\n[0.706]\n[0.241]]", fillcolor="#f5ceb2"] ;
170 -> 266 ;
505 [label="ang_vel0 <= -0.504\nsquared_error = 0.468\nsamples = 293\nvalue = [[0.341]\n[0.817]\n[-0.011]]", fillcolor="#f5cdb1"] ;
266 -> 505 ;
805 [label="ang_vel3 <= 3.694\nsquared_error = 0.339\nsamples = 213\nvalue = [[0.588]\n[0.885]\n[-0.134]]", fillcolor="#f0b890"] ;
505 -> 805 ;
1107 [label="squared_error = 0.269\nsamples = 55\nvalue = [[0.627]\n[0.682]\n[0.625]]", fillcolor="#eead7e"] ;
805 -> 1107 ;
1108 [label="squared_error = 0.267\nsamples = 158\nvalue = [[0.574]\n[0.956]\n[-0.398]]", fillcolor="#eead7e"] ;
805 -> 1108 ;
806 [label="squared_error = 0.548\nsamples = 80\nvalue = [[-0.315]\n[0.636]\n[0.317]]", fillcolor="#f7dbc6"] ;
505 -> 806 ;
506 [label="z_coord <= 1.24\nsquared_error = 0.428\nsamples = 744\nvalue = [[-0.228]\n[0.662]\n[0.34]]", fillcolor="#f3c7a7"] ;
266 -> 506 ;
507 [label="ang_vel3 <= 3.394\nsquared_error = 0.406\nsamples = 334\nvalue = [[0.111]\n[0.67]\n[0.118]]", fillcolor="#f3c3a1"] ;
506 -> 507 ;
1721 [label="vel_z <= 0.175\nsquared_error = 0.373\nsamples = 172\nvalue = [[0.234]\n[0.594]\n[0.373]]", fillcolor="#f2be99"] ;
507 -> 1721 ;
1723 [label="squared_error = 0.256\nsamples = 111\nvalue = [[-0.077]\n[0.649]\n[0.471]]", fillcolor="#eeab7b"] ;
1721 -> 1723 ;
1724 [label="squared_error = 0.401\nsamples = 61\nvalue = [[0.799]\n[0.495]\n[0.194]]", fillcolor="#f3c3a0"] ;
1721 -> 1724 ;
1722 [label="ang_vel1 <= -1.914\nsquared_error = 0.377\nsamples = 162\nvalue = [[-0.02]\n[0.75]\n[-0.153]]", fillcolor="#f2bf9a"] ;
507 -> 1722 ;
1725 [label="squared_error = 0.377\nsamples = 55\nvalue = [[0.251]\n[0.566]\n[0.358]]", fillcolor="#f2bf9a"] ;
1722 -> 1725 ;
1726 [label="squared_error = 0.281\nsamples = 107\nvalue = [[-0.159]\n[0.844]\n[-0.416]]", fillcolor="#eeaf81"] ;
1722 -> 1726 ;
508 [label="ang3 <= 0.249\nsquared_error = 0.365\nsamples = 410\nvalue = [[-0.505]\n[0.656]\n[0.522]]", fillcolor="#f1bd97"] ;
506 -> 508 ;
919 [label="squared_error = 0.167\nsamples = 180\nvalue = [[-0.696]\n[0.815]\n[0.853]]", fillcolor="#eb9c64"] ;
508 -> 919 ;
920 [label="ang_vel0 <= -1.62\nsquared_error = 0.44\nsamples = 230\nvalue = [[-0.355]\n[0.531]\n[0.262]]", fillcolor="#f4c9aa"] ;
508 -> 920 ;
1457 [label="squared_error = 0.407\nsamples = 66\nvalue = [[0.246]\n[0.675]\n[0.196]]", fillcolor="#f3c4a2"] ;
920 -> 1457 ;
1458 [label="squared_error = 0.381\nsamples = 164\nvalue = [[-0.596]\n[0.473]\n[0.288]]", fillcolor="#f2bf9b"] ;
920 -> 1458 ;
62 [label="vel_z <= -0.074\nsquared_error = 0.51\nsamples = 3808\nvalue = [[-0.321]\n[0.275]\n[0.415]]", fillcolor="#f6d4bc"] ;
31 -> 62 ;
121 [label="ang_vel0 <= -2.321\nsquared_error = 0.49\nsamples = 2252\nvalue = [[-0.459]\n[0.326]\n[0.622]]", fillcolor="#f6d1b7"] ;
62 -> 121 ;
123 [label="ang_vel0 <= -3.099\nsquared_error = 0.437\nsamples = 846\nvalue = [[0.022]\n[0.666]\n[0.306]]", fillcolor="#f4c8a9"] ;
121 -> 123 ;
407 [label="ang_vel2 <= -2.39\nsquared_error = 0.355\nsamples = 223\nvalue = [[0.449]\n[0.756]\n[-0.176]]", fillcolor="#f1bb94"] ;
123 -> 407 ;
1869 [label="squared_error = 0.204\nsamples = 120\nvalue = [[0.702]\n[0.615]\n[-0.019]]", fillcolor="#eca26e"] ;
407 -> 1869 ;
1870 [label="ang1 <= -0.065\nsquared_error = 0.439\nsamples = 103\nvalue = [[0.154]\n[0.921]\n[-0.359]]", fillcolor="#f4c9aa"] ;
407 -> 1870 ;
1871 [label="squared_error = 0.33\nsamples = 60\nvalue = [[0.591]\n[0.922]\n[-0.52]]", fillcolor="#f0b78e"] ;
1870 -> 1871 ;
1872 [label="squared_error = 0.351\nsamples = 43\nvalue = [[-0.456]\n[0.919]\n[-0.135]]", fillcolor="#f1ba93"] ;
1870 -> 1872 ;
408 [label="ang_vel2 <= -1.269\nsquared_error = 0.398\nsamples = 623\nvalue = [[-0.13]\n[0.634]\n[0.478]]", fillcolor="#f2c29f"] ;
123 -> 408 ;
741 [label="ang_vel1 <= -0.462\nsquared_error = 0.293\nsamples = 312\nvalue = [[0.164]\n[0.497]\n[0.531]]", fillcolor="#efb184"] ;
408 -> 741 ;
1927 [label="squared_error = 0.263\nsamples = 299\nvalue = [[0.175]\n[0.475]\n[0.588]]", fillcolor="#eeac7d"] ;
741 -> 1927 ;
1928 [label="squared_error = 0.286\nsamples = 13\nvalue = [[-0.081]\n[1.0]\n[-0.774]]", fillcolor="#efb082"] ;
741 -> 1928 ;
742 [label="ang1 <= -0.112\nsquared_error = 0.43\nsamples = 311\nvalue = [[-0.425]\n[0.771]\n[0.424]]", fillcolor="#f4c7a7"] ;
408 -> 742 ;
743 [label="squared_error = 0.642\nsamples = 71\nvalue = [[0.447]\n[0.447]\n[-0.036]]", fillcolor="#fbeade"] ;
742 -> 743 ;
744 [label="squared_error = 0.23\nsamples = 240\nvalue = [[-0.683]\n[0.866]\n[0.561]]", fillcolor="#eda774"] ;
742 -> 744 ;
124 [label="ang0 <= -0.022\nsquared_error = 0.378\nsamples = 1406\nvalue = [[-0.749]\n[0.121]\n[0.812]]", fillcolor="#f2bf9a"] ;
121 -> 124 ;
235 [label="ang3 <= 0.339\nsquared_error = 0.346\nsamples = 831\nvalue = [[-0.684]\n[0.43]\n[0.756]]", fillcolor="#f1ba92"] ;
124 -> 235 ;
329 [label="squared_error = 0.191\nsamples = 628\nvalue = [[-0.842]\n[0.558]\n[0.895]]", fillcolor="#eba06a"] ;
235 -> 329 ;
330 [label="ang_vel1 <= -0.781\nsquared_error = 0.571\nsamples = 203\nvalue = [[-0.194]\n[0.034]\n[0.325]]", fillcolor="#f8decc"] ;
235 -> 330 ;
693 [label="ang_vel3 <= 8.291\nsquared_error = 0.547\nsamples = 112\nvalue = [[0.206]\n[-0.29]\n[0.168]]", fillcolor="#f7dac6"] ;
330 -> 693 ;
1675 [label="squared_error = 0.458\nsamples = 88\nvalue = [[0.209]\n[-0.122]\n[0.386]]", fillcolor="#f4ccaf"] ;
693 -> 1675 ;
1676 [label="squared_error = 0.438\nsamples = 24\nvalue = [[0.193]\n[-0.907]\n[-0.635]]", fillcolor="#f4c9aa"] ;
693 -> 1676 ;
694 [label="squared_error = 0.336\nsamples = 91\nvalue = [[-0.685]\n[0.432]\n[0.52]]", fillcolor="#f0b88f"] ;
330 -> 694 ;
236 [label="ang_vel1 <= 0.749\nsquared_error = 0.302\nsamples = 575\nvalue = [[-0.844]\n[-0.327]\n[0.894]]", fillcolor="#efb287"] ;
124 -> 236 ;
787 [label="ang_vel1 <= -1.476\nsquared_error = 0.278\nsamples = 529\nvalue = [[-0.831]\n[-0.425]\n[0.889]]", fillcolor="#eeae80"] ;
236 -> 787 ;
789 [label="squared_error = 0.299\nsamples = 143\nvalue = [[-0.636]\n[0.211]\n[0.913]]", fillcolor="#efb286"] ;
787 -> 789 ;
790 [label="ang2 <= -0.162\nsquared_error = 0.195\nsamples = 386\nvalue = [[-0.903]\n[-0.66]\n[0.88]]", fillcolor="#eca16b"] ;
787 -> 790 ;
1483 [label="squared_error = 0.336\nsamples = 22\nvalue = [[-0.687]\n[0.544]\n[0.742]]", fillcolor="#f0b88f"] ;
790 -> 1483 ;
1484 [label="squared_error = 0.154\nsamples = 364\nvalue = [[-0.916]\n[-0.733]\n[0.888]]", fillcolor="#ea9a61"] ;
790 -> 1484 ;
788 [label="squared_error = 0.111\nsamples = 46\nvalue = [[-0.999]\n[0.797]\n[0.955]]", fillcolor="#e99355"] ;
236 -> 788 ;
122 [label="ang_vel1 <= -0.893\nsquared_error = 0.464\nsamples = 1556\nvalue = [[-0.12]\n[0.203]\n[0.115]]", fillcolor="#f5cdb0"] ;
62 -> 122 ;
277 [label="vel_x <= 0.161\nsquared_error = 0.361\nsamples = 836\nvalue = [[0.116]\n[0.085]\n[0.297]]", fillcolor="#f1bc96"] ;
122 -> 277 ;
583 [label="ang_vel3 <= 3.858\nsquared_error = 0.252\nsamples = 476\nvalue = [[0.073]\n[0.152]\n[0.562]]", fillcolor="#edaa7a"] ;
277 -> 583 ;
785 [label="ang0 <= 0.002\nsquared_error = 0.209\nsamples = 265\nvalue = [[0.166]\n[-0.069]\n[0.789]]", fillcolor="#eca36f"] ;
583 -> 785 ;
1981 [label="squared_error = 0.179\nsamples = 155\nvalue = [[0.307]\n[0.158]\n[0.773]]", fillcolor="#eb9e67"] ;
785 -> 1981 ;
1982 [label="squared_error = 0.169\nsamples = 110\nvalue = [[-0.033]\n[-0.388]\n[0.812]]", fillcolor="#eb9d65"] ;
785 -> 1982 ;
786 [label="squared_error = 0.203\nsamples = 211\nvalue = [[-0.043]\n[0.428]\n[0.276]]", fillcolor="#eca26d"] ;
583 -> 786 ;
584 [label="vel_z <= 0.177\nsquared_error = 0.428\nsamples = 360\nvalue = [[0.172]\n[-0.003]\n[-0.054]]", fillcolor="#f3c7a7"] ;
277 -> 584 ;
941 [label="squared_error = 0.347\nsamples = 201\nvalue = [[0.133]\n[-0.272]\n[0.16]]", fillcolor="#f1ba92"] ;
584 -> 941 ;
942 [label="ang_vel3 <= 2.651\nsquared_error = 0.416\nsamples = 159\nvalue = [[0.222]\n[0.338]\n[-0.323]]", fillcolor="#f3c5a4"] ;
584 -> 942 ;
1303 [label="squared_error = 0.262\nsamples = 23\nvalue = [[0.689]\n[-0.222]\n[0.63]]", fillcolor="#eeac7c"] ;
942 -> 1303 ;
1304 [label="squared_error = 0.347\nsamples = 136\nvalue = [[0.142]\n[0.432]\n[-0.484]]", fillcolor="#f1ba92"] ;
942 -> 1304 ;
278 [label="vel_z <= 0.442\nsquared_error = 0.496\nsamples = 720\nvalue = [[-0.393]\n[0.34]\n[-0.097]]", fillcolor="#f6d2b8"] ;
122 -> 278 ;
373 [label="ang_vel3 <= 2.971\nsquared_error = 0.432\nsamples = 503\nvalue = [[-0.642]\n[0.216]\n[-0.008]]", fillcolor="#f4c8a8"] ;
278 -> 373 ;
607 [label="squared_error = 0.385\nsamples = 239\nvalue = [[-0.619]\n[0.018]\n[0.367]]", fillcolor="#f2c09c"] ;
373 -> 607 ;
608 [label="ang_vel2 <= -2.507\nsquared_error = 0.371\nsamples = 264\nvalue = [[-0.664]\n[0.396]\n[-0.348]]", fillcolor="#f2be98"] ;
373 -> 608 ;
1127 [label="squared_error = 0.187\nsamples = 120\nvalue = [[-0.691]\n[0.78]\n[-0.11]]", fillcolor="#eba069"] ;
608 -> 1127 ;
1128 [label="ang0 <= 0.015\nsquared_error = 0.42\nsamples = 144\nvalue = [[-0.641]\n[0.076]\n[-0.547]]", fillcolor="#f3c6a5"] ;
608 -> 1128 ;
1339 [label="squared_error = 0.303\nsamples = 96\nvalue = [[-0.542]\n[0.42]\n[-0.613]]", fillcolor="#efb287"] ;
1128 -> 1339 ;
1340 [label="squared_error = 0.39\nsamples = 48\nvalue = [[-0.838]\n[-0.613]\n[-0.415]]", fillcolor="#f2c19d"] ;
1128 -> 1340 ;
374 [label="vel_x <= 0.156\nsquared_error = 0.427\nsamples = 217\nvalue = [[0.184]\n[0.626]\n[-0.303]]", fillcolor="#f3c7a7"] ;
278 -> 374 ;
1335 [label="ang_vel3 <= 3.373\nsquared_error = 0.41\nsamples = 128\nvalue = [[0.149]\n[0.638]\n[0.046]]", fillcolor="#f3c4a2"] ;
374 -> 1335 ;
1653 [label="squared_error = 0.349\nsamples = 77\nvalue = [[0.36]\n[0.527]\n[0.373]]", fillcolor="#f1ba93"] ;
1335 -> 1653 ;
1654 [label="squared_error = 0.294\nsamples = 51\nvalue = [[-0.17]\n[0.805]\n[-0.448]]", fillcolor="#efb185"] ;
1335 -> 1654 ;
1336 [label="squared_error = 0.308\nsamples = 89\nvalue = [[0.235]\n[0.609]\n[-0.804]]", fillcolor="#efb388"] ;
374 -> 1336 ;
32 [label="ang_vel1 <= -0.397\nsquared_error = 0.612\nsamples = 5233\nvalue = [[0.031]\n[-0.042]\n[-0.421]]", fillcolor="#fae5d6"] ;
24 -> 32 ;
73 [label="vel_z <= 0.14\nsquared_error = 0.542\nsamples = 1815\nvalue = [[0.456]\n[-0.291]\n[-0.325]]", fillcolor="#f7dac4"] ;
32 -> 73 ;
267 [label="ang_vel0 <= -1.242\nsquared_error = 0.496\nsamples = 1082\nvalue = [[0.496]\n[-0.492]\n[-0.155]]", fillcolor="#f6d2b8"] ;
73 -> 267 ;
439 [label="ang0 <= -0.143\nsquared_error = 0.46\nsamples = 491\nvalue = [[0.696]\n[-0.209]\n[-0.065]]", fillcolor="#f5ccaf"] ;
267 -> 439 ;
593 [label="ang_vel0 <= -1.698\nsquared_error = 0.388\nsamples = 139\nvalue = [[0.908]\n[0.394]\n[0.094]]", fillcolor="#f2c09d"] ;
439 -> 593 ;
1513 [label="squared_error = 0.201\nsamples = 51\nvalue = [[0.98]\n[0.967]\n[-0.222]]", fillcolor="#eca26d"] ;
593 -> 1513 ;
1514 [label="squared_error = 0.364\nsamples = 88\nvalue = [[0.867]\n[0.062]\n[0.277]]", fillcolor="#f1bd97"] ;
593 -> 1514 ;
594 [label="ang_vel3 <= 5.695\nsquared_error = 0.409\nsamples = 352\nvalue = [[0.613]\n[-0.447]\n[-0.127]]", fillcolor="#f3c4a2"] ;
439 -> 594 ;
1123 [label="squared_error = 0.379\nsamples = 275\nvalue = [[0.54]\n[-0.423]\n[0.046]]", fillcolor="#f2bf9a"] ;
594 -> 1123 ;
1124 [label="squared_error = 0.319\nsamples = 77\nvalue = [[0.871]\n[-0.534]\n[-0.748]]", fillcolor="#f0b58b"] ;
594 -> 1124 ;
440 [label="z_coord <= 1.268\nsquared_error = 0.461\nsamples = 591\nvalue = [[0.33]\n[-0.727]\n[-0.231]]", fillcolor="#f5ccaf"] ;
267 -> 440 ;
1177 [label="ang0 <= -0.142\nsquared_error = 0.422\nsamples = 540\nvalue = [[0.403]\n[-0.745]\n[-0.267]]", fillcolor="#f3c6a5"] ;
440 -> 1177 ;
1211 [label="ang_vel3 <= 2.927\nsquared_error = 0.426\nsamples = 220\nvalue = [[0.631]\n[-0.655]\n[-0.042]]", fillcolor="#f3c7a7"] ;
1177 -> 1211 ;
1633 [label="squared_error = 0.319\nsamples = 69\nvalue = [[0.808]\n[-0.554]\n[0.485]]", fillcolor="#f0b58b"] ;
1211 -> 1633 ;
1634 [label="squared_error = 0.405\nsamples = 151\nvalue = [[0.551]\n[-0.701]\n[-0.282]]", fillcolor="#f3c3a1"] ;
1211 -> 1634 ;
1212 [label="vel_z <= -0.074\nsquared_error = 0.377\nsamples = 320\nvalue = [[0.245]\n[-0.807]\n[-0.422]]", fillcolor="#f2bf9a"] ;
1177 -> 1212 ;
1657 [label="squared_error = 0.37\nsamples = 186\nvalue = [[0.412]\n[-0.86]\n[-0.22]]", fillcolor="#f1bd98"] ;
1212 -> 1657 ;
1658 [label="squared_error = 0.307\nsamples = 134\nvalue = [[0.015]\n[-0.734]\n[-0.702]]", fillcolor="#efb388"] ;
1212 -> 1658 ;
1178 [label="squared_error = 0.585\nsamples = 51\nvalue = [[-0.442]\n[-0.537]\n[0.153]]", fillcolor="#f9e1cf"] ;
440 -> 1178 ;
268 [label="ang_vel3 <= 2.588\nsquared_error = 0.524\nsamples = 733\nvalue = [[0.398]\n[0.005]\n[-0.575]]", fillcolor="#f7d7c0"] ;
73 -> 268 ;
449 [label="ang0 <= -0.121\nsquared_error = 0.537\nsamples = 148\nvalue = [[0.718]\n[-0.28]\n[0.078]]", fillcolor="#f7d9c3"] ;
268 -> 449 ;
1087 [label="squared_error = 0.393\nsamples = 88\nvalue = [[0.87]\n[-0.387]\n[0.505]]", fillcolor="#f2c19e"] ;
449 -> 1087 ;
1088 [label="squared_error = 0.486\nsamples = 60\nvalue = [[0.495]\n[-0.121]\n[-0.547]]", fillcolor="#f5d1b6"] ;
449 -> 1088 ;
450 [label="ang_vel1 <= -1.382\nsquared_error = 0.456\nsamples = 585\nvalue = [[0.317]\n[0.077]\n[-0.741]]", fillcolor="#f4ccae"] ;
268 -> 450 ;
837 [label="ang_vel1 <= -2.349\nsquared_error = 0.439\nsamples = 262\nvalue = [[0.607]\n[-0.095]\n[-0.618]]", fillcolor="#f4c9aa"] ;
450 -> 837 ;
1647 [label="ang0 <= -0.134\nsquared_error = 0.512\nsamples = 88\nvalue = [[0.86]\n[-0.015]\n[-0.206]]", fillcolor="#f6d5bd"] ;
837 -> 1647 ;
1945 [label="squared_error = 0.447\nsamples = 39\nvalue = [[0.992]\n[0.58]\n[-0.081]]", fillcolor="#f4caac"] ;
1647 -> 1945 ;
1946 [label="squared_error = 0.38\nsamples = 49\nvalue = [[0.755]\n[-0.489]\n[-0.306]]", fillcolor="#f2bf9b"] ;
1647 -> 1946 ;
1648 [label="ang_vel3 <= 3.761\nsquared_error = 0.342\nsamples = 174\nvalue = [[0.48]\n[-0.135]\n[-0.826]]", fillcolor="#f1b991"] ;
837 -> 1648 ;
1795 [label="squared_error = 0.285\nsamples = 81\nvalue = [[0.777]\n[-0.41]\n[-0.654]]", fillcolor="#efb082"] ;
1648 -> 1795 ;
1796 [label="squared_error = 0.286\nsamples = 93\nvalue = [[0.22]\n[0.104]\n[-0.977]]", fillcolor="#efb082"] ;
1648 -> 1796 ;
838 [label="vel_x <= 0.442\nsquared_error = 0.406\nsamples = 323\nvalue = [[0.082]\n[0.217]\n[-0.84]]", fillcolor="#f3c3a1"] ;
450 -> 838 ;
1671 [label="ang_vel2 <= -0.335\nsquared_error = 0.361\nsamples = 217\nvalue = [[0.026]\n[0.426]\n[-0.817]]", fillcolor="#f1bc96"] ;
838 -> 1671 ;
1885 [label="squared_error = 0.312\nsamples = 163\nvalue = [[-0.176]\n[0.38]\n[-0.822]]", fillcolor="#f0b489"] ;
1671 -> 1885 ;
1886 [label="squared_error = 0.335\nsamples = 54\nvalue = [[0.634]\n[0.565]\n[-0.804]]", fillcolor="#f0b88f"] ;
1671 -> 1886 ;
1672 [label="squared_error = 0.401\nsamples = 106\nvalue = [[0.196]\n[-0.212]\n[-0.885]]", fillcolor="#f3c3a0"] ;
838 -> 1672 ;
74 [label="ang_vel2 <= -2.901\nsquared_error = 0.58\nsamples = 3418\nvalue = [[-0.194]\n[0.09]\n[-0.471]]", fillcolor="#f9e0ce"] ;
32 -> 74 ;
109 [label="ang_vel1 <= 1.066\nsquared_error = 0.495\nsamples = 1406\nvalue = [[-0.032]\n[0.472]\n[-0.557]]", fillcolor="#f6d2b8"] ;
74 -> 109 ;
191 [label="ang0 <= -0.153\nsquared_error = 0.474\nsamples = 898\nvalue = [[0.276]\n[0.438]\n[-0.474]]", fillcolor="#f5cfb3"] ;
109 -> 191 ;
355 [label="z_coord <= 1.232\nsquared_error = 0.309\nsamples = 525\nvalue = [[0.5]\n[0.654]\n[-0.615]]", fillcolor="#efb488"] ;
191 -> 355 ;
1617 [label="squared_error = 0.284\nsamples = 356\nvalue = [[0.66]\n[0.597]\n[-0.637]]", fillcolor="#efaf82"] ;
355 -> 1617 ;
1618 [label="ang0 <= -0.178\nsquared_error = 0.3\nsamples = 169\nvalue = [[0.163]\n[0.775]\n[-0.57]]", fillcolor="#efb286"] ;
355 -> 1618 ;
1851 [label="squared_error = 0.175\nsamples = 60\nvalue = [[0.712]\n[0.82]\n[-0.626]]", fillcolor="#eb9e66"] ;
1618 -> 1851 ;
1852 [label="squared_error = 0.281\nsamples = 109\nvalue = [[-0.14]\n[0.75]\n[-0.539]]", fillcolor="#eeaf81"] ;
1618 -> 1852 ;
356 [label="vel_z <= -0.355\nsquared_error = 0.574\nsamples = 373\nvalue = [[-0.038]\n[0.133]\n[-0.274]]", fillcolor="#f8dfcd"] ;
191 -> 356 ;
357 [label="ang_vel2 <= -4.227\nsquared_error = 0.517\nsamples = 170\nvalue = [[0.524]\n[-0.21]\n[-0.04]]", fillcolor="#f6d6be"] ;
356 -> 357 ;
1841 [label="squared_error = 0.45\nsamples = 27\nvalue = [[0.254]\n[0.693]\n[-0.113]]", fillcolor="#f4cbad"] ;
357 -> 1841 ;
1842 [label="squared_error = 0.463\nsamples = 143\nvalue = [[0.576]\n[-0.38]\n[-0.026]]", fillcolor="#f5cdb0"] ;
357 -> 1842 ;
358 [label="ang_vel3 <= 2.831\nsquared_error = 0.371\nsamples = 203\nvalue = [[-0.509]\n[0.419]\n[-0.471]]", fillcolor="#f2be98"] ;
356 -> 358 ;
933 [label="squared_error = 0.409\nsamples = 67\nvalue = [[-0.324]\n[-0.029]\n[0.086]]", fillcolor="#f3c4a2"] ;
358 -> 933 ;
934 [label="squared_error = 0.219\nsamples = 136\nvalue = [[-0.601]\n[0.64]\n[-0.745]]", fillcolor="#eca571"] ;
358 -> 934 ;
192 [label="ang0 <= -0.093\nsquared_error = 0.363\nsamples = 508\nvalue = [[-0.576]\n[0.534]\n[-0.703]]", fillcolor="#f1bc96"] ;
109 -> 192 ;
967 [label="ang_vel2 <= -3.314\nsquared_error = 0.302\nsamples = 458\nvalue = [[-0.55]\n[0.623]\n[-0.755]]", fillcolor="#efb287"] ;
192 -> 967 ;
1199 [label="ang_vel1 <= 1.634\nsquared_error = 0.215\nsamples = 351\nvalue = [[-0.549]\n[0.775]\n[-0.825]]", fillcolor="#eca470"] ;
967 -> 1199 ;
1809 [label="squared_error = 0.236\nsamples = 197\nvalue = [[-0.298]\n[0.762]\n[-0.781]]", fillcolor="#eda876"] ;
1199 -> 1809 ;
1810 [label="squared_error = 0.126\nsamples = 154\nvalue = [[-0.869]\n[0.792]\n[-0.882]]", fillcolor="#e99659"] ;
1199 -> 1810 ;
1200 [label="squared_error = 0.457\nsamples = 107\nvalue = [[-0.556]\n[0.127]\n[-0.525]]", fillcolor="#f4ccaf"] ;
967 -> 1200 ;
968 [label="squared_error = 0.569\nsamples = 50\nvalue = [[-0.811]\n[-0.286]\n[-0.227]]", fillcolor="#f8decb"] ;
192 -> 968 ;
110 [label="vel_z <= 0.262\nsquared_error = 0.569\nsamples = 2012\nvalue = [[-0.308]\n[-0.178]\n[-0.412]]", fillcolor="#f8decb"] ;
74 -> 110 ;
209 [label="ang2 <= -0.17\nsquared_error = 0.531\nsamples = 1309\nvalue = [[-0.342]\n[-0.417]\n[-0.329]]", fillcolor="#f7d8c1"] ;
110 -> 209 ;
391 [label="ang_vel0 <= 0.188\nsquared_error = 0.517\nsamples = 653\nvalue = [[-0.045]\n[-0.412]\n[-0.445]]", fillcolor="#f6d5be"] ;
209 -> 391 ;
501 [label="ang1 <= -0.1\nsquared_error = 0.482\nsamples = 416\nvalue = [[0.239]\n[-0.338]\n[-0.464]]", fillcolor="#f5d0b5"] ;
391 -> 501 ;
1109 [label="ang_vel3 <= 2.642\nsquared_error = 0.399\nsamples = 227\nvalue = [[0.363]\n[-0.593]\n[-0.356]]", fillcolor="#f2c2a0"] ;
501 -> 1109 ;
1737 [label="squared_error = 0.353\nsamples = 105\nvalue = [[0.433]\n[-0.72]\n[0.009]]", fillcolor="#f1bb94"] ;
1109 -> 1737 ;
1738 [label="squared_error = 0.356\nsamples = 122\nvalue = [[0.302]\n[-0.483]\n[-0.671]]", fillcolor="#f1bb95"] ;
1109 -> 1738 ;
1110 [label="ang2 <= -0.303\nsquared_error = 0.501\nsamples = 189\nvalue = [[0.091]\n[-0.032]\n[-0.594]]", fillcolor="#f6d3ba"] ;
501 -> 1110 ;
1367 [label="ang0 <= -0.171\nsquared_error = 0.458\nsamples = 118\nvalue = [[0.427]\n[0.041]\n[-0.625]]", fillcolor="#f4ccaf"] ;
1110 -> 1367 ;
1925 [label="squared_error = 0.25\nsamples = 48\nvalue = [[0.538]\n[0.572]\n[-0.835]]", fillcolor="#edaa79"] ;
1367 -> 1925 ;
1926 [label="squared_error = 0.47\nsamples = 70\nvalue = [[0.352]\n[-0.322]\n[-0.48]]", fillcolor="#f5ceb2"] ;
1367 -> 1926 ;
1368 [label="squared_error = 0.396\nsamples = 71\nvalue = [[-0.468]\n[-0.155]\n[-0.542]]", fillcolor="#f2c29f"] ;
1110 -> 1368 ;
502 [label="z_coord <= 1.175\nsquared_error = 0.438\nsamples = 237\nvalue = [[-0.544]\n[-0.542]\n[-0.413]]", fillcolor="#f4c9a9"] ;
391 -> 502 ;
1863 [label="squared_error = 0.349\nsamples = 22\nvalue = [[0.512]\n[-0.533]\n[-0.186]]", fillcolor="#f1ba93"] ;
502 -> 1863 ;
1864 [label="squared_error = 0.403\nsamples = 215\nvalue = [[-0.652]\n[-0.543]\n[-0.436]]", fillcolor="#f3c3a1"] ;
502 -> 1864 ;
392 [label="ang_vel3 <= 2.558\nsquared_error = 0.478\nsamples = 656\nvalue = [[-0.638]\n[-0.422]\n[-0.212]]", fillcolor="#f5cfb4"] ;
209 -> 392 ;
547 [label="ang0 <= -0.121\nsquared_error = 0.429\nsamples = 184\nvalue = [[-0.527]\n[-0.553]\n[0.36]]", fillcolor="#f3c7a7"] ;
392 -> 547 ;
1241 [label="squared_error = 0.36\nsamples = 101\nvalue = [[-0.277]\n[-0.496]\n[0.696]]", fillcolor="#f1bc95"] ;
547 -> 1241 ;
1242 [label="squared_error = 0.353\nsamples = 83\nvalue = [[-0.83]\n[-0.624]\n[-0.05]]", fillcolor="#f1bb94"] ;
547 -> 1242 ;
548 [label="vel_z <= -0.364\nsquared_error = 0.433\nsamples = 472\nvalue = [[-0.681]\n[-0.371]\n[-0.435]]", fillcolor="#f4c8a8"] ;
392 -> 548 ;
559 [label="squared_error = 0.192\nsamples = 51\nvalue = [[-0.779]\n[-0.955]\n[0.668]]", fillcolor="#eba06a"] ;
548 -> 559 ;
560 [label="ang1 <= -0.181\nsquared_error = 0.391\nsamples = 421\nvalue = [[-0.669]\n[-0.301]\n[-0.569]]", fillcolor="#f2c19d"] ;
548 -> 560 ;
925 [label="ang_vel3 <= 3.005\nsquared_error = 0.435\nsamples = 157\nvalue = [[-0.397]\n[-0.59]\n[-0.321]]", fillcolor="#f4c8a9"] ;
560 -> 925 ;
1115 [label="squared_error = 0.414\nsamples = 62\nvalue = [[-0.199]\n[-0.625]\n[0.316]]", fillcolor="#f3c5a3"] ;
925 -> 1115 ;
1116 [label="squared_error = 0.288\nsamples = 95\nvalue = [[-0.526]\n[-0.568]\n[-0.736]]", fillcolor="#efb083"] ;
925 -> 1116 ;
926 [label="squared_error = 0.295\nsamples = 264\nvalue = [[-0.831]\n[-0.129]\n[-0.716]]", fillcolor="#efb185"] ;
560 -> 926 ;
210 [label="ang_vel3 <= 2.771\nsquared_error = 0.522\nsamples = 703\nvalue = [[-0.245]\n[0.268]\n[-0.567]]", fillcolor="#f7d6bf"] ;
110 -> 210 ;
425 [label="ang1 <= -0.126\nsquared_error = 0.595\nsamples = 348\nvalue = [[0.009]\n[0.13]\n[-0.261]]", fillcolor="#f9e2d2"] ;
210 -> 425 ;
427 [label="vel_z <= 0.394\nsquared_error = 0.487\nsamples = 128\nvalue = [[0.32]\n[-0.32]\n[0.416]]", fillcolor="#f5d1b6"] ;
425 -> 427 ;
1943 [label="squared_error = 0.475\nsamples = 68\nvalue = [[-0.025]\n[-0.559]\n[0.312]]", fillcolor="#f5cfb3"] ;
427 -> 1943 ;
1944 [label="squared_error = 0.35\nsamples = 60\nvalue = [[0.711]\n[-0.048]\n[0.535]]", fillcolor="#f1ba93"] ;
427 -> 1944 ;
428 [label="vel_z <= 0.456\nsquared_error = 0.425\nsamples = 220\nvalue = [[-0.172]\n[0.392]\n[-0.656]]", fillcolor="#f3c6a6"] ;
425 -> 428 ;
1159 [label="squared_error = 0.41\nsamples = 136\nvalue = [[-0.477]\n[0.284]\n[-0.519]]", fillcolor="#f3c4a2"] ;
428 -> 1159 ;
1160 [label="squared_error = 0.275\nsamples = 84\nvalue = [[0.323]\n[0.565]\n[-0.878]]", fillcolor="#eeae80"] ;
428 -> 1160 ;
426 [label="vel_x <= 0.676\nsquared_error = 0.336\nsamples = 355\nvalue = [[-0.494]\n[0.403]\n[-0.866]]", fillcolor="#f0b88f"] ;
210 -> 426 ;
1001 [label="ang1 <= -0.22\nsquared_error = 0.282\nsamples = 307\nvalue = [[-0.464]\n[0.55]\n[-0.881]]", fillcolor="#efaf82"] ;
426 -> 1001 ;
1711 [label="squared_error = 0.488\nsamples = 28\nvalue = [[-0.142]\n[0.181]\n[-0.012]]", fillcolor="#f5d1b6"] ;
1001 -> 1711 ;
1712 [label="vel_z <= 0.376\nsquared_error = 0.225\nsamples = 279\nvalue = [[-0.496]\n[0.587]\n[-0.968]]", fillcolor="#eda673"] ;
1001 -> 1712 ;
1989 [label="squared_error = 0.134\nsamples = 121\nvalue = [[-0.818]\n[0.443]\n[-0.946]]", fillcolor="#ea975b"] ;
1712 -> 1989 ;
1990 [label="squared_error = 0.239\nsamples = 158\nvalue = [[-0.25]\n[0.697]\n[-0.985]]", fillcolor="#eda876"] ;
1712 -> 1990 ;
1002 [label="squared_error = 0.325\nsamples = 48\nvalue = [[-0.686]\n[-0.531]\n[-0.771]]", fillcolor="#f0b68c"] ;
426 -> 1002 ;
18 [label="z_coord <= 1.077\nsquared_error = 0.521\nsamples = 15561\nvalue = [[-0.166]\n[0.35]\n[-0.368]]", fillcolor="#f7d6bf"] ;
13 -> 18 ;
37 [label="ang2 <= -0.5\nsquared_error = 0.373\nsamples = 3161\nvalue = [[0.171]\n[0.079]\n[-0.827]]", fillcolor="#f2be99"] ;
18 -> 37 ;
171 [label="vel_x <= 2.659\nsquared_error = 0.443\nsamples = 371\nvalue = [[0.28]\n[0.781]\n[-0.39]]", fillcolor="#f4c9ab"] ;
37 -> 171 ;
535 [label="ang_vel1 <= -5.99\nsquared_error = 0.397\nsamples = 96\nvalue = [[-0.015]\n[0.914]\n[0.391]]", fillcolor="#f2c29f"] ;
171 -> 535 ;
1267 [label="squared_error = 0.254\nsamples = 57\nvalue = [[0.454]\n[0.995]\n[0.154]]", fillcolor="#eeab7a"] ;
535 -> 1267 ;
1268 [label="squared_error = 0.266\nsamples = 39\nvalue = [[-0.7]\n[0.795]\n[0.737]]", fillcolor="#eead7d"] ;
535 -> 1268 ;
536 [label="ang_vel1 <= -4.799\nsquared_error = 0.347\nsamples = 275\nvalue = [[0.383]\n[0.735]\n[-0.663]]", fillcolor="#f1ba92"] ;
171 -> 536 ;
733 [label="squared_error = 0.21\nsamples = 195\nvalue = [[0.632]\n[0.932]\n[-0.617]]", fillcolor="#eca36f"] ;
536 -> 733 ;
734 [label="squared_error = 0.395\nsamples = 80\nvalue = [[-0.223]\n[0.255]\n[-0.774]]", fillcolor="#f2c29e"] ;
536 -> 734 ;
172 [label="ang_vel2 <= 7.902\nsquared_error = 0.329\nsamples = 2790\nvalue = [[0.157]\n[-0.015]\n[-0.885]]", fillcolor="#f0b78d"] ;
37 -> 172 ;
255 [label="ang0 <= -0.124\nsquared_error = 0.314\nsamples = 2482\nvalue = [[0.118]\n[0.069]\n[-0.886]]", fillcolor="#f0b48a"] ;
172 -> 255 ;
297 [label="squared_error = 0.223\nsamples = 418\nvalue = [[0.48]\n[0.524]\n[-0.92]]", fillcolor="#eda672"] ;
255 -> 297 ;
298 [label="ang_vel0 <= 2.198\nsquared_error = 0.305\nsamples = 2064\nvalue = [[0.044]\n[-0.023]\n[-0.879]]", fillcolor="#efb387"] ;
255 -> 298 ;
461 [label="vel_z <= -2.379\nsquared_error = 0.249\nsamples = 1463\nvalue = [[0.116]\n[0.107]\n[-0.884]]", fillcolor="#edaa79"] ;
298 -> 461 ;
697 [label="ang0 <= 0.088\nsquared_error = 0.242\nsamples = 409\nvalue = [[0.42]\n[-0.056]\n[-0.975]]", fillcolor="#eda977"] ;
461 -> 697 ;
1589 [label="squared_error = 0.195\nsamples = 206\nvalue = [[0.631]\n[0.13]\n[-0.963]]", fillcolor="#eca16b"] ;
697 -> 1589 ;
1590 [label="squared_error = 0.237\nsamples = 203\nvalue = [[0.206]\n[-0.244]\n[-0.986]]", fillcolor="#eda876"] ;
697 -> 1590 ;
698 [label="ang_vel2 <= -0.853\nsquared_error = 0.229\nsamples = 1054\nvalue = [[-0.002]\n[0.17]\n[-0.849]]", fillcolor="#eda674"] ;
461 -> 698 ;
717 [label="squared_error = 0.165\nsamples = 267\nvalue = [[-0.247]\n[0.541]\n[-0.879]]", fillcolor="#eb9c63"] ;
698 -> 717 ;
718 [label="ang_vel1 <= -2.874\nsquared_error = 0.221\nsamples = 787\nvalue = [[0.081]\n[0.045]\n[-0.839]]", fillcolor="#eca572"] ;
698 -> 718 ;
1439 [label="squared_error = 0.283\nsamples = 285\nvalue = [[0.285]\n[0.239]\n[-0.882]]", fillcolor="#efaf82"] ;
718 -> 1439 ;
1440 [label="ang1 <= -1.267\nsquared_error = 0.161\nsamples = 502\nvalue = [[-0.034]\n[-0.066]\n[-0.814]]", fillcolor="#ea9b62"] ;
718 -> 1440 ;
1643 [label="squared_error = 0.107\nsamples = 185\nvalue = [[0.246]\n[0.092]\n[-0.887]]", fillcolor="#e99254"] ;
1440 -> 1643 ;
1644 [label="squared_error = 0.159\nsamples = 317\nvalue = [[-0.197]\n[-0.158]\n[-0.771]]", fillcolor="#ea9b62"] ;
1440 -> 1644 ;
462 [label="ang0 <= 0.074\nsquared_error = 0.378\nsamples = 601\nvalue = [[-0.131]\n[-0.341]\n[-0.867]]", fillcolor="#f2bf9a"] ;
298 -> 462 ;
793 [label="z_coord <= 0.921\nsquared_error = 0.335\nsamples = 446\nvalue = [[-0.016]\n[-0.202]\n[-0.931]]", fillcolor="#f0b88f"] ;
462 -> 793 ;
871 [label="ang_vel0 <= 4.97\nsquared_error = 0.335\nsamples = 167\nvalue = [[0.398]\n[0.014]\n[-0.951]]", fillcolor="#f0b88f"] ;
793 -> 871 ;
1915 [label="squared_error = 0.282\nsamples = 149\nvalue = [[0.491]\n[0.12]\n[-0.958]]", fillcolor="#efaf81"] ;
871 -> 1915 ;
1916 [label="squared_error = 0.265\nsamples = 18\nvalue = [[-0.376]\n[-0.86]\n[-0.889]]", fillcolor="#eeac7d"] ;
871 -> 1916 ;
872 [label="squared_error = 0.265\nsamples = 279\nvalue = [[-0.263]\n[-0.331]\n[-0.92]]", fillcolor="#eeac7d"] ;
793 -> 872 ;
794 [label="ang_vel0 <= 3.719\nsquared_error = 0.363\nsamples = 155\nvalue = [[-0.463]\n[-0.742]\n[-0.683]]", fillcolor="#f1bc96"] ;
462 -> 794 ;
1407 [label="squared_error = 0.281\nsamples = 121\nvalue = [[-0.323]\n[-0.67]\n[-0.888]]", fillcolor="#eeaf81"] ;
794 -> 1407 ;
1408 [label="squared_error = 0.292\nsamples = 34\nvalue = [[-0.962]\n[-1.0]\n[0.046]]", fillcolor="#efb184"] ;
794 -> 1408 ;
256 [label="ang_vel0 <= 2.86\nsquared_error = 0.244\nsamples = 308\nvalue = [[0.474]\n[-0.686]\n[-0.873]]", fillcolor="#eda978"] ;
172 -> 256 ;
1337 [label="squared_error = 0.213\nsamples = 258\nvalue = [[0.616]\n[-0.627]\n[-0.857]]", fillcolor="#eca470"] ;
256 -> 1337 ;
1338 [label="squared_error = 0.151\nsamples = 50\nvalue = [[-0.262]\n[-0.99]\n[-0.951]]", fillcolor="#ea9a60"] ;
256 -> 1338 ;
38 [label="ang_vel2 <= 1.491\nsquared_error = 0.516\nsamples = 12400\nvalue = [[-0.251]\n[0.42]\n[-0.252]]", fillcolor="#f6d5be"] ;
18 -> 38 ;
41 [label="ang1 <= -0.033\nsquared_error = 0.471\nsamples = 7790\nvalue = [[-0.226]\n[0.646]\n[-0.179]]", fillcolor="#f5ceb2"] ;
38 -> 41 ;
67 [label="ang_vel1 <= 1.024\nsquared_error = 0.439\nsamples = 5344\nvalue = [[-0.275]\n[0.636]\n[-0.379]]", fillcolor="#f4c9aa"] ;
41 -> 67 ;
107 [label="ang1 <= -0.992\nsquared_error = 0.416\nsamples = 4943\nvalue = [[-0.23]\n[0.627]\n[-0.45]]", fillcolor="#f3c5a4"] ;
67 -> 107 ;
195 [label="ang0 <= -0.122\nsquared_error = 0.193\nsamples = 400\nvalue = [[0.208]\n[0.018]\n[-0.595]]", fillcolor="#eca16b"] ;
107 -> 195 ;
1027 [label="squared_error = 0.178\nsamples = 142\nvalue = [[0.514]\n[0.326]\n[-0.792]]", fillcolor="#eb9e67"] ;
195 -> 1027 ;
1028 [label="squared_error = 0.137\nsamples = 258\nvalue = [[0.04]\n[-0.151]\n[-0.487]]", fillcolor="#ea975c"] ;
195 -> 1028 ;
196 [label="ang_vel0 <= -0.394\nsquared_error = 0.417\nsamples = 4543\nvalue = [[-0.269]\n[0.68]\n[-0.437]]", fillcolor="#f3c5a4"] ;
107 -> 196 ;
197 [label="vel_z <= -2.333\nsquared_error = 0.342\nsamples = 2736\nvalue = [[-0.11]\n[0.7]\n[-0.557]]", fillcolor="#f1b991"] ;
196 -> 197 ;
281 [label="ang_vel2 <= -0.181\nsquared_error = 0.227\nsamples = 1720\nvalue = [[-0.257]\n[0.66]\n[-0.682]]", fillcolor="#eda673"] ;
197 -> 281 ;
487 [label="z_coord <= 1.27\nsquared_error = 0.161\nsamples = 1167\nvalue = [[-0.395]\n[0.738]\n[-0.735]]", fillcolor="#ea9b62"] ;
281 -> 487 ;
1059 [label="ang1 <= -0.365\nsquared_error = 0.132\nsamples = 445\nvalue = [[-0.603]\n[0.689]\n[-0.879]]", fillcolor="#e9975b"] ;
487 -> 1059 ;
1573 [label="squared_error = 0.255\nsamples = 15\nvalue = [[0.476]\n[-0.292]\n[-0.993]]", fillcolor="#eeab7b"] ;
1059 -> 1573 ;
1574 [label="squared_error = 0.102\nsamples = 430\nvalue = [[-0.641]\n[0.723]\n[-0.875]]", fillcolor="#e89253"] ;
1059 -> 1574 ;
1060 [label="ang_vel1 <= -1.519\nsquared_error = 0.156\nsamples = 722\nvalue = [[-0.266]\n[0.768]\n[-0.647]]", fillcolor="#ea9a61"] ;
487 -> 1060 ;
1185 [label="squared_error = 0.183\nsamples = 214\nvalue = [[0.067]\n[0.597]\n[-0.672]]", fillcolor="#eb9f68"] ;
1060 -> 1185 ;
1186 [label="squared_error = 0.116\nsamples = 508\nvalue = [[-0.406]\n[0.84]\n[-0.636]]", fillcolor="#e99457"] ;
1060 -> 1186 ;
488 [label="ang1 <= -0.164\nsquared_error = 0.305\nsamples = 553\nvalue = [[0.033]\n[0.496]\n[-0.568]]", fillcolor="#efb387"] ;
281 -> 488 ;
943 [label="ang_vel0 <= -3.541\nsquared_error = 0.281\nsamples = 272\nvalue = [[0.064]\n[0.473]\n[-0.885]]", fillcolor="#eeaf81"] ;
488 -> 943 ;
1421 [label="squared_error = 0.114\nsamples = 48\nvalue = [[0.763]\n[0.845]\n[-0.891]]", fillcolor="#e99456"] ;
943 -> 1421 ;
