digraph Tree {
node [shape=box, style="filled", color="black", fontname="helvetica"] ;
edge [fontname="helvetica"] ;
0 [label="ang_vel3 <= -3.666\nsquared_error = 0.556\nsamples = 236543\nvalue = [[0.041]\n[0.094]\n[0.025]]", fillcolor="#f9e0ce"] ;
1 [label="ang1 <= -0.431\nsquared_error = 0.479\nsamples = 59095\nvalue = [[0.17]\n[-0.108]\n[-0.882]]", fillcolor="#f6d2b9"] ;
0 -> 1 [labeldistance=2.5, labelangle=45, headlabel="True"] ;
3 [label="vel_z <= 0.784\nsquared_error = 0.347\nsamples = 38461\nvalue = [[0.483]\n[-0.423]\n[-0.959]]", fillcolor="#f1bc96"] ;
1 -> 3 ;
9 [label="ang_vel0 <= -0.51\nsquared_error = 0.344\nsamples = 12658\nvalue = [[0.291]\n[0.12]\n[-0.953]]", fillcolor="#f1bb95"] ;
3 -> 9 ;
41 [label="ang_vel3 <= -9.523\nsquared_error = 0.29\nsamples = 7844\nvalue = [[0.5]\n[0.244]\n[-0.966]]", fillcolor="#efb286"] ;
9 -> 41 ;
67 [label="ang0 <= -0.011\nsquared_error = 0.355\nsamples = 2494\nvalue = [[0.425]\n[-0.223]\n[-0.955]]", fillcolor="#f1bd98"] ;
41 -> 67 ;
175 [label="ang_vel0 <= -2.697\nsquared_error = 0.29\nsamples = 2157\nvalue = [[0.564]\n[-0.23]\n[-0.956]]", fillcolor="#efb286"] ;
67 -> 175 ;
461 [label="vel_x <= 2.802\nsquared_error = 0.205\nsamples = 1197\nvalue = [[0.766]\n[-0.199]\n[-0.972]]", fillcolor="#eca470"] ;
175 -> 461 ;
505 [label="squared_error = 0.229\nsamples = 344\nvalue = [[0.695]\n[-0.656]\n[-0.958]]", fillcolor="#eda876"] ;
461 -> 505 ;
506 [label="vel_z <= -0.944\nsquared_error = 0.155\nsamples = 853\nvalue = [[0.795]\n[-0.015]\n[-0.977]]", fillcolor="#ea9b62"] ;
461 -> 506 ;
1205 [label="squared_error = 0.146\nsamples = 586\nvalue = [[0.725]\n[-0.152]\n[-0.975]]", fillcolor="#ea9a60"] ;
506 -> 1205 ;
1206 [label="squared_error = 0.12\nsamples = 267\nvalue = [[0.949]\n[0.286]\n[-0.982]]", fillcolor="#e99559"] ;
506 -> 1206 ;
462 [label="vel_z <= -1.831\nsquared_error = 0.357\nsamples = 960\nvalue = [[0.313]\n[-0.268]\n[-0.936]]", fillcolor="#f2be98"] ;
175 -> 462 ;
463 [label="ang0 <= -0.101\nsquared_error = 0.335\nsamples = 423\nvalue = [[-0.097]\n[-0.159]\n[-0.966]]", fillcolor="#f1ba93"] ;
462 -> 463 ;
833 [label="squared_error = 0.263\nsamples = 123\nvalue = [[0.507]\n[-0.15]\n[-0.956]]", fillcolor="#eeae7f"] ;
463 -> 833 ;
834 [label="squared_error = 0.294\nsamples = 300\nvalue = [[-0.345]\n[-0.163]\n[-0.97]]", fillcolor="#efb388"] ;
463 -> 834 ;
464 [label="ang1 <= -0.869\nsquared_error = 0.289\nsamples = 537\nvalue = [[0.636]\n[-0.353]\n[-0.912]]", fillcolor="#efb286"] ;
462 -> 464 ;
781 [label="squared_error = 0.431\nsamples = 129\nvalue = [[0.612]\n[0.277]\n[-0.846]]", fillcolor="#f4caac"] ;
464 -> 781 ;
782 [label="squared_error = 0.188\nsamples = 408\nvalue = [[0.643]\n[-0.553]\n[-0.934]]", fillcolor="#eca16b"] ;
464 -> 782 ;
176 [label="ang_vel1 <= -4.646\nsquared_error = 0.463\nsamples = 337\nvalue = [[-0.464]\n[-0.181]\n[-0.946]]", fillcolor="#f5d0b5"] ;
67 -> 176 ;
937 [label="squared_error = 0.373\nsamples = 79\nvalue = [[0.232]\n[-0.411]\n[-0.989]]", fillcolor="#f2c09d"] ;
176 -> 937 ;
938 [label="ang3 <= 0.37\nsquared_error = 0.419\nsamples = 258\nvalue = [[-0.677]\n[-0.11]\n[-0.933]]", fillcolor="#f4c8a9"] ;
176 -> 938 ;
1451 [label="vel_z <= -1.499\nsquared_error = 0.419\nsamples = 196\nvalue = [[-0.657]\n[-0.322]\n[-0.914]]", fillcolor="#f4c8a9"] ;
938 -> 1451 ;
1511 [label="ang0 <= 0.043\nsquared_error = 0.276\nsamples = 154\nvalue = [[-0.836]\n[-0.43]\n[-0.986]]", fillcolor="#efb083"] ;
1451 -> 1511 ;
1855 [label="squared_error = 0.199\nsamples = 118\nvalue = [[-0.83]\n[-0.67]\n[-0.982]]", fillcolor="#eca36e"] ;
1511 -> 1855 ;
1856 [label="squared_error = 0.258\nsamples = 36\nvalue = [[-0.858]\n[0.356]\n[-0.999]]", fillcolor="#eead7e"] ;
1511 -> 1856 ;
1512 [label="squared_error = 0.661\nsamples = 42\nvalue = [[-0.001]\n[0.078]\n[-0.647]]", fillcolor="#fcf1ea"] ;
1451 -> 1512 ;
1452 [label="squared_error = 0.221\nsamples = 62\nvalue = [[-0.741]\n[0.558]\n[-0.995]]", fillcolor="#eda674"] ;
938 -> 1452 ;
68 [label="ang1 <= -0.614\nsquared_error = 0.208\nsamples = 5350\nvalue = [[0.535]\n[0.461]\n[-0.971]]", fillcolor="#eca471"] ;
41 -> 68 ;
147 [label="vel_z <= -0.71\nsquared_error = 0.325\nsamples = 796\nvalue = [[0.653]\n[-0.164]\n[-0.931]]", fillcolor="#f0b890"] ;
68 -> 147 ;
453 [label="ang3 <= -0.142\nsquared_error = 0.388\nsamples = 203\nvalue = [[0.383]\n[0.42]\n[-0.855]]", fillcolor="#f3c3a1"] ;
147 -> 453 ;
1887 [label="squared_error = 0.461\nsamples = 49\nvalue = [[0.088]\n[-0.023]\n[-0.457]]", fillcolor="#f5cfb4"] ;
453 -> 1887 ;
1888 [label="squared_error = 0.303\nsamples = 154\nvalue = [[0.476]\n[0.561]\n[-0.982]]", fillcolor="#f0b48a"] ;
453 -> 1888 ;
454 [label="ang_vel3 <= -6.193\nsquared_error = 0.239\nsamples = 593\nvalue = [[0.745]\n[-0.364]\n[-0.957]]", fillcolor="#edaa79"] ;
147 -> 454 ;
765 [label="ang3 <= -0.724\nsquared_error = 0.162\nsamples = 380\nvalue = [[0.809]\n[-0.612]\n[-0.958]]", fillcolor="#eb9d64"] ;
454 -> 765 ;
1829 [label="squared_error = 0.621\nsamples = 6\nvalue = [[-0.327]\n[0.572]\n[0.499]]", fillcolor="#fbebdf"] ;
765 -> 1829 ;
1830 [label="squared_error = 0.129\nsamples = 374\nvalue = [[0.827]\n[-0.631]\n[-0.982]]", fillcolor="#ea975b"] ;
765 -> 1830 ;
766 [label="squared_error = 0.268\nsamples = 213\nvalue = [[0.631]\n[0.079]\n[-0.956]]", fillcolor="#eeaf81"] ;
454 -> 766 ;
148 [label="ang_vel1 <= -4.096\nsquared_error = 0.16\nsamples = 4554\nvalue = [[0.514]\n[0.57]\n[-0.978]]", fillcolor="#eb9c64"] ;
68 -> 148 ;
269 [label="ang_vel2 <= 1.406\nsquared_error = 0.116\nsamples = 3002\nvalue = [[0.663]\n[0.599]\n[-0.992]]", fillcolor="#e99558"] ;
148 -> 269 ;
469 [label="ang3 <= 0.08\nsquared_error = 0.092\nsamples = 2803\nvalue = [[0.666]\n[0.651]\n[-0.993]]", fillcolor="#e89152"] ;
269 -> 469 ;
811 [label="squared_error = 0.137\nsamples = 162\nvalue = [[0.704]\n[0.037]\n[-0.992]]", fillcolor="#ea985e"] ;
469 -> 811 ;
812 [label="ang_vel0 <= -2.382\nsquared_error = 0.081\nsamples = 2641\nvalue = [[0.663]\n[0.688]\n[-0.993]]", fillcolor="#e88f4f"] ;
469 -> 812 ;
1043 [label="squared_error = 0.066\nsamples = 1212\nvalue = [[0.807]\n[0.733]\n[-0.991]]", fillcolor="#e78c4b"] ;
812 -> 1043 ;
1044 [label="squared_error = 0.082\nsamples = 1429\nvalue = [[0.541]\n[0.65]\n[-0.995]]", fillcolor="#e88f4f"] ;
812 -> 1044 ;
470 [label="squared_error = 0.271\nsamples = 199\nvalue = [[0.629]\n[-0.124]\n[-0.982]]", fillcolor="#efaf81"] ;
269 -> 470 ;
270 [label="ang3 <= 0.078\nsquared_error = 0.202\nsamples = 1552\nvalue = [[0.226]\n[0.514]\n[-0.951]]", fillcolor="#eca36f"] ;
148 -> 270 ;
451 [label="squared_error = 0.213\nsamples = 141\nvalue = [[0.352]\n[-0.336]\n[-0.95]]", fillcolor="#eca572"] ;
270 -> 451 ;
452 [label="ang_vel1 <= -2.701\nsquared_error = 0.174\nsamples = 1411\nvalue = [[0.213]\n[0.599]\n[-0.951]]", fillcolor="#eb9f67"] ;
270 -> 452 ;
1191 [label="squared_error = 0.147\nsamples = 1224\nvalue = [[0.282]\n[0.598]\n[-0.96]]", fillcolor="#ea9a60"] ;
452 -> 1191 ;
1192 [label="squared_error = 0.271\nsamples = 187\nvalue = [[-0.238]\n[0.608]\n[-0.893]]", fillcolor="#efaf81"] ;
452 -> 1192 ;
42 [label="vel_z <= -1.706\nsquared_error = 0.348\nsamples = 4814\nvalue = [[-0.05]\n[-0.082]\n[-0.932]]", fillcolor="#f1bc96"] ;
9 -> 42 ;
103 [label="ang3 <= 0.154\nsquared_error = 0.428\nsamples = 939\nvalue = [[-0.198]\n[0.594]\n[-0.932]]", fillcolor="#f4caab"] ;
42 -> 103 ;
375 [label="ang_vel1 <= -3.348\nsquared_error = 0.596\nsamples = 103\nvalue = [[-0.144]\n[-0.424]\n[-0.547]]", fillcolor="#fae6d8"] ;
103 -> 375 ;
1605 [label="squared_error = 0.31\nsamples = 30\nvalue = [[0.654]\n[-0.602]\n[-0.89]]", fillcolor="#f0b68c"] ;
375 -> 1605 ;
1606 [label="squared_error = 0.561\nsamples = 73\nvalue = [[-0.472]\n[-0.35]\n[-0.406]]", fillcolor="#f9e0cf"] ;
375 -> 1606 ;
376 [label="ang2 <= -0.074\nsquared_error = 0.353\nsamples = 836\nvalue = [[-0.204]\n[0.719]\n[-0.98]]", fillcolor="#f1bd97"] ;
103 -> 376 ;
739 [label="z_coord <= 1.15\nsquared_error = 0.325\nsamples = 476\nvalue = [[0.045]\n[0.778]\n[-0.977]]", fillcolor="#f0b890"] ;
376 -> 739 ;
1143 [label="squared_error = 0.405\nsamples = 157\nvalue = [[-0.365]\n[0.605]\n[-0.941]]", fillcolor="#f3c6a5"] ;
739 -> 1143 ;
1144 [label="squared_error = 0.237\nsamples = 319\nvalue = [[0.247]\n[0.863]\n[-0.994]]", fillcolor="#eda978"] ;
739 -> 1144 ;
740 [label="ang_vel3 <= -7.905\nsquared_error = 0.323\nsamples = 360\nvalue = [[-0.534]\n[0.642]\n[-0.984]]", fillcolor="#f0b88f"] ;
376 -> 740 ;
1767 [label="squared_error = 0.233\nsamples = 276\nvalue = [[-0.642]\n[0.76]\n[-0.994]]", fillcolor="#eda977"] ;
740 -> 1767 ;
1768 [label="squared_error = 0.499\nsamples = 84\nvalue = [[-0.179]\n[0.255]\n[-0.953]]", fillcolor="#f7d6be"] ;
740 -> 1768 ;
104 [label="ang1 <= -0.674\nsquared_error = 0.281\nsamples = 3875\nvalue = [[-0.015]\n[-0.245]\n[-0.931]]", fillcolor="#efb184"] ;
42 -> 104 ;
249 [label="ang3 <= -0.344\nsquared_error = 0.322\nsamples = 1401\nvalue = [[0.229]\n[-0.442]\n[-0.902]]", fillcolor="#f0b88f"] ;
104 -> 249 ;
265 [label="ang_vel1 <= 0.747\nsquared_error = 0.642\nsamples = 160\nvalue = [[-0.582]\n[-0.271]\n[-0.215]]", fillcolor="#fceee5"] ;
249 -> 265 ;
817 [label="squared_error = 0.559\nsamples = 129\nvalue = [[-0.484]\n[-0.475]\n[-0.429]]", fillcolor="#f9e0ce"] ;
265 -> 817 ;
818 [label="squared_error = 0.294\nsamples = 31\nvalue = [[-0.989]\n[0.58]\n[0.676]]", fillcolor="#efb388"] ;
265 -> 818 ;
266 [label="vel_z <= 0.137\nsquared_error = 0.224\nsamples = 1241\nvalue = [[0.334]\n[-0.464]\n[-0.99]]", fillcolor="#eda775"] ;
249 -> 266 ;
521 [label="ang_vel1 <= -4.684\nsquared_error = 0.261\nsamples = 647\nvalue = [[0.2]\n[-0.227]\n[-0.985]]", fillcolor="#eead7f"] ;
266 -> 521 ;
1413 [label="squared_error = 0.105\nsamples = 92\nvalue = [[0.651]\n[-0.62]\n[-1.0]]", fillcolor="#e99355"] ;
521 -> 1413 ;
1414 [label="squared_error = 0.264\nsamples = 555\nvalue = [[0.126]\n[-0.162]\n[-0.982]]", fillcolor="#eeae7f"] ;
521 -> 1414 ;
522 [label="ang_vel0 <= 0.601\nsquared_error = 0.128\nsamples = 594\nvalue = [[0.479]\n[-0.721]\n[-0.997]]", fillcolor="#e9975b"] ;
266 -> 522 ;
1567 [label="squared_error = 0.088\nsamples = 472\nvalue = [[0.594]\n[-0.762]\n[-1.0]]", fillcolor="#e89050"] ;
522 -> 1567 ;
1568 [label="squared_error = 0.191\nsamples = 122\nvalue = [[0.034]\n[-0.566]\n[-0.984]]", fillcolor="#eca16c"] ;
522 -> 1568 ;
250 [label="ang_vel2 <= 7.166\nsquared_error = 0.228\nsamples = 2474\nvalue = [[-0.152]\n[-0.134]\n[-0.948]]", fillcolor="#eda876"] ;
104 -> 250 ;
303 [label="ang0 <= -0.111\nsquared_error = 0.225\nsamples = 1765\nvalue = [[-0.207]\n[0.026]\n[-0.943]]", fillcolor="#eda775"] ;
250 -> 303 ;
939 [label="vel_x <= 2.385\nsquared_error = 0.319\nsamples = 330\nvalue = [[-0.136]\n[0.379]\n[-0.856]]", fillcolor="#f0b78e"] ;
303 -> 939 ;
1267 [label="squared_error = 0.586\nsamples = 12\nvalue = [[0.628]\n[-0.331]\n[0.66]]", fillcolor="#fae5d6"] ;
939 -> 1267 ;
1268 [label="ang3 <= 0.065\nsquared_error = 0.265\nsamples = 318\nvalue = [[-0.165]\n[0.406]\n[-0.914]]", fillcolor="#eeae80"] ;
939 -> 1268 ;
1489 [label="squared_error = 0.299\nsamples = 26\nvalue = [[-0.146]\n[-0.713]\n[-0.798]]", fillcolor="#efb489"] ;
1268 -> 1489 ;
1490 [label="squared_error = 0.221\nsamples = 292\nvalue = [[-0.166]\n[0.505]\n[-0.924]]", fillcolor="#eda774"] ;
1268 -> 1490 ;
940 [label="ang_vel1 <= -4.297\nsquared_error = 0.191\nsamples = 1435\nvalue = [[-0.223]\n[-0.055]\n[-0.963]]", fillcolor="#eca16c"] ;
303 -> 940 ;
1195 [label="squared_error = 0.112\nsamples = 574\nvalue = [[-0.011]\n[-0.074]\n[-0.999]]", fillcolor="#e99457"] ;
940 -> 1195 ;
1196 [label="ang_vel2 <= -2.658\nsquared_error = 0.226\nsamples = 861\nvalue = [[-0.364]\n[-0.043]\n[-0.938]]", fillcolor="#eda775"] ;
940 -> 1196 ;
1367 [label="squared_error = 0.218\nsamples = 11\nvalue = [[-0.999]\n[0.98]\n[0.501]]", fillcolor="#eda673"] ;
1196 -> 1367 ;
1368 [label="vel_x <= 1.187\nsquared_error = 0.211\nsamples = 850\nvalue = [[-0.356]\n[-0.056]\n[-0.957]]", fillcolor="#eca571"] ;
1196 -> 1368 ;
1381 [label="squared_error = 0.215\nsamples = 8\nvalue = [[-0.044]\n[-0.999]\n[1.0]]", fillcolor="#eda672"] ;
1368 -> 1381 ;
1382 [label="ang3 <= 0.051\nsquared_error = 0.195\nsamples = 842\nvalue = [[-0.359]\n[-0.047]\n[-0.975]]", fillcolor="#eca26d"] ;
1368 -> 1382 ;
1595 [label="squared_error = 0.2\nsamples = 44\nvalue = [[-0.278]\n[-0.893]\n[-0.986]]", fillcolor="#eca36e"] ;
1382 -> 1595 ;
1596 [label="squared_error = 0.181\nsamples = 798\nvalue = [[-0.363]\n[-0.001]\n[-0.975]]", fillcolor="#eba069"] ;
1382 -> 1596 ;
304 [label="ang_vel0 <= 2.717\nsquared_error = 0.152\nsamples = 709\nvalue = [[-0.018]\n[-0.533]\n[-0.962]]", fillcolor="#ea9b62"] ;
250 -> 304 ;
973 [label="vel_x <= 2.693\nsquared_error = 0.126\nsamples = 560\nvalue = [[0.099]\n[-0.452]\n[-0.963]]", fillcolor="#e9965b"] ;
304 -> 973 ;
1611 [label="squared_error = 0.208\nsamples = 40\nvalue = [[0.738]\n[-0.949]\n[-0.623]]", fillcolor="#eca471"] ;
973 -> 1611 ;
1612 [label="squared_error = 0.099\nsamples = 520\nvalue = [[0.05]\n[-0.414]\n[-0.989]]", fillcolor="#e89253"] ;
973 -> 1612 ;
974 [label="squared_error = 0.128\nsamples = 149\nvalue = [[-0.456]\n[-0.836]\n[-0.956]]", fillcolor="#ea975b"] ;
304 -> 974 ;
10 [label="ang2 <= -0.289\nsquared_error = 0.268\nsamples = 25803\nvalue = [[0.578]\n[-0.689]\n[-0.962]]", fillcolor="#eeaf81"] ;
3 -> 10 ;
11 [label="ang2 <= -0.33\nsquared_error = 0.394\nsamples = 2630\nvalue = [[-0.475]\n[0.621]\n[-0.771]]", fillcolor="#f3c4a2"] ;
10 -> 11 ;
145 [label="vel_z <= 2.175\nsquared_error = 0.318\nsamples = 1935\nvalue = [[-0.574]\n[0.825]\n[-0.738]]", fillcolor="#f0b78e"] ;
11 -> 145 ;
161 [label="ang3 <= -0.809\nsquared_error = 0.523\nsamples = 410\nvalue = [[-0.144]\n[0.9]\n[-0.066]]", fillcolor="#f7dac5"] ;
145 -> 161 ;
507 [label="vel_x <= 2.273\nsquared_error = 0.397\nsamples = 231\nvalue = [[-0.196]\n[0.986]\n[0.362]]", fillcolor="#f3c5a3"] ;
161 -> 507 ;
565 [label="ang_vel1 <= 2.403\nsquared_error = 0.318\nsamples = 109\nvalue = [[0.251]\n[0.997]\n[-0.134]]", fillcolor="#f0b78e"] ;
507 -> 565 ;
1505 [label="squared_error = 0.178\nsamples = 63\nvalue = [[0.644]\n[0.995]\n[-0.422]]", fillcolor="#eb9f68"] ;
565 -> 1505 ;
1506 [label="squared_error = 0.253\nsamples = 46\nvalue = [[-0.287]\n[0.999]\n[0.261]]", fillcolor="#eeac7d"] ;
565 -> 1506 ;
566 [label="squared_error = 0.216\nsamples = 122\nvalue = [[-0.596]\n[0.977]\n[0.806]]", fillcolor="#eda673"] ;
507 -> 566 ;
508 [label="vel_z <= 1.733\nsquared_error = 0.494\nsamples = 179\nvalue = [[-0.077]\n[0.788]\n[-0.619]]", fillcolor="#f6d5bd"] ;
161 -> 508 ;
1341 [label="squared_error = 0.524\nsamples = 41\nvalue = [[-0.619]\n[0.91]\n[0.047]]", fillcolor="#f7dac5"] ;
508 -> 1341 ;
1342 [label="squared_error = 0.389\nsamples = 138\nvalue = [[0.084]\n[0.752]\n[-0.817]]", fillcolor="#f3c3a1"] ;
508 -> 1342 ;
162 [label="ang3 <= -0.461\nsquared_error = 0.19\nsamples = 1525\nvalue = [[-0.69]\n[0.804]\n[-0.919]]", fillcolor="#eca16c"] ;
145 -> 162 ;
545 [label="vel_x <= 1.562\nsquared_error = 0.136\nsamples = 1301\nvalue = [[-0.766]\n[0.875]\n[-0.919]]", fillcolor="#ea985d"] ;
162 -> 545 ;
1251 [label="squared_error = 0.167\nsamples = 21\nvalue = [[-0.922]\n[0.876]\n[0.486]]", fillcolor="#eb9d65"] ;
545 -> 1251 ;
1252 [label="vel_x <= 2.504\nsquared_error = 0.125\nsamples = 1280\nvalue = [[-0.764]\n[0.875]\n[-0.942]]", fillcolor="#e9965a"] ;
545 -> 1252 ;
1261 [label="ang_vel1 <= 2.538\nsquared_error = 0.098\nsamples = 1240\nvalue = [[-0.779]\n[0.903]\n[-0.949]]", fillcolor="#e89253"] ;
1252 -> 1261 ;
1461 [label="squared_error = 0.274\nsamples = 35\nvalue = [[0.091]\n[0.755]\n[-0.464]]", fillcolor="#efb082"] ;
1261 -> 1461 ;
1462 [label="squared_error = 0.082\nsamples = 1205\nvalue = [[-0.804]\n[0.907]\n[-0.963]]", fillcolor="#e88f4f"] ;
1261 -> 1462 ;
1262 [label="squared_error = 0.608\nsamples = 40\nvalue = [[-0.287]\n[0.001]\n[-0.749]]", fillcolor="#fae8db"] ;
1252 -> 1262 ;
546 [label="ang0 <= -0.051\nsquared_error = 0.358\nsamples = 224\nvalue = [[-0.247]\n[0.396]\n[-0.915]]", fillcolor="#f2be99"] ;
162 -> 546 ;
1019 [label="squared_error = 0.339\nsamples = 64\nvalue = [[0.306]\n[-0.117]\n[-0.999]]", fillcolor="#f1bb94"] ;
546 -> 1019 ;
1020 [label="squared_error = 0.258\nsamples = 160\nvalue = [[-0.468]\n[0.602]\n[-0.881]]", fillcolor="#eead7e"] ;
546 -> 1020 ;
146 [label="ang3 <= -0.561\nsquared_error = 0.421\nsamples = 695\nvalue = [[-0.198]\n[0.055]\n[-0.861]]", fillcolor="#f4c9a9"] ;
11 -> 146 ;
403 [label="ang_vel3 <= -7.675\nsquared_error = 0.403\nsamples = 212\nvalue = [[-0.636]\n[0.509]\n[-0.753]]", fillcolor="#f3c6a5"] ;
146 -> 403 ;
1077 [label="ang_vel0 <= -0.08\nsquared_error = 0.336\nsamples = 196\nvalue = [[-0.618]\n[0.479]\n[-0.886]]", fillcolor="#f1ba93"] ;
403 -> 1077 ;
1731 [label="squared_error = 0.572\nsamples = 29\nvalue = [[0.321]\n[0.324]\n[-0.792]]", fillcolor="#f9e2d2"] ;
1077 -> 1731 ;
1732 [label="squared_error = 0.233\nsamples = 167\nvalue = [[-0.781]\n[0.506]\n[-0.902]]", fillcolor="#eda977"] ;
1077 -> 1732 ;
1078 [label="squared_error = 0.207\nsamples = 16\nvalue = [[-0.86]\n[0.877]\n[0.875]]", fillcolor="#eca470"] ;
403 -> 1078 ;
404 [label="ang_vel0 <= 1.369\nsquared_error = 0.342\nsamples = 483\nvalue = [[-0.006]\n[-0.144]\n[-0.909]]", fillcolor="#f1bb94"] ;
146 -> 404 ;
791 [label="vel_x <= 2.227\nsquared_error = 0.362\nsamples = 346\nvalue = [[0.086]\n[0.071]\n[-0.89]]", fillcolor="#f2bf9a"] ;
404 -> 791 ;
875 [label="ang3 <= -0.394\nsquared_error = 0.321\nsamples = 283\nvalue = [[-0.038]\n[0.22]\n[-0.865]]", fillcolor="#f0b88f"] ;
791 -> 875 ;
1167 [label="squared_error = 0.278\nsamples = 173\nvalue = [[-0.279]\n[0.424]\n[-0.819]]", fillcolor="#efb083"] ;
875 -> 1167 ;
1168 [label="squared_error = 0.252\nsamples = 110\nvalue = [[0.342]\n[-0.102]\n[-0.938]]", fillcolor="#eeac7c"] ;
875 -> 1168 ;
876 [label="squared_error = 0.235\nsamples = 63\nvalue = [[0.642]\n[-0.596]\n[-1.0]]", fillcolor="#eda978"] ;
791 -> 876 ;
792 [label="squared_error = 0.129\nsamples = 137\nvalue = [[-0.239]\n[-0.686]\n[-0.958]]", fillcolor="#ea975b"] ;
404 -> 792 ;
12 [label="z_coord <= 1.167\nsquared_error = 0.133\nsamples = 23173\nvalue = [[0.697]\n[-0.838]\n[-0.984]]", fillcolor="#ea985d"] ;
10 -> 12 ;
71 [label="ang_vel2 <= -0.607\nsquared_error = 0.181\nsamples = 8446\nvalue = [[0.507]\n[-0.689]\n[-0.985]]", fillcolor="#eba069"] ;
12 -> 71 ;
129 [label="ang3 <= -0.609\nsquared_error = 0.168\nsamples = 5432\nvalue = [[0.495]\n[-0.853]\n[-0.983]]", fillcolor="#eb9e66"] ;
71 -> 129 ;
149 [label="squared_error = 0.531\nsamples = 67\nvalue = [[-0.633]\n[0.697]\n[0.286]]", fillcolor="#f8dbc7"] ;
129 -> 149 ;
150 [label="ang_vel0 <= -0.238\nsquared_error = 0.141\nsamples = 5365\nvalue = [[0.509]\n[-0.873]\n[-0.999]]", fillcolor="#ea995f"] ;
129 -> 150 ;
531 [label="ang_vel0 <= -2.738\nsquared_error = 0.135\nsamples = 2313\nvalue = [[0.661]\n[-0.842]\n[-0.999]]", fillcolor="#ea985d"] ;
150 -> 531 ;
597 [label="squared_error = 0.235\nsamples = 46\nvalue = [[0.997]\n[0.482]\n[-1.0]]", fillcolor="#eda978"] ;
531 -> 597 ;
598 [label="ang_vel2 <= -7.069\nsquared_error = 0.12\nsamples = 2267\nvalue = [[0.654]\n[-0.869]\n[-0.999]]", fillcolor="#e99559"] ;
531 -> 598 ;
951 [label="squared_error = 0.244\nsamples = 121\nvalue = [[0.69]\n[-0.214]\n[-1.0]]", fillcolor="#eeaa7a"] ;
598 -> 951 ;
952 [label="vel_x <= 2.336\nsquared_error = 0.104\nsamples = 2146\nvalue = [[0.652]\n[-0.906]\n[-0.999]]", fillcolor="#e99355"] ;
598 -> 952 ;
1441 [label="squared_error = 0.031\nsamples = 639\nvalue = [[0.848]\n[-0.956]\n[-1.0]]", fillcolor="#e68641"] ;
952 -> 1441 ;
1442 [label="ang0 <= -0.085\nsquared_error = 0.127\nsamples = 1507\nvalue = [[0.569]\n[-0.885]\n[-0.999]]", fillcolor="#e9975b"] ;
952 -> 1442 ;
1443 [label="squared_error = 0.079\nsamples = 827\nvalue = [[0.713]\n[-0.875]\n[-0.998]]", fillcolor="#e88e4e"] ;
1442 -> 1443 ;
1444 [label="ang1 <= -0.749\nsquared_error = 0.167\nsamples = 680\nvalue = [[0.395]\n[-0.897]\n[-1.0]]", fillcolor="#eb9d66"] ;
1442 -> 1444 ;
1747 [label="squared_error = 0.116\nsamples = 432\nvalue = [[0.554]\n[-0.924]\n[-1.0]]", fillcolor="#e99558"] ;
1444 -> 1747 ;
1748 [label="squared_error = 0.215\nsamples = 248\nvalue = [[0.117]\n[-0.851]\n[-1.0]]", fillcolor="#eda672"] ;
1444 -> 1748 ;
532 [label="ang0 <= -0.0\nsquared_error = 0.135\nsamples = 3052\nvalue = [[0.394]\n[-0.896]\n[-0.998]]", fillcolor="#ea985d"] ;
150 -> 532 ;
715 [label="vel_x <= 2.162\nsquared_error = 0.122\nsamples = 2692\nvalue = [[0.45]\n[-0.884]\n[-0.998]]", fillcolor="#e99659"] ;
532 -> 715 ;
955 [label="squared_error = 0.14\nsamples = 402\nvalue = [[0.726]\n[-0.688]\n[-0.997]]", fillcolor="#ea995e"] ;
715 -> 955 ;
956 [label="ang_vel0 <= 1.148\nsquared_error = 0.11\nsamples = 2290\nvalue = [[0.402]\n[-0.919]\n[-0.998]]", fillcolor="#e99456"] ;
715 -> 956 ;
1669 [label="ang_vel3 <= -5.46\nsquared_error = 0.104\nsamples = 2254\nvalue = [[0.417]\n[-0.92]\n[-0.999]]", fillcolor="#e99355"] ;
956 -> 1669 ;
1721 [label="squared_error = 0.092\nsamples = 2048\nvalue = [[0.427]\n[-0.956]\n[-0.999]]", fillcolor="#e89152"] ;
1669 -> 1721 ;
1722 [label="squared_error = 0.174\nsamples = 206\nvalue = [[0.321]\n[-0.561]\n[-0.99]]", fillcolor="#eb9f67"] ;
1669 -> 1722 ;
1670 [label="squared_error = 0.179\nsamples = 36\nvalue = [[-0.533]\n[-0.873]\n[-0.964]]", fillcolor="#eb9f69"] ;
956 -> 1670 ;
716 [label="vel_x <= 2.489\nsquared_error = 0.168\nsamples = 360\nvalue = [[-0.028]\n[-0.978]\n[-1.0]]", fillcolor="#eb9e66"] ;
532 -> 716 ;
1389 [label="squared_error = 0.15\nsamples = 296\nvalue = [[0.124]\n[-0.974]\n[-1.0]]", fillcolor="#ea9a61"] ;
716 -> 1389 ;
1390 [label="squared_error = 0.051\nsamples = 64\nvalue = [[-0.733]\n[-1.0]\n[-1.0]]", fillcolor="#e78a47"] ;
716 -> 1390 ;
130 [label="ang3 <= 0.039\nsquared_error = 0.16\nsamples = 3014\nvalue = [[0.529]\n[-0.392]\n[-0.988]]", fillcolor="#eb9c64"] ;
71 -> 130 ;
393 [label="squared_error = 0.081\nsamples = 720\nvalue = [[0.535]\n[-0.761]\n[-0.992]]", fillcolor="#e88f4f"] ;
130 -> 393 ;
394 [label="ang1 <= -0.664\nsquared_error = 0.166\nsamples = 2294\nvalue = [[0.527]\n[-0.277]\n[-0.987]]", fillcolor="#eb9d65"] ;
130 -> 394 ;
395 [label="squared_error = 0.07\nsamples = 457\nvalue = [[0.67]\n[-0.799]\n[-1.0]]", fillcolor="#e78d4c"] ;
394 -> 395 ;
396 [label="ang_vel3 <= -4.527\nsquared_error = 0.16\nsamples = 1837\nvalue = [[0.492]\n[-0.147]\n[-0.984]]", fillcolor="#eb9c64"] ;
394 -> 396 ;
663 [label="vel_z <= 1.137\nsquared_error = 0.141\nsamples = 1674\nvalue = [[0.528]\n[-0.201]\n[-0.984]]", fillcolor="#ea995f"] ;
396 -> 663 ;
867 [label="vel_x <= 3.231\nsquared_error = 0.15\nsamples = 993\nvalue = [[0.509]\n[-0.047]\n[-0.976]]", fillcolor="#ea9a61"] ;
663 -> 867 ;
909 [label="squared_error = 0.133\nsamples = 862\nvalue = [[0.537]\n[0.043]\n[-0.972]]", fillcolor="#ea985c"] ;
867 -> 909 ;
910 [label="squared_error = 0.117\nsamples = 131\nvalue = [[0.324]\n[-0.633]\n[-1.0]]", fillcolor="#e99558"] ;
867 -> 910 ;
868 [label="squared_error = 0.098\nsamples = 681\nvalue = [[0.556]\n[-0.426]\n[-0.995]]", fillcolor="#e89253"] ;
663 -> 868 ;
664 [label="squared_error = 0.191\nsamples = 163\nvalue = [[0.118]\n[0.411]\n[-0.987]]", fillcolor="#eca16c"] ;
396 -> 664 ;
72 [label="ang2 <= -0.224\nsquared_error = 0.088\nsamples = 14727\nvalue = [[0.807]\n[-0.923]\n[-0.983]]", fillcolor="#e89050"] ;
12 -> 72 ;
89 [label="vel_x <= 1.957\nsquared_error = 0.266\nsamples = 1506\nvalue = [[0.33]\n[-0.557]\n[-0.928]]", fillcolor="#eeae80"] ;
72 -> 89 ;
355 [label="ang_vel1 <= 7.197\nsquared_error = 0.336\nsamples = 299\nvalue = [[0.026]\n[-0.055]\n[-0.725]]", fillcolor="#f1ba93"] ;
89 -> 355 ;
793 [label="squared_error = 0.24\nsamples = 173\nvalue = [[0.36]\n[0.077]\n[-0.909]]", fillcolor="#edaa79"] ;
355 -> 793 ;
794 [label="vel_x <= 1.752\nsquared_error = 0.29\nsamples = 126\nvalue = [[-0.433]\n[-0.236]\n[-0.472]]", fillcolor="#efb286"] ;
355 -> 794 ;
1215 [label="squared_error = 0.193\nsamples = 43\nvalue = [[-0.656]\n[0.186]\n[0.196]]", fillcolor="#eca26d"] ;
794 -> 1215 ;
1216 [label="squared_error = 0.163\nsamples = 83\nvalue = [[-0.318]\n[-0.455]\n[-0.819]]", fillcolor="#eb9d65"] ;
794 -> 1216 ;
356 [label="ang3 <= -0.65\nsquared_error = 0.209\nsamples = 1207\nvalue = [[0.405]\n[-0.682]\n[-0.979]]", fillcolor="#eca571"] ;
89 -> 356 ;
427 [label="vel_z <= 1.873\nsquared_error = 0.531\nsamples = 118\nvalue = [[-0.316]\n[-0.093]\n[-0.784]]", fillcolor="#f8dbc7"] ;
356 -> 427 ;
1295 [label="squared_error = 0.371\nsamples = 11\nvalue = [[-0.482]\n[0.818]\n[0.817]]", fillcolor="#f2c09c"] ;
427 -> 1295 ;
1296 [label="squared_error = 0.419\nsamples = 107\nvalue = [[-0.299]\n[-0.186]\n[-0.949]]", fillcolor="#f4c8a9"] ;
427 -> 1296 ;
428 [label="ang_vel1 <= 7.29\nsquared_error = 0.138\nsamples = 1089\nvalue = [[0.483]\n[-0.746]\n[-1.0]]", fillcolor="#ea985e"] ;
356 -> 428 ;
611 [label="vel_x <= 2.167\nsquared_error = 0.146\nsamples = 674\nvalue = [[0.68]\n[-0.649]\n[-1.0]]", fillcolor="#ea9a60"] ;
428 -> 611 ;
985 [label="ang_vel0 <= 0.265\nsquared_error = 0.198\nsamples = 244\nvalue = [[0.572]\n[-0.293]\n[-1.0]]", fillcolor="#eca36e"] ;
611 -> 985 ;
1301 [label="squared_error = 0.206\nsamples = 89\nvalue = [[0.519]\n[0.247]\n[-1.0]]", fillcolor="#eca470"] ;
985 -> 1301 ;
1302 [label="squared_error = 0.104\nsamples = 155\nvalue = [[0.602]\n[-0.603]\n[-1.0]]", fillcolor="#e99355"] ;
985 -> 1302 ;
986 [label="squared_error = 0.076\nsamples = 430\nvalue = [[0.742]\n[-0.851]\n[-1.0]]", fillcolor="#e88e4d"] ;
611 -> 986 ;
612 [label="squared_error = 0.056\nsamples = 415\nvalue = [[0.163]\n[-0.903]\n[-1.0]]", fillcolor="#e78b48"] ;
428 -> 612 ;
90 [label="ang_vel1 <= 7.116\nsquared_error = 0.052\nsamples = 13221\nvalue = [[0.861]\n[-0.964]\n[-0.989]]", fillcolor="#e78a47"] ;
72 -> 90 ;
445 [label="ang3 <= -0.766\nsquared_error = 0.047\nsamples = 12973\nvalue = [[0.873]\n[-0.966]\n[-0.992]]", fillcolor="#e78946"] ;
90 -> 445 ;
559 [label="squared_error = 0.642\nsamples = 24\nvalue = [[-0.031]\n[-0.057]\n[0.497]]", fillcolor="#fceee5"] ;
445 -> 559 ;
560 [label="ang_vel0 <= -3.304\nsquared_error = 0.044\nsamples = 12949\nvalue = [[0.875]\n[-0.967]\n[-0.994]]", fillcolor="#e78845"] ;
445 -> 560 ;
627 [label="squared_error = 0.26\nsamples = 27\nvalue = [[1.0]\n[0.779]\n[-0.778]]", fillcolor="#eead7e"] ;
560 -> 627 ;
628 [label="vel_x <= 3.057\nsquared_error = 0.041\nsamples = 12922\nvalue = [[0.875]\n[-0.971]\n[-0.995]]", fillcolor="#e68844"] ;
560 -> 628 ;
677 [label="ang0 <= -0.077\nsquared_error = 0.034\nsamples = 11820\nvalue = [[0.899]\n[-0.974]\n[-0.995]]", fillcolor="#e68742"] ;
628 -> 677 ;
745 [label="ang_vel3 <= -5.973\nsquared_error = 0.024\nsamples = 11033\nvalue = [[0.915]\n[-0.986]\n[-0.997]]", fillcolor="#e6853f"] ;
677 -> 745 ;
1679 [label="squared_error = 0.021\nsamples = 10908\nvalue = [[0.92]\n[-0.989]\n[-0.997]]", fillcolor="#e6853f"] ;
745 -> 1679 ;
1680 [label="squared_error = 0.183\nsamples = 125\nvalue = [[0.484]\n[-0.728]\n[-0.997]]", fillcolor="#eba06a"] ;
745 -> 1680 ;
746 [label="ang_vel2 <= -7.274\nsquared_error = 0.151\nsamples = 787\nvalue = [[0.665]\n[-0.8]\n[-0.968]]", fillcolor="#ea9b61"] ;
677 -> 746 ;
1057 [label="squared_error = 0.13\nsamples = 152\nvalue = [[0.709]\n[-0.288]\n[-0.961]]", fillcolor="#ea975c"] ;
746 -> 1057 ;
1058 [label="vel_x <= 2.573\nsquared_error = 0.13\nsamples = 635\nvalue = [[0.654]\n[-0.923]\n[-0.97]]", fillcolor="#ea975c"] ;
746 -> 1058 ;
1535 [label="squared_error = 0.08\nsamples = 512\nvalue = [[0.768]\n[-0.916]\n[-0.971]]", fillcolor="#e88f4e"] ;
1058 -> 1535 ;
1536 [label="squared_error = 0.242\nsamples = 123\nvalue = [[0.178]\n[-0.951]\n[-0.967]]", fillcolor="#edaa7a"] ;
1058 -> 1536 ;
678 [label="ang_vel0 <= -0.35\nsquared_error = 0.092\nsamples = 1102\nvalue = [[0.62]\n[-0.941]\n[-0.994]]", fillcolor="#e89152"] ;
628 -> 678 ;
1707 [label="squared_error = 0.052\nsamples = 647\nvalue = [[0.758]\n[-0.908]\n[-0.999]]", fillcolor="#e78a47"] ;
678 -> 1707 ;
1708 [label="squared_error = 0.127\nsamples = 455\nvalue = [[0.424]\n[-0.987]\n[-0.989]]", fillcolor="#e9975b"] ;
678 -> 1708 ;
446 [label="vel_x <= 1.808\nsquared_error = 0.148\nsamples = 248\nvalue = [[0.202]\n[-0.906]\n[-0.854]]", fillcolor="#ea9a61"] ;
90 -> 446 ;
1095 [label="squared_error = 0.241\nsamples = 29\nvalue = [[-0.577]\n[-0.529]\n[-0.004]]", fillcolor="#edaa79"] ;
446 -> 1095 ;
1096 [label="squared_error = 0.063\nsamples = 219\nvalue = [[0.305]\n[-0.955]\n[-0.966]]", fillcolor="#e78c4a"] ;
446 -> 1096 ;
4 [label="ang_vel0 <= -3.028\nsquared_error = 0.363\nsamples = 20634\nvalue = [[-0.414]\n[0.478]\n[-0.738]]", fillcolor="#f2bf9a"] ;
1 -> 4 ;
17 [label="ang1 <= -0.332\nsquared_error = 0.187\nsamples = 5271\nvalue = [[0.109]\n[0.206]\n[-0.929]]", fillcolor="#eca16b"] ;
4 -> 17 ;
95 [label="ang_vel3 <= -9.992\nsquared_error = 0.152\nsamples = 2785\nvalue = [[0.416]\n[0.118]\n[-0.949]]", fillcolor="#ea9b62"] ;
17 -> 95 ;
273 [label="ang0 <= -0.067\nsquared_error = 0.105\nsamples = 1995\nvalue = [[0.444]\n[-0.049]\n[-0.953]]", fillcolor="#e99355"] ;
95 -> 273 ;
519 [label="vel_x <= 2.954\nsquared_error = 0.086\nsamples = 658\nvalue = [[0.762]\n[-0.024]\n[-0.913]]", fillcolor="#e89050"] ;
273 -> 519 ;
1403 [label="squared_error = 0.34\nsamples = 20\nvalue = [[0.872]\n[0.144]\n[0.437]]", fillcolor="#f1bb94"] ;
519 -> 1403 ;
1404 [label="squared_error = 0.058\nsamples = 638\nvalue = [[0.759]\n[-0.029]\n[-0.955]]", fillcolor="#e78b48"] ;
519 -> 1404 ;
520 [label="ang_vel0 <= -3.754\nsquared_error = 0.088\nsamples = 1337\nvalue = [[0.288]\n[-0.062]\n[-0.973]]", fillcolor="#e89051"] ;
273 -> 520 ;
569 [label="squared_error = 0.065\nsamples = 806\nvalue = [[0.498]\n[-0.099]\n[-0.973]]", fillcolor="#e78c4a"] ;
520 -> 569 ;
570 [label="squared_error = 0.067\nsamples = 531\nvalue = [[-0.03]\n[-0.007]\n[-0.972]]", fillcolor="#e78c4b"] ;
520 -> 570 ;
274 [label="ang_vel0 <= -3.836\nsquared_error = 0.187\nsamples = 790\nvalue = [[0.343]\n[0.541]\n[-0.938]]", fillcolor="#eca16b"] ;
95 -> 274 ;
1219 [label="squared_error = 0.117\nsamples = 208\nvalue = [[0.728]\n[0.625]\n[-0.955]]", fillcolor="#e99558"] ;
274 -> 1219 ;
1220 [label="ang3 <= 0.272\nsquared_error = 0.186\nsamples = 582\nvalue = [[0.205]\n[0.511]\n[-0.932]]", fillcolor="#eca16b"] ;
274 -> 1220 ;
1221 [label="squared_error = 0.092\nsamples = 130\nvalue = [[0.712]\n[0.697]\n[-0.937]]", fillcolor="#e89152"] ;
1220 -> 1221 ;
1222 [label="squared_error = 0.177\nsamples = 452\nvalue = [[0.059]\n[0.458]\n[-0.931]]", fillcolor="#eb9f68"] ;
1220 -> 1222 ;
96 [label="ang_vel3 <= -9.067\nsquared_error = 0.146\nsamples = 2486\nvalue = [[-0.234]\n[0.304]\n[-0.908]]", fillcolor="#ea9a60"] ;
17 -> 96 ;
329 [label="ang_vel0 <= -3.971\nsquared_error = 0.087\nsamples = 1419\nvalue = [[-0.248]\n[0.087]\n[-0.919]]", fillcolor="#e89050"] ;
96 -> 329 ;
579 [label="squared_error = 0.06\nsamples = 499\nvalue = [[0.093]\n[0.06]\n[-0.938]]", fillcolor="#e78b49"] ;
329 -> 579 ;
580 [label="ang0 <= -0.074\nsquared_error = 0.069\nsamples = 920\nvalue = [[-0.433]\n[0.102]\n[-0.909]]", fillcolor="#e78d4b"] ;
329 -> 580 ;
1865 [label="squared_error = 0.218\nsamples = 6\nvalue = [[0.918]\n[0.757]\n[0.683]]", fillcolor="#eda673"] ;
580 -> 1865 ;
1866 [label="squared_error = 0.057\nsamples = 914\nvalue = [[-0.441]\n[0.098]\n[-0.919]]", fillcolor="#e78b48"] ;
580 -> 1866 ;
330 [label="ang_vel0 <= -4.039\nsquared_error = 0.175\nsamples = 1067\nvalue = [[-0.216]\n[0.592]\n[-0.893]]", fillcolor="#eb9f68"] ;
96 -> 330 ;
661 [label="squared_error = 0.195\nsamples = 116\nvalue = [[0.535]\n[0.811]\n[-0.798]]", fillcolor="#eca26d"] ;
330 -> 661 ;
662 [label="vel_x <= 3.194\nsquared_error = 0.145\nsamples = 951\nvalue = [[-0.308]\n[0.565]\n[-0.904]]", fillcolor="#ea9a60"] ;
330 -> 662 ;
1291 [label="ang0 <= 0.007\nsquared_error = 0.252\nsamples = 393\nvalue = [[-0.102]\n[0.677]\n[-0.819]]", fillcolor="#eeac7c"] ;
662 -> 1291 ;
1293 [label="squared_error = 0.229\nsamples = 130\nvalue = [[0.398]\n[0.807]\n[-0.683]]", fillcolor="#eda876"] ;
1291 -> 1293 ;
1294 [label="ang_vel1 <= -4.329\nsquared_error = 0.193\nsamples = 263\nvalue = [[-0.349]\n[0.612]\n[-0.886]]", fillcolor="#eca26d"] ;
1291 -> 1294 ;
1813 [label="squared_error = 0.185\nsamples = 143\nvalue = [[-0.043]\n[0.612]\n[-0.911]]", fillcolor="#eba06a"] ;
1294 -> 1813 ;
1814 [label="squared_error = 0.122\nsamples = 120\nvalue = [[-0.714]\n[0.613]\n[-0.856]]", fillcolor="#e99659"] ;
1294 -> 1814 ;
1292 [label="squared_error = 0.044\nsamples = 558\nvalue = [[-0.453]\n[0.486]\n[-0.964]]", fillcolor="#e78945"] ;
662 -> 1292 ;
18 [label="vel_z <= 2.908\nsquared_error = 0.364\nsamples = 15363\nvalue = [[-0.593]\n[0.572]\n[-0.673]]", fillcolor="#f2bf9a"] ;
4 -> 18 ;
19 [label="ang3 <= -0.844\nsquared_error = 0.305\nsamples = 13707\nvalue = [[-0.623]\n[0.724]\n[-0.657]]", fillcolor="#f0b58a"] ;
18 -> 19 ;
27 [label="ang_vel2 <= -4.018\nsquared_error = 0.233\nsamples = 1479\nvalue = [[-0.525]\n[1.0]\n[0.449]]", fillcolor="#eda977"] ;
19 -> 27 ;
169 [label="ang_vel3 <= -6.829\nsquared_error = 0.149\nsamples = 1256\nvalue = [[-0.658]\n[1.0]\n[0.592]]", fillcolor="#ea9a61"] ;
27 -> 169 ;
291 [label="vel_x <= 2.041\nsquared_error = 0.232\nsamples = 339\nvalue = [[-0.801]\n[1.0]\n[-0.026]]", fillcolor="#eda877"] ;
169 -> 291 ;
935 [label="squared_error = 0.178\nsamples = 204\nvalue = [[-0.792]\n[1.0]\n[-0.356]]", fillcolor="#eb9f69"] ;
291 -> 935 ;
936 [label="squared_error = 0.176\nsamples = 135\nvalue = [[-0.814]\n[1.0]\n[0.473]]", fillcolor="#eb9f68"] ;
291 -> 936 ;
292 [label="ang_vel0 <= -0.191\nsquared_error = 0.051\nsamples = 917\nvalue = [[-0.605]\n[1.0]\n[0.82]]", fillcolor="#e78a47"] ;
169 -> 292 ;
1533 [label="squared_error = 0.047\nsamples = 433\nvalue = [[-0.437]\n[1.0]\n[0.701]]", fillcolor="#e78946"] ;
292 -> 1533 ;
1534 [label="squared_error = 0.03\nsamples = 484\nvalue = [[-0.755]\n[1.0]\n[0.927]]", fillcolor="#e68641"] ;
292 -> 1534 ;
170 [label="ang_vel1 <= 2.647\nsquared_error = 0.229\nsamples = 223\nvalue = [[0.222]\n[0.999]\n[-0.354]]", fillcolor="#eda876"] ;
27 -> 170 ;
1539 [label="squared_error = 0.17\nsamples = 152\nvalue = [[0.491]\n[0.999]\n[-0.364]]", fillcolor="#eb9e66"] ;
170 -> 1539 ;
1540 [label="squared_error = 0.194\nsamples = 71\nvalue = [[-0.355]\n[0.999]\n[-0.333]]", fillcolor="#eca26d"] ;
170 -> 1540 ;
28 [label="z_coord <= 1.201\nsquared_error = 0.255\nsamples = 12228\nvalue = [[-0.635]\n[0.69]\n[-0.79]]", fillcolor="#eeac7d"] ;
19 -> 28 ;
99 [label="ang0 <= -0.08\nsquared_error = 0.215\nsamples = 2612\nvalue = [[-0.579]\n[0.289]\n[-0.917]]", fillcolor="#eda572"] ;
28 -> 99 ;
279 [label="vel_x <= 2.956\nsquared_error = 0.312\nsamples = 196\nvalue = [[0.355]\n[0.035]\n[-0.822]]", fillcolor="#f0b68c"] ;
99 -> 279 ;
1889 [label="squared_error = 0.634\nsamples = 21\nvalue = [[0.178]\n[0.637]\n[0.082]]", fillcolor="#fbede2"] ;
279 -> 1889 ;
1890 [label="squared_error = 0.219\nsamples = 175\nvalue = [[0.376]\n[-0.037]\n[-0.931]]", fillcolor="#eda674"] ;
279 -> 1890 ;
280 [label="ang_vel2 <= 3.337\nsquared_error = 0.179\nsamples = 2416\nvalue = [[-0.655]\n[0.31]\n[-0.925]]", fillcolor="#eb9f69"] ;
99 -> 280 ;
497 [label="ang_vel3 <= -9.402\nsquared_error = 0.126\nsamples = 1868\nvalue = [[-0.703]\n[0.412]\n[-0.919]]", fillcolor="#e9965b"] ;
280 -> 497 ;
949 [label="vel_z <= 0.141\nsquared_error = 0.104\nsamples = 427\nvalue = [[-0.707]\n[0.099]\n[-0.882]]", fillcolor="#e99355"] ;
497 -> 949 ;
1663 [label="squared_error = 0.072\nsamples = 417\nvalue = [[-0.71]\n[0.077]\n[-0.919]]", fillcolor="#e88d4c"] ;
949 -> 1663 ;
1664 [label="squared_error = 0.389\nsamples = 10\nvalue = [[-0.6]\n[1.0]\n[0.64]]", fillcolor="#f3c3a1"] ;
949 -> 1664 ;
950 [label="ang_vel2 <= 1.525\nsquared_error = 0.12\nsamples = 1441\nvalue = [[-0.702]\n[0.505]\n[-0.929]]", fillcolor="#e99559"] ;
497 -> 950 ;
1639 [label="squared_error = 0.097\nsamples = 1054\nvalue = [[-0.65]\n[0.579]\n[-0.918]]", fillcolor="#e89253"] ;
950 -> 1639 ;
1640 [label="ang_vel1 <= -4.847\nsquared_error = 0.154\nsamples = 387\nvalue = [[-0.842]\n[0.302]\n[-0.96]]", fillcolor="#ea9b62"] ;
950 -> 1640 ;
1709 [label="squared_error = 0.066\nsamples = 249\nvalue = [[-0.809]\n[0.511]\n[-0.972]]", fillcolor="#e78c4b"] ;
1640 -> 1709 ;
1710 [label="squared_error = 0.237\nsamples = 138\nvalue = [[-0.902]\n[-0.075]\n[-0.938]]", fillcolor="#eda978"] ;
1640 -> 1710 ;
498 [label="ang0 <= 0.029\nsquared_error = 0.295\nsamples = 548\nvalue = [[-0.492]\n[-0.038]\n[-0.947]]", fillcolor="#efb388"] ;
280 -> 498 ;
1083 [label="ang_vel0 <= -1.163\nsquared_error = 0.343\nsamples = 294\nvalue = [[-0.217]\n[-0.041]\n[-0.914]]", fillcolor="#f1bb95"] ;
498 -> 1083 ;
1869 [label="squared_error = 0.314\nsamples = 195\nvalue = [[-0.006]\n[0.03]\n[-0.914]]", fillcolor="#f0b68d"] ;
1083 -> 1869 ;
1870 [label="squared_error = 0.305\nsamples = 99\nvalue = [[-0.633]\n[-0.181]\n[-0.915]]", fillcolor="#f0b58a"] ;
1083 -> 1870 ;
1084 [label="squared_error = 0.175\nsamples = 254\nvalue = [[-0.811]\n[-0.035]\n[-0.985]]", fillcolor="#eb9f68"] ;
498 -> 1084 ;
100 [label="ang3 <= -0.619\nsquared_error = 0.245\nsamples = 9616\nvalue = [[-0.651]\n[0.799]\n[-0.756]]", fillcolor="#eeab7a"] ;
28 -> 100 ;
151 [label="vel_x <= 1.551\nsquared_error = 0.111\nsamples = 3618\nvalue = [[-0.855]\n[0.887]\n[-0.867]]", fillcolor="#e99457"] ;
100 -> 151 ;
383 [label="vel_x <= 1.309\nsquared_error = 0.277\nsamples = 526\nvalue = [[-0.752]\n[0.785]\n[-0.422]]", fillcolor="#efb083"] ;
151 -> 383 ;
1181 [label="squared_error = 0.227\nsamples = 48\nvalue = [[-0.821]\n[0.925]\n[0.489]]", fillcolor="#eda876"] ;
383 -> 1181 ;
1182 [label="ang2 <= -0.39\nsquared_error = 0.25\nsamples = 478\nvalue = [[-0.745]\n[0.771]\n[-0.513]]", fillcolor="#eeac7c"] ;
383 -> 1182 ;
1309 [label="ang_vel3 <= -7.622\nsquared_error = 0.197\nsamples = 366\nvalue = [[-0.72]\n[0.877]\n[-0.634]]", fillcolor="#eca36e"] ;
1182 -> 1309 ;
1771 [label="squared_error = 0.171\nsamples = 335\nvalue = [[-0.739]\n[0.866]\n[-0.718]]", fillcolor="#eb9e67"] ;
1309 -> 1771 ;
1772 [label="squared_error = 0.154\nsamples = 31\nvalue = [[-0.511]\n[0.998]\n[0.28]]", fillcolor="#ea9b62"] ;
1309 -> 1772 ;
1310 [label="squared_error = 0.301\nsamples = 112\nvalue = [[-0.826]\n[0.426]\n[-0.12]]", fillcolor="#f0b489"] ;
1182 -> 1310 ;
384 [label="ang_vel1 <= 2.862\nsquared_error = 0.068\nsamples = 3092\nvalue = [[-0.872]\n[0.905]\n[-0.942]]", fillcolor="#e78d4b"] ;
151 -> 384 ;
823 [label="squared_error = 0.309\nsamples = 65\nvalue = [[-0.078]\n[0.839]\n[-0.365]]", fillcolor="#f0b68c"] ;
384 -> 823 ;
824 [label="vel_z <= 2.831\nsquared_error = 0.056\nsamples = 3027\nvalue = [[-0.889]\n[0.906]\n[-0.955]]", fillcolor="#e78a48"] ;
384 -> 824 ;
1449 [label="squared_error = 0.043\nsamples = 2693\nvalue = [[-0.886]\n[0.945]\n[-0.958]]", fillcolor="#e68844"] ;
824 -> 1449 ;
1450 [label="squared_error = 0.123\nsamples = 334\nvalue = [[-0.917]\n[0.594]\n[-0.926]]", fillcolor="#e9965a"] ;
824 -> 1450 ;
152 [label="ang1 <= -0.252\nsquared_error = 0.306\nsamples = 5998\nvalue = [[-0.528]\n[0.746]\n[-0.689]]", fillcolor="#f0b58b"] ;
100 -> 152 ;
153 [label="vel_x <= 2.864\nsquared_error = 0.367\nsamples = 1423\nvalue = [[-0.375]\n[0.362]\n[-0.844]]", fillcolor="#f2bf9b"] ;
152 -> 153 ;
345 [label="ang2 <= -0.341\nsquared_error = 0.391\nsamples = 836\nvalue = [[-0.463]\n[0.119]\n[-0.769]]", fillcolor="#f3c3a1"] ;
153 -> 345 ;
513 [label="squared_error = 0.235\nsamples = 307\nvalue = [[-0.703]\n[0.507]\n[-0.813]]", fillcolor="#eda978"] ;
345 -> 513 ;
514 [label="ang3 <= -0.042\nsquared_error = 0.417\nsamples = 529\nvalue = [[-0.324]\n[-0.106]\n[-0.743]]", fillcolor="#f4c8a8"] ;
345 -> 514 ;
549 [label="ang_vel1 <= 6.765\nsquared_error = 0.393\nsamples = 263\nvalue = [[-0.247]\n[-0.497]\n[-0.592]]", fillcolor="#f3c4a2"] ;
514 -> 549 ;
921 [label="ang2 <= -0.004\nsquared_error = 0.399\nsamples = 98\nvalue = [[0.335]\n[-0.656]\n[-0.596]]", fillcolor="#f3c5a4"] ;
549 -> 921 ;
1421 [label="squared_error = 0.237\nsamples = 82\nvalue = [[0.285]\n[-0.672]\n[-0.866]]", fillcolor="#eda978"] ;
921 -> 1421 ;
1422 [label="squared_error = 0.44\nsamples = 16\nvalue = [[0.59]\n[-0.576]\n[0.785]]", fillcolor="#f4ccaf"] ;
921 -> 1422 ;
922 [label="vel_x <= 1.601\nsquared_error = 0.275\nsamples = 165\nvalue = [[-0.592]\n[-0.403]\n[-0.589]]", fillcolor="#efb082"] ;
549 -> 922 ;
1101 [label="squared_error = 0.164\nsamples = 46\nvalue = [[-0.801]\n[-0.154]\n[0.216]]", fillcolor="#eb9d65"] ;
922 -> 1101 ;
1102 [label="squared_error = 0.183\nsamples = 119\nvalue = [[-0.511]\n[-0.499]\n[-0.9]]", fillcolor="#eba06a"] ;
922 -> 1102 ;
550 [label="vel_z <= -2.234\nsquared_error = 0.322\nsamples = 266\nvalue = [[-0.4]\n[0.281]\n[-0.892]]", fillcolor="#f0b88f"] ;
514 -> 550 ;
1337 [label="squared_error = 0.263\nsamples = 218\nvalue = [[-0.539]\n[0.17]\n[-0.935]]", fillcolor="#eeae7f"] ;
550 -> 1337 ;
1338 [label="squared_error = 0.307\nsamples = 48\nvalue = [[0.227]\n[0.787]\n[-0.697]]", fillcolor="#f0b58b"] ;
550 -> 1338 ;
346 [label="ang2 <= -0.156\nsquared_error = 0.249\nsamples = 587\nvalue = [[-0.25]\n[0.709]\n[-0.952]]", fillcolor="#eeab7c"] ;
153 -> 346 ;
669 [label="squared_error = 0.198\nsamples = 158\nvalue = [[0.346]\n[0.839]\n[-0.954]]", fillcolor="#eca36e"] ;
346 -> 669 ;
670 [label="squared_error = 0.206\nsamples = 429\nvalue = [[-0.469]\n[0.661]\n[-0.951]]", fillcolor="#eca470"] ;
346 -> 670 ;
154 [label="ang_vel1 <= -4.23\nsquared_error = 0.26\nsamples = 4575\nvalue = [[-0.575]\n[0.866]\n[-0.641]]", fillcolor="#eead7f"] ;
152 -> 154 ;
215 [label="z_coord <= 1.226\nsquared_error = 0.228\nsamples = 2484\nvalue = [[-0.425]\n[0.817]\n[-0.787]]", fillcolor="#eda876"] ;
154 -> 215 ;
257 [label="ang_vel3 <= -6.587\nsquared_error = 0.179\nsamples = 2048\nvalue = [[-0.548]\n[0.783]\n[-0.831]]", fillcolor="#eb9f69"] ;
215 -> 257 ;
547 [label="vel_x <= 3.087\nsquared_error = 0.112\nsamples = 969\nvalue = [[-0.708]\n[0.621]\n[-0.823]]", fillcolor="#e99457"] ;
257 -> 547 ;
857 [label="squared_error = 0.326\nsamples = 20\nvalue = [[0.529]\n[0.976]\n[0.335]]", fillcolor="#f0b890"] ;
547 -> 857 ;
858 [label="squared_error = 0.086\nsamples = 949\nvalue = [[-0.734]\n[0.614]\n[-0.848]]", fillcolor="#e89050"] ;
547 -> 858 ;
548 [label="ang_vel0 <= -1.711\nsquared_error = 0.21\nsamples = 1079\nvalue = [[-0.405]\n[0.928]\n[-0.837]]", fillcolor="#eca571"] ;
257 -> 548 ;
689 [label="vel_z <= -1.387\nsquared_error = 0.213\nsamples = 496\nvalue = [[-0.117]\n[0.969]\n[-0.841]]", fillcolor="#eca572"] ;
548 -> 689 ;
1741 [label="squared_error = 0.167\nsamples = 156\nvalue = [[-0.485]\n[0.981]\n[-0.849]]", fillcolor="#eb9d65"] ;
689 -> 1741 ;
1742 [label="vel_x <= 3.555\nsquared_error = 0.204\nsamples = 340\nvalue = [[0.052]\n[0.963]\n[-0.837]]", fillcolor="#eca470"] ;
689 -> 1742 ;
1743 [label="squared_error = 0.211\nsamples = 152\nvalue = [[0.371]\n[0.963]\n[-0.703]]", fillcolor="#eca571"] ;
1742 -> 1743 ;
1744 [label="squared_error = 0.14\nsamples = 188\nvalue = [[-0.206]\n[0.963]\n[-0.946]]", fillcolor="#ea995e"] ;
1742 -> 1744 ;
690 [label="squared_error = 0.162\nsamples = 583\nvalue = [[-0.65]\n[0.894]\n[-0.834]]", fillcolor="#eb9d64"] ;
548 -> 690 ;
258 [label="vel_x <= 3.837\nsquared_error = 0.293\nsamples = 436\nvalue = [[0.153]\n[0.978]\n[-0.581]]", fillcolor="#efb387"] ;
215 -> 258 ;
991 [label="ang_vel1 <= -4.763\nsquared_error = 0.287\nsamples = 353\nvalue = [[0.313]\n[0.973]\n[-0.528]]", fillcolor="#efb286"] ;
258 -> 991 ;
1805 [label="squared_error = 0.199\nsamples = 150\nvalue = [[0.637]\n[0.962]\n[-0.621]]", fillcolor="#eca36e"] ;
991 -> 1805 ;
1806 [label="squared_error = 0.303\nsamples = 203\nvalue = [[0.074]\n[0.981]\n[-0.459]]", fillcolor="#f0b58a"] ;
991 -> 1806 ;
992 [label="squared_error = 0.109\nsamples = 83\nvalue = [[-0.528]\n[0.998]\n[-0.806]]", fillcolor="#e99456"] ;
258 -> 992 ;
216 [label="ang1 <= -0.076\nsquared_error = 0.26\nsamples = 2091\nvalue = [[-0.753]\n[0.924]\n[-0.468]]", fillcolor="#eead7e"] ;
154 -> 216 ;
365 [label="ang_vel2 <= 2.302\nsquared_error = 0.21\nsamples = 1515\nvalue = [[-0.807]\n[0.908]\n[-0.617]]", fillcolor="#eca571"] ;
216 -> 365 ;
1111 [label="ang0 <= -0.01\nsquared_error = 0.191\nsamples = 1408\nvalue = [[-0.813]\n[0.956]\n[-0.606]]", fillcolor="#eca16c"] ;
365 -> 1111 ;
1657 [label="squared_error = 0.654\nsamples = 21\nvalue = [[0.066]\n[0.365]\n[0.017]]", fillcolor="#fcf0e8"] ;
1111 -> 1657 ;
1658 [label="squared_error = 0.176\nsamples = 1387\nvalue = [[-0.826]\n[0.965]\n[-0.616]]", fillcolor="#eb9f68"] ;
1111 -> 1658 ;
1112 [label="squared_error = 0.307\nsamples = 107\nvalue = [[-0.728]\n[0.284]\n[-0.755]]", fillcolor="#f0b58b"] ;
365 -> 1112 ;
366 [label="vel_x <= 3.391\nsquared_error = 0.309\nsamples = 576\nvalue = [[-0.609]\n[0.963]\n[-0.076]]", fillcolor="#f0b68c"] ;
216 -> 366 ;
713 [label="ang_vel2 <= 3.367\nsquared_error = 0.397\nsamples = 149\nvalue = [[-0.318]\n[0.874]\n[0.456]]", fillcolor="#f3c5a3"] ;
366 -> 713 ;
1339 [label="squared_error = 0.32\nsamples = 140\nvalue = [[-0.365]\n[0.992]\n[0.422]]", fillcolor="#f0b78e"] ;
713 -> 1339 ;
1340 [label="squared_error = 0.125\nsamples = 9\nvalue = [[0.414]\n[-0.96]\n[0.99]]", fillcolor="#e9965a"] ;
713 -> 1340 ;
714 [label="ang0 <= 0.071\nsquared_error = 0.22\nsamples = 427\nvalue = [[-0.711]\n[0.995]\n[-0.262]]", fillcolor="#eda674"] ;
366 -> 714 ;
1447 [label="squared_error = 0.275\nsamples = 185\nvalue = [[-0.445]\n[0.991]\n[-0.055]]", fillcolor="#efb082"] ;
714 -> 1447 ;
1448 [label="squared_error = 0.126\nsamples = 242\nvalue = [[-0.914]\n[0.998]\n[-0.42]]", fillcolor="#e9965b"] ;
714 -> 1448 ;
20 [label="vel_x <= 1.776\nsquared_error = 0.23\nsamples = 1656\nvalue = [[-0.341]\n[-0.684]\n[-0.808]]", fillcolor="#eda876"] ;
18 -> 20 ;
177 [label="vel_x <= 1.603\nsquared_error = 0.231\nsamples = 291\nvalue = [[-0.741]\n[-0.254]\n[-0.08]]", fillcolor="#eda877"] ;
20 -> 177 ;
1091 [label="squared_error = 0.191\nsamples = 84\nvalue = [[-0.84]\n[0.116]\n[0.435]]", fillcolor="#eca26c"] ;
177 -> 1091 ;
1092 [label="squared_error = 0.169\nsamples = 207\nvalue = [[-0.701]\n[-0.404]\n[-0.288]]", fillcolor="#eb9e66"] ;
177 -> 1092 ;
178 [label="ang3 <= -0.649\nsquared_error = 0.154\nsamples = 1365\nvalue = [[-0.255]\n[-0.775]\n[-0.963]]", fillcolor="#ea9b62"] ;
20 -> 178 ;
229 [label="vel_z <= 2.962\nsquared_error = 0.195\nsamples = 213\nvalue = [[-0.802]\n[0.017]\n[-0.976]]", fillcolor="#eca26d"] ;
178 -> 229 ;
1243 [label="squared_error = 0.107\nsamples = 130\nvalue = [[-0.893]\n[0.365]\n[-0.992]]", fillcolor="#e99356"] ;
229 -> 1243 ;
1244 [label="squared_error = 0.158\nsamples = 83\nvalue = [[-0.659]\n[-0.529]\n[-0.951]]", fillcolor="#eb9c63"] ;
229 -> 1244 ;
230 [label="ang_vel1 <= 7.505\nsquared_error = 0.079\nsamples = 1152\nvalue = [[-0.154]\n[-0.922]\n[-0.961]]", fillcolor="#e88e4e"] ;
178 -> 230 ;
655 [label="squared_error = 0.048\nsamples = 192\nvalue = [[0.435]\n[-0.982]\n[-0.991]]", fillcolor="#e78946"] ;
230 -> 655 ;
656 [label="vel_x <= 2.035\nsquared_error = 0.057\nsamples = 960\nvalue = [[-0.272]\n[-0.91]\n[-0.955]]", fillcolor="#e78b48"] ;
230 -> 656 ;
1425 [label="squared_error = 0.06\nsamples = 458\nvalue = [[-0.461]\n[-0.841]\n[-0.905]]", fillcolor="#e78b49"] ;
656 -> 1425 ;
1426 [label="squared_error = 0.029\nsamples = 502\nvalue = [[-0.099]\n[-0.972]\n[-1.0]]", fillcolor="#e68641"] ;
656 -> 1426 ;
2 [label="ang3 <= 0.788\nsquared_error = 0.452\nsamples = 177448\nvalue = [[-0.003]\n[0.162]\n[0.327]]", fillcolor="#f5ceb2"] ;
0 -> 2 [labeldistance=2.5, labelangle=-45, headlabel="False"] ;
5 [label="vel_z <= 1.589\nsquared_error = 0.476\nsamples = 116620\nvalue = [[-0.035]\n[0.141]\n[0.146]]", fillcolor="#f6d2b8"] ;
2 -> 5 ;
7 [label="ang_vel3 <= -0.1\nsquared_error = 0.482\nsamples = 94703\nvalue = [[0.021]\n[-0.001]\n[0.145]]", fillcolor="#f6d3ba"] ;
5 -> 7 ;
13 [label="ang1 <= -0.08\nsquared_error = 0.529\nsamples = 10468\nvalue = [[-0.238]\n[0.408]\n[-0.363]]", fillcolor="#f8dbc6"] ;
7 -> 13 ;
29 [label="ang_vel2 <= 0.948\nsquared_error = 0.459\nsamples = 6345\nvalue = [[-0.225]\n[0.247]\n[-0.658]]", fillcolor="#f5cfb4"] ;
13 -> 29 ;
69 [label="ang2 <= -0.244\nsquared_error = 0.335\nsamples = 2553\nvalue = [[-0.306]\n[0.668]\n[-0.627]]", fillcolor="#f1ba92"] ;
29 -> 69 ;
259 [label="ang3 <= -0.565\nsquared_error = 0.524\nsamples = 217\nvalue = [[-0.501]\n[0.722]\n[0.296]]", fillcolor="#f7dac5"] ;
69 -> 259 ;
727 [label="squared_error = 0.219\nsamples = 115\nvalue = [[-0.783]\n[0.863]\n[0.747]]", fillcolor="#eda673"] ;
259 -> 727 ;
728 [label="vel_x <= 1.282\nsquared_error = 0.627\nsamples = 102\nvalue = [[-0.183]\n[0.563]\n[-0.212]]", fillcolor="#fbebe0"] ;
259 -> 728 ;
747 [label="squared_error = 0.235\nsamples = 20\nvalue = [[0.817]\n[-0.14]\n[0.966]]", fillcolor="#eda978"] ;
728 -> 747 ;
748 [label="squared_error = 0.431\nsamples = 82\nvalue = [[-0.427]\n[0.734]\n[-0.499]]", fillcolor="#f4caac"] ;
728 -> 748 ;
260 [label="ang1 <= -0.202\nsquared_error = 0.287\nsamples = 2336\nvalue = [[-0.288]\n[0.663]\n[-0.712]]", fillcolor="#efb286"] ;
69 -> 260 ;
539 [label="ang_vel0 <= -3.665\nsquared_error = 0.322\nsamples = 966\nvalue = [[-0.174]\n[0.483]\n[-0.827]]", fillcolor="#f0b88f"] ;
260 -> 539 ;
829 [label="squared_error = 0.057\nsamples = 52\nvalue = [[0.836]\n[0.861]\n[-0.898]]", fillcolor="#e78b48"] ;
539 -> 829 ;
830 [label="ang1 <= -0.693\nsquared_error = 0.313\nsamples = 914\nvalue = [[-0.231]\n[0.462]\n[-0.823]]", fillcolor="#f0b68d"] ;
539 -> 830 ;
1245 [label="ang0 <= 0.012\nsquared_error = 0.406\nsamples = 259\nvalue = [[-0.043]\n[0.203]\n[-0.694]]", fillcolor="#f3c6a5"] ;
830 -> 1245 ;
1525 [label="squared_error = 0.352\nsamples = 208\nvalue = [[0.063]\n[0.35]\n[-0.708]]", fillcolor="#f1bd97"] ;
1245 -> 1525 ;
1526 [label="squared_error = 0.395\nsamples = 51\nvalue = [[-0.477]\n[-0.398]\n[-0.636]]", fillcolor="#f3c4a3"] ;
1245 -> 1526 ;
1246 [label="z_coord <= 1.274\nsquared_error = 0.255\nsamples = 655\nvalue = [[-0.305]\n[0.564]\n[-0.875]]", fillcolor="#eeac7d"] ;
830 -> 1246 ;
1687 [label="ang0 <= 0.004\nsquared_error = 0.23\nsamples = 456\nvalue = [[-0.447]\n[0.574]\n[-0.907]]", fillcolor="#eda876"] ;
1246 -> 1687 ;
1715 [label="ang_vel0 <= 0.007\nsquared_error = 0.288\nsamples = 178\nvalue = [[-0.16]\n[0.73]\n[-0.888]]", fillcolor="#efb286"] ;
1687 -> 1715 ;
1717 [label="squared_error = 0.2\nsamples = 101\nvalue = [[0.209]\n[0.709]\n[-0.915]]", fillcolor="#eca36f"] ;
1715 -> 1717 ;
1718 [label="squared_error = 0.265\nsamples = 77\nvalue = [[-0.644]\n[0.757]\n[-0.853]]", fillcolor="#eeae80"] ;
1715 -> 1718 ;
1716 [label="squared_error = 0.155\nsamples = 278\nvalue = [[-0.631]\n[0.474]\n[-0.919]]", fillcolor="#ea9b62"] ;
1687 -> 1716 ;
1688 [label="squared_error = 0.259\nsamples = 199\nvalue = [[0.019]\n[0.541]\n[-0.801]]", fillcolor="#eead7e"] ;
1246 -> 1688 ;
540 [label="ang_vel2 <= -0.238\nsquared_error = 0.239\nsamples = 1370\nvalue = [[-0.368]\n[0.79]\n[-0.631]]", fillcolor="#edaa79"] ;
260 -> 540 ;
647 [label="ang_vel0 <= -1.342\nsquared_error = 0.16\nsamples = 970\nvalue = [[-0.491]\n[0.844]\n[-0.712]]", fillcolor="#eb9c64"] ;
540 -> 647 ;
1433 [label="squared_error = 0.122\nsamples = 552\nvalue = [[-0.325]\n[0.815]\n[-0.74]]", fillcolor="#e9965a"] ;
647 -> 1433 ;
1434 [label="squared_error = 0.181\nsamples = 418\nvalue = [[-0.71]\n[0.883]\n[-0.675]]", fillcolor="#eba069"] ;
647 -> 1434 ;
648 [label="vel_x <= 2.446\nsquared_error = 0.362\nsamples = 400\nvalue = [[-0.071]\n[0.658]\n[-0.434]]", fillcolor="#f2bf9a"] ;
540 -> 648 ;
1247 [label="squared_error = 0.397\nsamples = 93\nvalue = [[-0.044]\n[0.318]\n[0.055]]", fillcolor="#f3c5a3"] ;
648 -> 1247 ;
1248 [label="z_coord <= 1.232\nsquared_error = 0.305\nsamples = 307\nvalue = [[-0.079]\n[0.761]\n[-0.582]]", fillcolor="#f0b58a"] ;
648 -> 1248 ;
1529 [label="squared_error = 0.158\nsamples = 57\nvalue = [[-0.694]\n[0.996]\n[-0.841]]", fillcolor="#eb9c63"] ;
1248 -> 1529 ;
1530 [label="squared_error = 0.291\nsamples = 250\nvalue = [[0.061]\n[0.707]\n[-0.523]]", fillcolor="#efb387"] ;
1248 -> 1530 ;
70 [label="ang_vel1 <= -4.301\nsquared_error = 0.473\nsamples = 3792\nvalue = [[-0.17]\n[-0.036]\n[-0.68]]", fillcolor="#f6d1b7"] ;
29 -> 70 ;
91 [label="ang_vel2 <= 7.973\nsquared_error = 0.48\nsamples = 981\nvalue = [[0.492]\n[0.112]\n[-0.686]]", fillcolor="#f6d3b9"] ;
70 -> 91 ;
223 [label="ang2 <= -0.418\nsquared_error = 0.438\nsamples = 711\nvalue = [[0.441]\n[0.413]\n[-0.672]]", fillcolor="#f4cbae"] ;
91 -> 223 ;
571 [label="z_coord <= 1.076\nsquared_error = 0.387\nsamples = 354\nvalue = [[0.489]\n[0.73]\n[-0.507]]", fillcolor="#f3c3a0"] ;
223 -> 571 ;
1177 [label="squared_error = 0.3\nsamples = 275\nvalue = [[0.51]\n[0.743]\n[-0.697]]", fillcolor="#f0b489"] ;
571 -> 1177 ;
1178 [label="squared_error = 0.497\nsamples = 79\nvalue = [[0.414]\n[0.684]\n[0.155]]", fillcolor="#f6d5be"] ;
571 -> 1178 ;
572 [label="ang_vel2 <= 7.291\nsquared_error = 0.402\nsamples = 357\nvalue = [[0.394]\n[0.099]\n[-0.836]]", fillcolor="#f3c5a4"] ;
223 -> 572 ;
1385 [label="squared_error = 0.427\nsamples = 238\nvalue = [[0.314]\n[0.317]\n[-0.813]]", fillcolor="#f4caab"] ;
572 -> 1385 ;
1386 [label="squared_error = 0.244\nsamples = 119\nvalue = [[0.553]\n[-0.338]\n[-0.882]]", fillcolor="#eeaa7a"] ;
572 -> 1386 ;
224 [label="vel_z <= -0.264\nsquared_error = 0.294\nsamples = 270\nvalue = [[0.625]\n[-0.681]\n[-0.723]]", fillcolor="#efb388"] ;
91 -> 224 ;
1543 [label="squared_error = 0.248\nsamples = 245\nvalue = [[0.603]\n[-0.664]\n[-0.834]]", fillcolor="#eeab7b"] ;
224 -> 1543 ;
1544 [label="squared_error = 0.28\nsamples = 25\nvalue = [[0.85]\n[-0.846]\n[0.364]]", fillcolor="#efb184"] ;
224 -> 1544 ;
92 [label="vel_z <= -2.355\nsquared_error = 0.398\nsamples = 2811\nvalue = [[-0.401]\n[-0.088]\n[-0.677]]", fillcolor="#f3c5a3"] ;
70 -> 92 ;
199 [label="ang1 <= -0.199\nsquared_error = 0.268\nsamples = 804\nvalue = [[-0.688]\n[-0.489]\n[-0.656]]", fillcolor="#eeae80"] ;
92 -> 199 ;
887 [label="squared_error = 0.21\nsamples = 454\nvalue = [[-0.65]\n[-0.583]\n[-0.869]]", fillcolor="#eca571"] ;
199 -> 887 ;
888 [label="z_coord <= 1.301\nsquared_error = 0.288\nsamples = 350\nvalue = [[-0.737]\n[-0.366]\n[-0.379]]", fillcolor="#efb286"] ;
199 -> 888 ;
1353 [label="squared_error = 0.245\nsamples = 210\nvalue = [[-0.851]\n[-0.563]\n[-0.535]]", fillcolor="#eeab7a"] ;
888 -> 1353 ;
1354 [label="squared_error = 0.257\nsamples = 140\nvalue = [[-0.566]\n[-0.072]\n[-0.145]]", fillcolor="#eead7e"] ;
888 -> 1354 ;
200 [label="ang_vel2 <= 7.349\nsquared_error = 0.405\nsamples = 2007\nvalue = [[-0.286]\n[0.072]\n[-0.686]]", fillcolor="#f3c6a5"] ;
92 -> 200 ;
323 [label="ang3 <= 0.177\nsquared_error = 0.389\nsamples = 1795\nvalue = [[-0.297]\n[0.168]\n[-0.667]]", fillcolor="#f3c3a1"] ;
200 -> 323 ;
471 [label="ang1 <= -0.744\nsquared_error = 0.47\nsamples = 151\nvalue = [[0.027]\n[-0.289]\n[-0.064]]", fillcolor="#f5d1b7"] ;
323 -> 471 ;
1027 [label="squared_error = 0.346\nsamples = 121\nvalue = [[0.157]\n[-0.274]\n[-0.324]]", fillcolor="#f1bc95"] ;
471 -> 1027 ;
1028 [label="squared_error = 0.401\nsamples = 30\nvalue = [[-0.499]\n[-0.348]\n[0.981]]", fillcolor="#f3c5a4"] ;
471 -> 1028 ;
472 [label="ang1 <= -0.23\nsquared_error = 0.359\nsamples = 1644\nvalue = [[-0.326]\n[0.21]\n[-0.723]]", fillcolor="#f2be99"] ;
323 -> 472 ;
603 [label="ang2 <= -0.189\nsquared_error = 0.339\nsamples = 1038\nvalue = [[-0.215]\n[0.213]\n[-0.858]]", fillcolor="#f1bb94"] ;
472 -> 603 ;
1029 [label="ang_vel2 <= 2.912\nsquared_error = 0.308\nsamples = 773\nvalue = [[-0.209]\n[0.342]\n[-0.876]]", fillcolor="#f0b58b"] ;
603 -> 1029 ;
1323 [label="squared_error = 0.247\nsamples = 209\nvalue = [[-0.366]\n[0.678]\n[-0.808]]", fillcolor="#eeab7b"] ;
1029 -> 1323 ;
1324 [label="vel_x <= 3.246\nsquared_error = 0.307\nsamples = 564\nvalue = [[-0.151]\n[0.218]\n[-0.902]]", fillcolor="#f0b58b"] ;
1029 -> 1324 ;
1491 [label="vel_x <= 2.179\nsquared_error = 0.272\nsamples = 419\nvalue = [[-0.123]\n[0.36]\n[-0.873]]", fillcolor="#efaf82"] ;
1324 -> 1491 ;
1493 [label="squared_error = 0.583\nsamples = 12\nvalue = [[-0.255]\n[-0.654]\n[0.502]]", fillcolor="#f9e4d5"] ;
1491 -> 1493 ;
1494 [label="squared_error = 0.233\nsamples = 407\nvalue = [[-0.119]\n[0.39]\n[-0.913]]", fillcolor="#eda977"] ;
1491 -> 1494 ;
1492 [label="squared_error = 0.327\nsamples = 145\nvalue = [[-0.232]\n[-0.195]\n[-0.985]]", fillcolor="#f0b990"] ;
1324 -> 1492 ;
1030 [label="z_coord <= 1.377\nsquared_error = 0.365\nsamples = 265\nvalue = [[-0.233]\n[-0.163]\n[-0.805]]", fillcolor="#f2bf9a"] ;
603 -> 1030 ;
1483 [label="squared_error = 0.311\nsamples = 246\nvalue = [[-0.284]\n[-0.171]\n[-0.894]]", fillcolor="#f0b68c"] ;
1030 -> 1483 ;
1484 [label="squared_error = 0.425\nsamples = 19\nvalue = [[0.424]\n[-0.053]\n[0.343]]", fillcolor="#f4c9ab"] ;
1030 -> 1484 ;
604 [label="z_coord <= 1.242\nsquared_error = 0.345\nsamples = 606\nvalue = [[-0.517]\n[0.203]\n[-0.49]]", fillcolor="#f1bc95"] ;
472 -> 604 ;
917 [label="squared_error = 0.305\nsamples = 305\nvalue = [[-0.692]\n[0.201]\n[-0.739]]", fillcolor="#f0b58a"] ;
604 -> 917 ;
918 [label="ang2 <= -0.135\nsquared_error = 0.323\nsamples = 301\nvalue = [[-0.339]\n[0.206]\n[-0.238]]", fillcolor="#f0b88f"] ;
604 -> 918 ;
1467 [label="squared_error = 0.263\nsamples = 215\nvalue = [[-0.421]\n[0.344]\n[-0.389]]", fillcolor="#eeae7f"] ;
918 -> 1467 ;
1468 [label="squared_error = 0.33\nsamples = 86\nvalue = [[-0.133]\n[-0.138]\n[0.138]]", fillcolor="#f1b991"] ;
918 -> 1468 ;
324 [label="ang_vel0 <= 2.841\nsquared_error = 0.282\nsamples = 212\nvalue = [[-0.199]\n[-0.733]\n[-0.844]]", fillcolor="#efb184"] ;
200 -> 324 ;
1603 [label="squared_error = 0.318\nsamples = 72\nvalue = [[0.332]\n[-0.64]\n[-0.718]]", fillcolor="#f0b78e"] ;
324 -> 1603 ;
1604 [label="squared_error = 0.185\nsamples = 140\nvalue = [[-0.471]\n[-0.782]\n[-0.908]]", fillcolor="#eba06a"] ;
324 -> 1604 ;
30 [label="vel_x <= 3.505\nsquared_error = 0.489\nsamples = 4123\nvalue = [[-0.259]\n[0.654]\n[0.092]]", fillcolor="#f6d4bc"] ;
13 -> 30 ;
65 [label="ang0 <= 0.076\nsquared_error = 0.497\nsamples = 3037\nvalue = [[-0.08]\n[0.534]\n[0.258]]", fillcolor="#f6d5be"] ;
30 -> 65 ;
93 [label="vel_x <= 3.032\nsquared_error = 0.49\nsamples = 2130\nvalue = [[0.081]\n[0.495]\n[0.498]]", fillcolor="#f6d4bc"] ;
65 -> 93 ;
171 [label="vel_z <= -2.468\nsquared_error = 0.494\nsamples = 1222\nvalue = [[0.218]\n[0.203]\n[0.428]]", fillcolor="#f6d5bd"] ;
93 -> 171 ;
221 [label="ang_vel1 <= -0.526\nsquared_error = 0.246\nsamples = 389\nvalue = [[-0.101]\n[0.606]\n[0.025]]", fillcolor="#eeab7b"] ;
171 -> 221 ;
1141 [label="squared_error = 0.264\nsamples = 231\nvalue = [[0.135]\n[0.448]\n[-0.018]]", fillcolor="#eeae80"] ;
221 -> 1141 ;
1142 [label="squared_error = 0.121\nsamples = 158\nvalue = [[-0.447]\n[0.835]\n[0.086]]", fillcolor="#e99659"] ;
221 -> 1142 ;
222 [label="ang_vel2 <= -1.482\nsquared_error = 0.512\nsamples = 833\nvalue = [[0.367]\n[0.014]\n[0.616]]", fillcolor="#f7d8c2"] ;
171 -> 222 ;
439 [label="ang3 <= 0.662\nsquared_error = 0.437\nsamples = 169\nvalue = [[0.588]\n[0.722]\n[0.627]]", fillcolor="#f4cbae"] ;
222 -> 439 ;
1711 [label="squared_error = 0.15\nsamples = 14\nvalue = [[0.999]\n[1.0]\n[-0.717]]", fillcolor="#ea9a61"] ;
439 -> 1711 ;
1712 [label="squared_error = 0.396\nsamples = 155\nvalue = [[0.551]\n[0.697]\n[0.748]]", fillcolor="#f3c4a3"] ;
439 -> 1712 ;
440 [label="ang2 <= -0.089\nsquared_error = 0.472\nsamples = 664\nvalue = [[0.31]\n[-0.166]\n[0.614]]", fillcolor="#f6d1b7"] ;
222 -> 440 ;
1073 [label="vel_z <= -1.651\nsquared_error = 0.492\nsamples = 119\nvalue = [[-0.039]\n[0.238]\n[0.382]]", fillcolor="#f6d5bd"] ;
440 -> 1073 ;
1189 [label="squared_error = 0.324\nsamples = 76\nvalue = [[-0.35]\n[0.38]\n[0.072]]", fillcolor="#f0b890"] ;
1073 -> 1189 ;
1190 [label="squared_error = 0.442\nsamples = 43\nvalue = [[0.511]\n[-0.014]\n[0.929]]", fillcolor="#f5ccaf"] ;
1073 -> 1190 ;
1074 [label="ang0 <= -0.092\nsquared_error = 0.438\nsamples = 545\nvalue = [[0.387]\n[-0.254]\n[0.664]]", fillcolor="#f4cbae"] ;
440 -> 1074 ;
1075 [label="squared_error = 0.469\nsamples = 19\nvalue = [[0.725]\n[0.786]\n[-0.573]]", fillcolor="#f5d1b6"] ;
1074 -> 1075 ;
1076 [label="ang3 <= 0.784\nsquared_error = 0.402\nsamples = 526\nvalue = [[0.374]\n[-0.291]\n[0.709]]", fillcolor="#f3c5a4"] ;
1074 -> 1076 ;
1129 [label="vel_x <= 2.902\nsquared_error = 0.408\nsamples = 421\nvalue = [[0.499]\n[-0.366]\n[0.742]]", fillcolor="#f3c6a6"] ;
1076 -> 1129 ;
1237 [label="squared_error = 0.327\nsamples = 278\nvalue = [[0.539]\n[-0.592]\n[0.769]]", fillcolor="#f0b890"] ;
1129 -> 1237 ;
1238 [label="ang0 <= 0.039\nsquared_error = 0.466\nsamples = 143\nvalue = [[0.422]\n[0.073]\n[0.688]]", fillcolor="#f5d0b5"] ;
1129 -> 1238 ;
1437 [label="squared_error = 0.235\nsamples = 56\nvalue = [[0.727]\n[-0.432]\n[0.929]]", fillcolor="#eda978"] ;
1238 -> 1437 ;
1438 [label="squared_error = 0.471\nsamples = 87\nvalue = [[0.226]\n[0.397]\n[0.533]]", fillcolor="#f6d1b7"] ;
1238 -> 1438 ;
1130 [label="squared_error = 0.229\nsamples = 105\nvalue = [[-0.127]\n[0.01]\n[0.578]]", fillcolor="#eda876"] ;
1076 -> 1130 ;
172 [label="ang0 <= 0.024\nsquared_error = 0.369\nsamples = 908\nvalue = [[-0.102]\n[0.888]\n[0.593]]", fillcolor="#f2c09c"] ;
93 -> 172 ;
305 [label="squared_error = 0.217\nsamples = 223\nvalue = [[0.594]\n[0.856]\n[0.908]]", fillcolor="#eda673"] ;
172 -> 305 ;
306 [label="ang_vel2 <= 1.139\nsquared_error = 0.335\nsamples = 685\nvalue = [[-0.329]\n[0.899]\n[0.49]]", fillcolor="#f1ba92"] ;
172 -> 306 ;
911 [label="ang_vel1 <= -1.04\nsquared_error = 0.29\nsamples = 641\nvalue = [[-0.314]\n[0.959]\n[0.533]]", fillcolor="#efb286"] ;
306 -> 911 ;
1069 [label="squared_error = 0.305\nsamples = 330\nvalue = [[-0.063]\n[0.964]\n[0.435]]", fillcolor="#f0b58b"] ;
911 -> 1069 ;
1070 [label="ang0 <= 0.044\nsquared_error = 0.22\nsamples = 311\nvalue = [[-0.579]\n[0.953]\n[0.638]]", fillcolor="#eda674"] ;
911 -> 1070 ;
1819 [label="squared_error = 0.196\nsamples = 132\nvalue = [[-0.293]\n[0.947]\n[0.854]]", fillcolor="#eca26d"] ;
1070 -> 1819 ;
1820 [label="squared_error = 0.183\nsamples = 179\nvalue = [[-0.79]\n[0.958]\n[0.478]]", fillcolor="#eba06a"] ;
1070 -> 1820 ;
912 [label="squared_error = 0.563\nsamples = 44\nvalue = [[-0.553]\n[0.027]\n[-0.144]]", fillcolor="#f9e1cf"] ;
306 -> 912 ;
94 [label="ang_vel2 <= 1.468\nsquared_error = 0.292\nsamples = 907\nvalue = [[-0.458]\n[0.626]\n[-0.305]]", fillcolor="#efb387"] ;
65 -> 94 ;
483 [label="ang_vel0 <= -1.297\nsquared_error = 0.241\nsamples = 737\nvalue = [[-0.423]\n[0.786]\n[-0.331]]", fillcolor="#edaa79"] ;
94 -> 483 ;
1209 [label="vel_z <= -2.719\nsquared_error = 0.201\nsamples = 270\nvalue = [[-0.105]\n[0.759]\n[-0.372]]", fillcolor="#eca36f"] ;
483 -> 1209 ;
1787 [label="squared_error = 0.07\nsamples = 115\nvalue = [[-0.388]\n[0.827]\n[-0.626]]", fillcolor="#e78d4c"] ;
1209 -> 1787 ;
1788 [label="squared_error = 0.234\nsamples = 155\nvalue = [[0.106]\n[0.708]\n[-0.183]]", fillcolor="#eda978"] ;
1209 -> 1788 ;
1210 [label="squared_error = 0.232\nsamples = 467\nvalue = [[-0.607]\n[0.802]\n[-0.307]]", fillcolor="#eda877"] ;
483 -> 1210 ;
484 [label="squared_error = 0.301\nsamples = 170\nvalue = [[-0.609]\n[-0.071]\n[-0.194]]", fillcolor="#f0b489"] ;
94 -> 484 ;
66 [label="ang0 <= 0.041\nsquared_error = 0.202\nsamples = 1086\nvalue = [[-0.762]\n[0.991]\n[-0.372]]", fillcolor="#eca36f"] ;
30 -> 66 ;
491 [label="vel_x <= 3.85\nsquared_error = 0.251\nsamples = 271\nvalue = [[-0.531]\n[0.992]\n[0.122]]", fillcolor="#eeac7c"] ;
66 -> 491 ;
1431 [label="squared_error = 0.234\nsamples = 209\nvalue = [[-0.425]\n[1.0]\n[0.294]]", fillcolor="#eda978"] ;
491 -> 1431 ;
1432 [label="squared_error = 0.106\nsamples = 62\nvalue = [[-0.889]\n[0.968]\n[-0.459]]", fillcolor="#e99355"] ;
491 -> 1432 ;
492 [label="ang0 <= 0.062\nsquared_error = 0.142\nsamples = 815\nvalue = [[-0.838]\n[0.991]\n[-0.536]]", fillcolor="#ea995f"] ;
66 -> 492 ;
1689 [label="squared_error = 0.179\nsamples = 364\nvalue = [[-0.723]\n[1.0]\n[-0.349]]", fillcolor="#eba069"] ;
492 -> 1689 ;
1690 [label="squared_error = 0.088\nsamples = 451\nvalue = [[-0.931]\n[0.984]\n[-0.687]]", fillcolor="#e89050"] ;
492 -> 1690 ;
14 [label="ang_vel2 <= -0.097\nsquared_error = 0.453\nsamples = 84235\nvalue = [[0.053]\n[-0.052]\n[0.209]]", fillcolor="#f5ceb2"] ;
7 -> 14 ;
21 [label="ang1 <= -0.673\nsquared_error = 0.473\nsamples = 38061\nvalue = [[0.006]\n[0.109]\n[0.113]]", fillcolor="#f6d1b7"] ;
14 -> 21 ;
35 [label="vel_z <= -0.771\nsquared_error = 0.364\nsamples = 1872\nvalue = [[-0.023]\n[0.212]\n[-0.781]]", fillcolor="#f2bf9a"] ;
21 -> 35 ;
285 [label="ang0 <= 0.068\nsquared_error = 0.327\nsamples = 1471\nvalue = [[0.082]\n[0.086]\n[-0.825]]", fillcolor="#f0b990"] ;
35 -> 285 ;
423 [label="ang_vel2 <= -1.777\nsquared_error = 0.282\nsamples = 1097\nvalue = [[0.174]\n[0.225]\n[-0.824]]", fillcolor="#efb184"] ;
285 -> 423 ;
609 [label="z_coord <= 1.291\nsquared_error = 0.27\nsamples = 253\nvalue = [[0.299]\n[0.719]\n[-0.839]]", fillcolor="#eeaf81"] ;
423 -> 609 ;
1883 [label="squared_error = 0.182\nsamples = 224\nvalue = [[0.328]\n[0.727]\n[-0.955]]", fillcolor="#eba06a"] ;
609 -> 1883 ;
1884 [label="squared_error = 0.625\nsamples = 29\nvalue = [[0.071]\n[0.651]\n[0.064]]", fillcolor="#fbebe0"] ;
609 -> 1884 ;
610 [label="ang_vel0 <= 4.148\nsquared_error = 0.252\nsamples = 844\nvalue = [[0.137]\n[0.077]\n[-0.82]]", fillcolor="#eeac7c"] ;
423 -> 610 ;
1031 [label="vel_z <= -2.079\nsquared_error = 0.235\nsamples = 811\nvalue = [[0.168]\n[0.115]\n[-0.816]]", fillcolor="#eda978"] ;
610 -> 1031 ;
1033 [label="squared_error = 0.192\nsamples = 253\nvalue = [[0.544]\n[0.111]\n[-0.958]]", fillcolor="#eca26c"] ;
1031 -> 1033 ;
1034 [label="ang0 <= -0.045\nsquared_error = 0.219\nsamples = 558\nvalue = [[-0.002]\n[0.116]\n[-0.751]]", fillcolor="#eda674"] ;
1031 -> 1034 ;
1139 [label="squared_error = 0.183\nsamples = 291\nvalue = [[0.274]\n[0.101]\n[-0.773]]", fillcolor="#eba06a"] ;
1034 -> 1139 ;
1140 [label="squared_error = 0.201\nsamples = 267\nvalue = [[-0.303]\n[0.133]\n[-0.727]]", fillcolor="#eca36f"] ;
1034 -> 1140 ;
1032 [label="squared_error = 0.136\nsamples = 33\nvalue = [[-0.636]\n[-0.864]\n[-0.925]]", fillcolor="#ea985d"] ;
610 -> 1032 ;
424 [label="ang_vel0 <= 2.42\nsquared_error = 0.352\nsamples = 374\nvalue = [[-0.189]\n[-0.319]\n[-0.826]]", fillcolor="#f1bd97"] ;
285 -> 424 ;
679 [label="vel_z <= -2.249\nsquared_error = 0.255\nsamples = 252\nvalue = [[0.028]\n[-0.121]\n[-0.951]]", fillcolor="#eeac7d"] ;
424 -> 679 ;
1783 [label="squared_error = 0.224\nsamples = 184\nvalue = [[0.214]\n[-0.21]\n[-0.99]]", fillcolor="#eda775"] ;
679 -> 1783 ;
1784 [label="squared_error = 0.191\nsamples = 68\nvalue = [[-0.476]\n[0.118]\n[-0.847]]", fillcolor="#eca16c"] ;
679 -> 1784 ;
680 [label="ang_vel0 <= 4.843\nsquared_error = 0.338\nsamples = 122\nvalue = [[-0.636]\n[-0.727]\n[-0.567]]", fillcolor="#f1ba93"] ;
424 -> 680 ;
1495 [label="squared_error = 0.262\nsamples = 107\nvalue = [[-0.585]\n[-0.688]\n[-0.759]]", fillcolor="#eeae7f"] ;
680 -> 1495 ;
1496 [label="squared_error = 0.084\nsamples = 15\nvalue = [[-1.0]\n[-1.0]\n[0.806]]", fillcolor="#e88f4f"] ;
680 -> 1496 ;
286 [label="ang0 <= -0.14\nsquared_error = 0.339\nsamples = 401\nvalue = [[-0.409]\n[0.671]\n[-0.62]]", fillcolor="#f1bb94"] ;
35 -> 286 ;
1369 [label="squared_error = 0.237\nsamples = 98\nvalue = [[0.106]\n[0.818]\n[-0.743]]", fillcolor="#eda978"] ;
286 -> 1369 ;
1370 [label="ang3 <= 0.112\nsquared_error = 0.329\nsamples = 303\nvalue = [[-0.576]\n[0.624]\n[-0.58]]", fillcolor="#f1b991"] ;
286 -> 1370 ;
1545 [label="squared_error = 0.264\nsamples = 274\nvalue = [[-0.645]\n[0.701]\n[-0.544]]", fillcolor="#eeae80"] ;
1370 -> 1545 ;
1546 [label="squared_error = 0.545\nsamples = 29\nvalue = [[0.081]\n[-0.106]\n[-0.923]]", fillcolor="#f8deca"] ;
1370 -> 1546 ;
36 [label="ang_vel3 <= 1.98\nsquared_error = 0.464\nsamples = 36189\nvalue = [[0.008]\n[0.103]\n[0.16]]", fillcolor="#f5d0b5"] ;
21 -> 36 ;
43 [label="vel_x <= 1.432\nsquared_error = 0.531\nsamples = 4703\nvalue = [[0.117]\n[0.047]\n[0.603]]", fillcolor="#f8dbc7"] ;
36 -> 43 ;
55 [label="ang_vel1 <= 1.142\nsquared_error = 0.492\nsamples = 3612\nvalue = [[0.195]\n[-0.159]\n[0.707]]", fillcolor="#f6d5bd"] ;
43 -> 55 ;
97 [label="ang0 <= 0.001\nsquared_error = 0.441\nsamples = 2876\nvalue = [[0.391]\n[-0.223]\n[0.703]]", fillcolor="#f4ccaf"] ;
55 -> 97 ;
173 [label="ang_vel2 <= -2.61\nsquared_error = 0.408\nsamples = 2544\nvalue = [[0.49]\n[-0.161]\n[0.687]]", fillcolor="#f3c6a6"] ;
97 -> 173 ;
267 [label="ang0 <= -0.161\nsquared_error = 0.384\nsamples = 819\nvalue = [[0.614]\n[0.171]\n[0.471]]", fillcolor="#f2c2a0"] ;
173 -> 267 ;
435 [label="ang1 <= -0.047\nsquared_error = 0.272\nsamples = 296\nvalue = [[0.836]\n[0.591]\n[0.309]]", fillcolor="#efaf82"] ;
267 -> 435 ;
1183 [label="ang_vel0 <= -0.647\nsquared_error = 0.241\nsamples = 193\nvalue = [[0.82]\n[0.475]\n[0.569]]", fillcolor="#edaa79"] ;
435 -> 1183 ;
1749 [label="squared_error = 0.099\nsamples = 102\nvalue = [[0.95]\n[0.829]\n[0.573]]", fillcolor="#e89253"] ;
1183 -> 1749 ;
1750 [label="squared_error = 0.289\nsamples = 91\nvalue = [[0.676]\n[0.077]\n[0.564]]", fillcolor="#efb286"] ;
1183 -> 1750 ;
1184 [label="squared_error = 0.183\nsamples = 103\nvalue = [[0.864]\n[0.81]\n[-0.177]]", fillcolor="#eba06a"] ;
435 -> 1184 ;
436 [label="vel_x <= 0.377\nsquared_error = 0.374\nsamples = 523\nvalue = [[0.489]\n[-0.067]\n[0.563]]", fillcolor="#f2c09d"] ;
267 -> 436 ;
573 [label="squared_error = 0.35\nsamples = 135\nvalue = [[0.07]\n[0.506]\n[0.556]]", fillcolor="#f1bd97"] ;
436 -> 573 ;
574 [label="ang1 <= -0.023\nsquared_error = 0.303\nsamples = 388\nvalue = [[0.635]\n[-0.267]\n[0.565]]", fillcolor="#f0b48a"] ;
436 -> 574 ;
1041 [label="squared_error = 0.223\nsamples = 263\nvalue = [[0.622]\n[-0.494]\n[0.667]]", fillcolor="#eda775"] ;
574 -> 1041 ;
1042 [label="squared_error = 0.335\nsamples = 125\nvalue = [[0.661]\n[0.212]\n[0.351]]", fillcolor="#f1ba93"] ;
574 -> 1042 ;
268 [label="vel_z <= -0.797\nsquared_error = 0.379\nsamples = 1725\nvalue = [[0.431]\n[-0.318]\n[0.789]]", fillcolor="#f2c19e"] ;
173 -> 268 ;
475 [label="squared_error = 0.293\nsamples = 127\nvalue = [[0.264]\n[0.549]\n[0.621]]", fillcolor="#efb387"] ;
268 -> 475 ;
476 [label="ang0 <= -0.18\nsquared_error = 0.362\nsamples = 1598\nvalue = [[0.444]\n[-0.387]\n[0.802]]", fillcolor="#f2bf9a"] ;
268 -> 476 ;
657 [label="ang_vel2 <= -1.675\nsquared_error = 0.357\nsamples = 175\nvalue = [[0.815]\n[0.112]\n[0.646]]", fillcolor="#f2be98"] ;
476 -> 657 ;
1615 [label="squared_error = 0.324\nsamples = 122\nvalue = [[0.792]\n[0.376]\n[0.536]]", fillcolor="#f0b890"] ;
657 -> 1615 ;
1616 [label="squared_error = 0.223\nsamples = 53\nvalue = [[0.87]\n[-0.496]\n[0.898]]", fillcolor="#eda774"] ;
657 -> 1616 ;
658 [label="vel_x <= 0.293\nsquared_error = 0.344\nsamples = 1423\nvalue = [[0.399]\n[-0.449]\n[0.822]]", fillcolor="#f1bb95"] ;
476 -> 658 ;
659 [label="vel_z <= 0.318\nsquared_error = 0.301\nsamples = 390\nvalue = [[0.494]\n[-0.059]\n[0.935]]", fillcolor="#f0b489"] ;
658 -> 659 ;
1831 [label="squared_error = 0.308\nsamples = 309\nvalue = [[0.369]\n[-0.123]\n[0.931]]", fillcolor="#f0b58b"] ;
659 -> 1831 ;
1832 [label="squared_error = 0.15\nsamples = 81\nvalue = [[0.971]\n[0.184]\n[0.953]]", fillcolor="#ea9b61"] ;
659 -> 1832 ;
660 [label="ang_vel0 <= -0.099\nsquared_error = 0.33\nsamples = 1033\nvalue = [[0.363]\n[-0.596]\n[0.779]]", fillcolor="#f1b991"] ;
658 -> 660 ;
1123 [label="ang0 <= -0.153\nsquared_error = 0.291\nsamples = 622\nvalue = [[0.536]\n[-0.581]\n[0.779]]", fillcolor="#efb387"] ;
660 -> 1123 ;
1801 [label="squared_error = 0.241\nsamples = 233\nvalue = [[0.775]\n[-0.43]\n[0.772]]", fillcolor="#edaa79"] ;
1123 -> 1801 ;
1802 [label="squared_error = 0.296\nsamples = 389\nvalue = [[0.393]\n[-0.671]\n[0.784]]", fillcolor="#efb388"] ;
1123 -> 1802 ;
1124 [label="vel_z <= 0.414\nsquared_error = 0.351\nsamples = 411\nvalue = [[0.101]\n[-0.618]\n[0.778]]", fillcolor="#f1bd97"] ;
660 -> 1124 ;
1125 [label="z_coord <= 1.223\nsquared_error = 0.311\nsamples = 377\nvalue = [[0.027]\n[-0.683]\n[0.805]]", fillcolor="#f0b68c"] ;
1124 -> 1125 ;
1127 [label="squared_error = 0.21\nsamples = 202\nvalue = [[0.342]\n[-0.779]\n[0.81]]", fillcolor="#eca571"] ;
1125 -> 1127 ;
1128 [label="squared_error = 0.338\nsamples = 175\nvalue = [[-0.337]\n[-0.574]\n[0.798]]", fillcolor="#f1ba93"] ;
1125 -> 1128 ;
1126 [label="squared_error = 0.323\nsamples = 34\nvalue = [[0.922]\n[0.106]\n[0.479]]", fillcolor="#f0b88f"] ;
1124 -> 1126 ;
174 [label="vel_z <= 0.236\nsquared_error = 0.383\nsamples = 332\nvalue = [[-0.37]\n[-0.702]\n[0.832]]", fillcolor="#f2c29f"] ;
97 -> 174 ;
871 [label="ang_vel2 <= -4.007\nsquared_error = 0.297\nsamples = 256\nvalue = [[-0.586]\n[-0.735]\n[0.903]]", fillcolor="#efb488"] ;
174 -> 871 ;
1225 [label="squared_error = 0.134\nsamples = 16\nvalue = [[-0.428]\n[0.86]\n[0.909]]", fillcolor="#ea985d"] ;
871 -> 1225 ;
1226 [label="squared_error = 0.247\nsamples = 240\nvalue = [[-0.597]\n[-0.841]\n[0.902]]", fillcolor="#eeab7b"] ;
871 -> 1226 ;
872 [label="vel_x <= 0.266\nsquared_error = 0.412\nsamples = 76\nvalue = [[0.358]\n[-0.591]\n[0.594]]", fillcolor="#f3c7a7"] ;
174 -> 872 ;
1699 [label="squared_error = 0.231\nsamples = 56\nvalue = [[0.475]\n[-0.587]\n[0.961]]", fillcolor="#eda877"] ;
872 -> 1699 ;
1700 [label="squared_error = 0.393\nsamples = 20\nvalue = [[0.029]\n[-0.601]\n[-0.433]]", fillcolor="#f3c4a2"] ;
872 -> 1700 ;
98 [label="vel_x <= 0.595\nsquared_error = 0.423\nsamples = 736\nvalue = [[-0.571]\n[0.091]\n[0.719]]", fillcolor="#f4c9aa"] ;
55 -> 98 ;
487 [label="ang0 <= 0.044\nsquared_error = 0.328\nsamples = 465\nvalue = [[-0.596]\n[0.346]\n[0.859]]", fillcolor="#f1b991"] ;
98 -> 487 ;
637 [label="vel_z <= 0.414\nsquared_error = 0.28\nsamples = 367\nvalue = [[-0.546]\n[0.558]\n[0.837]]", fillcolor="#efb184"] ;
487 -> 637 ;
1469 [label="squared_error = 0.245\nsamples = 342\nvalue = [[-0.627]\n[0.578]\n[0.85]]", fillcolor="#eeab7a"] ;
637 -> 1469 ;
1470 [label="squared_error = 0.28\nsamples = 25\nvalue = [[0.571]\n[0.286]\n[0.663]]", fillcolor="#efb184"] ;
637 -> 1470 ;
638 [label="squared_error = 0.225\nsamples = 98\nvalue = [[-0.784]\n[-0.447]\n[0.94]]", fillcolor="#eda775"] ;
487 -> 638 ;
488 [label="ang_vel2 <= -2.969\nsquared_error = 0.453\nsamples = 271\nvalue = [[-0.528]\n[-0.347]\n[0.478]]", fillcolor="#f5ceb2"] ;
98 -> 488 ;
633 [label="ang_vel1 <= 1.482\nsquared_error = 0.47\nsamples = 118\nvalue = [[-0.423]\n[0.155]\n[0.105]]", fillcolor="#f5d1b7"] ;
488 -> 633 ;
1671 [label="squared_error = 0.335\nsamples = 39\nvalue = [[0.217]\n[-0.031]\n[0.433]]", fillcolor="#f1ba93"] ;
633 -> 1671 ;
1672 [label="squared_error = 0.401\nsamples = 79\nvalue = [[-0.739]\n[0.246]\n[-0.056]]", fillcolor="#f3c5a4"] ;
633 -> 1672 ;
634 [label="squared_error = 0.256\nsamples = 153\nvalue = [[-0.609]\n[-0.734]\n[0.765]]", fillcolor="#eead7d"] ;
488 -> 634 ;
56 [label="ang_vel0 <= -0.364\nsquared_error = 0.376\nsamples = 1091\nvalue = [[-0.142]\n[0.729]\n[0.26]]", fillcolor="#f2c19d"] ;
43 -> 56 ;
333 [label="ang0 <= 0.07\nsquared_error = 0.242\nsamples = 678\nvalue = [[0.121]\n[0.839]\n[0.197]]", fillcolor="#eeaa7a"] ;
56 -> 333 ;
385 [label="z_coord <= 1.328\nsquared_error = 0.185\nsamples = 504\nvalue = [[0.312]\n[0.827]\n[0.374]]", fillcolor="#eca16b"] ;
333 -> 385 ;
1289 [label="squared_error = 0.236\nsamples = 254\nvalue = [[0.145]\n[0.883]\n[0.15]]", fillcolor="#eda978"] ;
385 -> 1289 ;
1290 [label="squared_error = 0.079\nsamples = 250\nvalue = [[0.482]\n[0.769]\n[0.601]]", fillcolor="#e88e4e"] ;
385 -> 1290 ;
386 [label="squared_error = 0.152\nsamples = 174\nvalue = [[-0.432]\n[0.875]\n[-0.315]]", fillcolor="#ea9b62"] ;
333 -> 386 ;
334 [label="ang_vel1 <= 0.526\nsquared_error = 0.472\nsamples = 413\nvalue = [[-0.575]\n[0.549]\n[0.363]]", fillcolor="#f6d1b7"] ;
56 -> 334 ;
1003 [label="vel_x <= 3.513\nsquared_error = 0.661\nsamples = 164\nvalue = [[-0.316]\n[0.228]\n[0.213]]", fillcolor="#fcf1e9"] ;
334 -> 1003 ;
1345 [label="ang_vel2 <= -1.994\nsquared_error = 0.598\nsamples = 117\nvalue = [[-0.205]\n[0.148]\n[0.494]]", fillcolor="#fae7d9"] ;
1003 -> 1345 ;
1377 [label="squared_error = 0.259\nsamples = 21\nvalue = [[0.658]\n[-0.669]\n[0.824]]", fillcolor="#eead7e"] ;
1345 -> 1377 ;
1378 [label="squared_error = 0.537\nsamples = 96\nvalue = [[-0.394]\n[0.326]\n[0.422]]", fillcolor="#f8dcc9"] ;
1345 -> 1378 ;
1346 [label="z_coord <= 1.252\nsquared_error = 0.533\nsamples = 47\nvalue = [[-0.592]\n[0.428]\n[-0.488]]", fillcolor="#f8dcc7"] ;
1003 -> 1346 ;
1811 [label="squared_error = 0.285\nsamples = 35\nvalue = [[-0.54]\n[0.795]\n[-0.769]]", fillcolor="#efb185"] ;
1346 -> 1811 ;
1812 [label="squared_error = 0.432\nsamples = 12\nvalue = [[-0.742]\n[-0.64]\n[0.333]]", fillcolor="#f4caac"] ;
1346 -> 1812 ;
1004 [label="squared_error = 0.277\nsamples = 249\nvalue = [[-0.745]\n[0.761]\n[0.461]]", fillcolor="#efb083"] ;
334 -> 1004 ;
44 [label="ang0 <= -0.043\nsquared_error = 0.442\nsamples = 31486\nvalue = [[-0.009]\n[0.112]\n[0.093]]", fillcolor="#f5ccaf"] ;
36 -> 44 ;
45 [label="vel_x <= 0.302\nsquared_error = 0.588\nsamples = 9791\nvalue = [[0.034]\n[0.211]\n[-0.156]]", fillcolor="#fae5d6"] ;
44 -> 45 ;
49 [label="ang_vel0 <= -3.112\nsquared_error = 0.501\nsamples = 2585\nvalue = [[0.013]\n[0.625]\n[0.18]]", fillcolor="#f7d6bf"] ;
45 -> 49 ;
245 [label="squared_error = 0.212\nsamples = 166\nvalue = [[0.781]\n[0.918]\n[-0.58]]", fillcolor="#eca571"] ;
49 -> 245 ;
246 [label="ang0 <= -0.113\nsquared_error = 0.49\nsamples = 2419\nvalue = [[-0.04]\n[0.605]\n[0.232]]", fillcolor="#f6d4bc"] ;
49 -> 246 ;
275 [label="ang_vel0 <= -1.318\nsquared_error = 0.522\nsamples = 1041\nvalue = [[0.247]\n[0.665]\n[0.077]]", fillcolor="#f7dac4"] ;
246 -> 275 ;
357 [label="ang_vel3 <= 5.852\nsquared_error = 0.341\nsamples = 465\nvalue = [[0.626]\n[0.801]\n[-0.02]]", fillcolor="#f1bb94"] ;
275 -> 357 ;
731 [label="ang0 <= -0.158\nsquared_error = 0.325\nsamples = 336\nvalue = [[0.521]\n[0.759]\n[0.199]]", fillcolor="#f0b890"] ;
357 -> 731 ;
1303 [label="squared_error = 0.192\nsamples = 110\nvalue = [[0.914]\n[0.936]\n[-0.06]]", fillcolor="#eca26c"] ;
731 -> 1303 ;
1304 [label="squared_error = 0.328\nsamples = 226\nvalue = [[0.33]\n[0.673]\n[0.325]]", fillcolor="#f1b991"] ;
731 -> 1304 ;
732 [label="squared_error = 0.191\nsamples = 129\nvalue = [[0.899]\n[0.911]\n[-0.591]]", fillcolor="#eca26c"] ;
357 -> 732 ;
358 [label="ang0 <= -0.171\nsquared_error = 0.585\nsamples = 576\nvalue = [[-0.058]\n[0.556]\n[0.155]]", fillcolor="#fae4d5"] ;
275 -> 358 ;
873 [label="squared_error = 0.543\nsamples = 218\nvalue = [[0.332]\n[0.583]\n[0.033]]", fillcolor="#f8ddca"] ;
358 -> 873 ;
874 [label="ang1 <= -0.148\nsquared_error = 0.555\nsamples = 358\nvalue = [[-0.296]\n[0.539]\n[0.23]]", fillcolor="#f8dfcd"] ;
358 -> 874 ;
903 [label="squared_error = 0.598\nsamples = 138\nvalue = [[-0.016]\n[0.205]\n[0.488]]", fillcolor="#fae7d9"] ;
874 -> 903 ;
904 [label="vel_z <= 0.235\nsquared_error = 0.441\nsamples = 220\nvalue = [[-0.472]\n[0.748]\n[0.068]]", fillcolor="#f4ccaf"] ;
874 -> 904 ;
1135 [label="squared_error = 0.366\nsamples = 161\nvalue = [[-0.549]\n[0.699]\n[0.332]]", fillcolor="#f2bf9b"] ;
904 -> 1135 ;
1136 [label="squared_error = 0.382\nsamples = 59\nvalue = [[-0.259]\n[0.883]\n[-0.652]]", fillcolor="#f2c29f"] ;
904 -> 1136 ;
276 [label="z_coord <= 1.244\nsquared_error = 0.417\nsamples = 1378\nvalue = [[-0.257]\n[0.56]\n[0.349]]", fillcolor="#f4c8a8"] ;
246 -> 276 ;
287 [label="ang_vel3 <= 3.058\nsquared_error = 0.417\nsamples = 853\nvalue = [[-0.035]\n[0.553]\n[0.156]]", fillcolor="#f4c8a8"] ;
276 -> 287 ;
651 [label="vel_z <= 0.245\nsquared_error = 0.372\nsamples = 300\nvalue = [[0.068]\n[0.484]\n[0.557]]", fillcolor="#f2c09c"] ;
287 -> 651 ;
767 [label="squared_error = 0.252\nsamples = 197\nvalue = [[-0.264]\n[0.451]\n[0.653]]", fillcolor="#eeac7c"] ;
651 -> 767 ;
768 [label="squared_error = 0.378\nsamples = 103\nvalue = [[0.705]\n[0.547]\n[0.372]]", fillcolor="#f2c19e"] ;
651 -> 768 ;
652 [label="ang_vel1 <= -0.737\nsquared_error = 0.393\nsamples = 553\nvalue = [[-0.091]\n[0.591]\n[-0.062]]", fillcolor="#f3c4a2"] ;
287 -> 652 ;
653 [label="ang3 <= 0.296\nsquared_error = 0.361\nsamples = 403\nvalue = [[0.03]\n[0.477]\n[0.111]]", fillcolor="#f2be99"] ;
652 -> 653 ;
1555 [label="squared_error = 0.289\nsamples = 259\nvalue = [[-0.112]\n[0.617]\n[0.198]]", fillcolor="#efb286"] ;
653 -> 1555 ;
1556 [label="squared_error = 0.41\nsamples = 144\nvalue = [[0.286]\n[0.225]\n[-0.047]]", fillcolor="#f3c7a7"] ;
653 -> 1556 ;
654 [label="squared_error = 0.289\nsamples = 150\nvalue = [[-0.415]\n[0.898]\n[-0.525]]", fillcolor="#efb286"] ;
652 -> 654 ;
288 [label="ang3 <= 0.367\nsquared_error = 0.293\nsamples = 525\nvalue = [[-0.618]\n[0.571]\n[0.664]]", fillcolor="#efb387"] ;
276 -> 288 ;
783 [label="squared_error = 0.156\nsamples = 382\nvalue = [[-0.715]\n[0.705]\n[0.809]]", fillcolor="#ea9c63"] ;
288 -> 783 ;
784 [label="ang_vel1 <= -0.989\nsquared_error = 0.499\nsamples = 143\nvalue = [[-0.36]\n[0.212]\n[0.276]]", fillcolor="#f6d6be"] ;
288 -> 784 ;
1161 [label="squared_error = 0.479\nsamples = 71\nvalue = [[0.105]\n[-0.112]\n[0.227]]", fillcolor="#f6d2b9"] ;
784 -> 1161 ;
1162 [label="squared_error = 0.308\nsamples = 72\nvalue = [[-0.818]\n[0.532]\n[0.325]]", fillcolor="#f0b58b"] ;
784 -> 1162 ;
50 [label="ang_vel2 <= -3.14\nsquared_error = 0.573\nsamples = 7206\nvalue = [[0.042]\n[0.063]\n[-0.277]]", fillcolor="#f9e2d2"] ;
45 -> 50 ;
109 [label="ang_vel1 <= 1.168\nsquared_error = 0.486\nsamples = 1358\nvalue = [[-0.058]\n[0.579]\n[-0.475]]", fillcolor="#f6d4bb"] ;
50 -> 109 ;
197 [label="z_coord <= 1.203\nsquared_error = 0.469\nsamples = 877\nvalue = [[0.253]\n[0.525]\n[-0.369]]", fillcolor="#f5d1b6"] ;
109 -> 197 ;
401 [label="ang2 <= -0.604\nsquared_error = 0.434\nsamples = 253\nvalue = [[0.725]\n[0.167]\n[-0.349]]", fillcolor="#f4cbad"] ;
197 -> 401 ;
1297 [label="squared_error = 0.235\nsamples = 77\nvalue = [[0.879]\n[0.63]\n[-0.718]]", fillcolor="#eda978"] ;
401 -> 1297 ;
1298 [label="squared_error = 0.443\nsamples = 176\nvalue = [[0.658]\n[-0.036]\n[-0.188]]", fillcolor="#f5ccaf"] ;
401 -> 1298 ;
402 [label="ang0 <= -0.149\nsquared_error = 0.417\nsamples = 624\nvalue = [[0.061]\n[0.67]\n[-0.377]]", fillcolor="#f4c8a8"] ;
197 -> 402 ;
805 [label="ang_vel0 <= -0.554\nsquared_error = 0.334\nsamples = 326\nvalue = [[0.335]\n[0.738]\n[-0.507]]", fillcolor="#f1ba92"] ;
402 -> 805 ;
1153 [label="squared_error = 0.265\nsamples = 160\nvalue = [[0.663]\n[0.813]\n[-0.325]]", fillcolor="#eeae80"] ;
805 -> 1153 ;
1154 [label="ang1 <= -0.28\nsquared_error = 0.309\nsamples = 166\nvalue = [[0.019]\n[0.666]\n[-0.683]]", fillcolor="#f0b58b"] ;
805 -> 1154 ;
1885 [label="squared_error = 0.162\nsamples = 11\nvalue = [[0.22]\n[0.218]\n[0.794]]", fillcolor="#eb9d64"] ;
1154 -> 1885 ;
1886 [label="squared_error = 0.258\nsamples = 155\nvalue = [[0.005]\n[0.698]\n[-0.787]]", fillcolor="#eead7e"] ;
1154 -> 1886 ;
806 [label="ang_vel0 <= -0.912\nsquared_error = 0.433\nsamples = 298\nvalue = [[-0.239]\n[0.596]\n[-0.235]]", fillcolor="#f4cbad"] ;
402 -> 806 ;
1015 [label="squared_error = 0.39\nsamples = 146\nvalue = [[0.119]\n[0.692]\n[-0.027]]", fillcolor="#f3c3a1"] ;
806 -> 1015 ;
1016 [label="squared_error = 0.362\nsamples = 152\nvalue = [[-0.583]\n[0.504]\n[-0.435]]", fillcolor="#f2bf9a"] ;
806 -> 1016 ;
198 [label="ang1 <= -0.254\nsquared_error = 0.327\nsamples = 481\nvalue = [[-0.625]\n[0.677]\n[-0.669]]", fillcolor="#f0b990"] ;
109 -> 198 ;
877 [label="squared_error = 0.417\nsamples = 78\nvalue = [[-0.561]\n[0.838]\n[0.107]]", fillcolor="#f4c8a8"] ;
198 -> 877 ;
878 [label="ang0 <= -0.119\nsquared_error = 0.261\nsamples = 403\nvalue = [[-0.638]\n[0.645]\n[-0.819]]", fillcolor="#eead7f"] ;
198 -> 878 ;
1873 [label="squared_error = 0.19\nsamples = 339\nvalue = [[-0.647]\n[0.752]\n[-0.863]]", fillcolor="#eca16c"] ;
878 -> 1873 ;
1874 [label="squared_error = 0.491\nsamples = 64\nvalue = [[-0.59]\n[0.079]\n[-0.585]]", fillcolor="#f6d4bc"] ;
878 -> 1874 ;
110 [label="vel_x <= 0.995\nsquared_error = 0.563\nsamples = 5848\nvalue = [[0.065]\n[-0.057]\n[-0.231]]", fillcolor="#f9e1cf"] ;
50 -> 110 ;
135 [label="ang_vel3 <= 2.662\nsquared_error = 0.581\nsamples = 3583\nvalue = [[0.008]\n[-0.237]\n[-0.32]]", fillcolor="#f9e4d4"] ;
110 -> 135 ;
137 [label="ang_vel1 <= 0.643\nsquared_error = 0.562\nsamples = 1371\nvalue = [[0.094]\n[-0.393]\n[0.117]]", fillcolor="#f9e0cf"] ;
135 -> 137 ;
277 [label="ang0 <= -0.113\nsquared_error = 0.503\nsamples = 949\nvalue = [[0.325]\n[-0.434]\n[0.216]]", fillcolor="#f7d6bf"] ;
137 -> 277 ;
553 [label="vel_x <= 0.457\nsquared_error = 0.451\nsamples = 690\nvalue = [[0.476]\n[-0.426]\n[0.334]]", fillcolor="#f5ceb2"] ;
277 -> 553 ;
695 [label="squared_error = 0.375\nsamples = 392\nvalue = [[0.475]\n[-0.294]\n[0.595]]", fillcolor="#f2c19d"] ;
553 -> 695 ;
696 [label="ang1 <= -0.04\nsquared_error = 0.465\nsamples = 298\nvalue = [[0.478]\n[-0.6]\n[-0.008]]", fillcolor="#f5d0b5"] ;
553 -> 696 ;
1119 [label="squared_error = 0.413\nsamples = 267\nvalue = [[0.479]\n[-0.711]\n[0.069]]", fillcolor="#f3c7a7"] ;
696 -> 1119 ;
1120 [label="squared_error = 0.407\nsamples = 31\nvalue = [[0.476]\n[0.358]\n[-0.679]]", fillcolor="#f3c6a6"] ;
696 -> 1120 ;
554 [label="ang_vel1 <= -0.463\nsquared_error = 0.519\nsamples = 259\nvalue = [[-0.076]\n[-0.457]\n[-0.1]]", fillcolor="#f7d9c4"] ;
277 -> 554 ;
1025 [label="vel_z <= 0.262\nsquared_error = 0.445\nsamples = 137\nvalue = [[0.313]\n[-0.598]\n[-0.026]]", fillcolor="#f5cdb0"] ;
554 -> 1025 ;
1847 [label="squared_error = 0.393\nsamples = 118\nvalue = [[0.257]\n[-0.715]\n[0.106]]", fillcolor="#f3c4a2"] ;
1025 -> 1847 ;
1848 [label="squared_error = 0.258\nsamples = 19\nvalue = [[0.661]\n[0.131]\n[-0.846]]", fillcolor="#eead7e"] ;
1025 -> 1848 ;
1026 [label="vel_z <= -0.296\nsquared_error = 0.462\nsamples = 122\nvalue = [[-0.513]\n[-0.298]\n[-0.183]]", fillcolor="#f5cfb4"] ;
554 -> 1026 ;
1841 [label="squared_error = 0.248\nsamples = 16\nvalue = [[0.407]\n[-0.875]\n[0.457]]", fillcolor="#eeab7b"] ;
1026 -> 1841 ;
1842 [label="squared_error = 0.402\nsamples = 106\nvalue = [[-0.652]\n[-0.211]\n[-0.279]]", fillcolor="#f3c5a4"] ;
1026 -> 1842 ;
278 [label="ang2 <= -0.236\nsquared_error = 0.537\nsamples = 422\nvalue = [[-0.426]\n[-0.3]\n[-0.106]]", fillcolor="#f8dcc8"] ;
137 -> 278 ;
619 [label="ang_vel0 <= 0.497\nsquared_error = 0.491\nsamples = 246\nvalue = [[-0.278]\n[-0.446]\n[-0.424]]", fillcolor="#f6d5bc"] ;
278 -> 619 ;
1459 [label="squared_error = 0.471\nsamples = 131\nvalue = [[0.066]\n[-0.359]\n[-0.493]]", fillcolor="#f6d1b7"] ;
619 -> 1459 ;
1460 [label="squared_error = 0.408\nsamples = 115\nvalue = [[-0.671]\n[-0.545]\n[-0.345]]", fillcolor="#f3c6a6"] ;
619 -> 1460 ;
620 [label="squared_error = 0.439\nsamples = 176\nvalue = [[-0.632]\n[-0.096]\n[0.338]]", fillcolor="#f4ccae"] ;
278 -> 620 ;
138 [label="ang_vel1 <= -0.457\nsquared_error = 0.518\nsamples = 2212\nvalue = [[-0.045]\n[-0.14]\n[-0.591]]", fillcolor="#f7d9c3"] ;
135 -> 138 ;
155 [label="vel_z <= 0.004\nsquared_error = 0.463\nsamples = 941\nvalue = [[0.392]\n[-0.263]\n[-0.504]]", fillcolor="#f5d0b5"] ;
138 -> 155 ;
373 [label="ang_vel0 <= -1.185\nsquared_error = 0.378\nsamples = 336\nvalue = [[0.634]\n[-0.55]\n[-0.152]]", fillcolor="#f2c19e"] ;
155 -> 373 ;
1333 [label="ang0 <= -0.159\nsquared_error = 0.391\nsamples = 182\nvalue = [[0.688]\n[-0.267]\n[-0.015]]", fillcolor="#f3c3a1"] ;
373 -> 1333 ;
1335 [label="squared_error = 0.244\nsamples = 30\nvalue = [[0.962]\n[0.853]\n[-0.258]]", fillcolor="#eeab7a"] ;
1333 -> 1335 ;
1336 [label="squared_error = 0.31\nsamples = 152\nvalue = [[0.634]\n[-0.488]\n[0.033]]", fillcolor="#f0b68c"] ;
1333 -> 1336 ;
1334 [label="squared_error = 0.276\nsamples = 154\nvalue = [[0.57]\n[-0.884]\n[-0.315]]", fillcolor="#efb083"] ;
373 -> 1334 ;
374 [label="ang_vel3 <= 3.16\nsquared_error = 0.435\nsamples = 605\nvalue = [[0.258]\n[-0.104]\n[-0.699]]", fillcolor="#f4cbad"] ;
155 -> 374 ;
913 [label="ang0 <= -0.152\nsquared_error = 0.439\nsamples = 196\nvalue = [[0.374]\n[-0.443]\n[-0.438]]", fillcolor="#f4ccae"] ;
374 -> 913 ;
1351 [label="squared_error = 0.38\nsamples = 70\nvalue = [[0.763]\n[-0.465]\n[0.025]]", fillcolor="#f2c29e"] ;
913 -> 1351 ;
1352 [label="squared_error = 0.367\nsamples = 126\nvalue = [[0.159]\n[-0.431]\n[-0.696]]", fillcolor="#f2bf9b"] ;
913 -> 1352 ;
914 [label="vel_x <= 0.465\nsquared_error = 0.386\nsamples = 409\nvalue = [[0.202]\n[0.059]\n[-0.824]]", fillcolor="#f3c3a0"] ;
374 -> 914 ;
915 [label="ang_vel1 <= -1.501\nsquared_error = 0.369\nsamples = 307\nvalue = [[0.178]\n[0.281]\n[-0.773]]", fillcolor="#f2c09c"] ;
914 -> 915 ;
1589 [label="squared_error = 0.36\nsamples = 126\nvalue = [[0.513]\n[0.157]\n[-0.601]]", fillcolor="#f2be99"] ;
915 -> 1589 ;
1590 [label="squared_error = 0.314\nsamples = 181\nvalue = [[-0.055]\n[0.367]\n[-0.893]]", fillcolor="#f0b68d"] ;
915 -> 1590 ;
916 [label="squared_error = 0.224\nsamples = 102\nvalue = [[0.275]\n[-0.611]\n[-0.975]]", fillcolor="#eda775"] ;
914 -> 916 ;
156 [label="vel_z <= -0.01\nsquared_error = 0.467\nsamples = 1271\nvalue = [[-0.368]\n[-0.048]\n[-0.656]]", fillcolor="#f5d0b6"] ;
138 -> 156 ;
353 [label="ang_vel2 <= -2.451\nsquared_error = 0.493\nsamples = 472\nvalue = [[-0.091]\n[-0.373]\n[-0.552]]", fillcolor="#f6d5bd"] ;
156 -> 353 ;
797 [label="vel_x <= 0.403\nsquared_error = 0.444\nsamples = 288\nvalue = [[0.011]\n[-0.118]\n[-0.674]]", fillcolor="#f5ccb0"] ;
353 -> 797 ;
1665 [label="squared_error = 0.438\nsamples = 65\nvalue = [[-0.118]\n[0.231]\n[-0.18]]", fillcolor="#f4cbae"] ;
797 -> 1665 ;
1666 [label="ang0 <= -0.163\nsquared_error = 0.398\nsamples = 223\nvalue = [[0.048]\n[-0.22]\n[-0.818]]", fillcolor="#f3c5a3"] ;
797 -> 1666 ;
1667 [label="squared_error = 0.37\nsamples = 90\nvalue = [[0.189]\n[0.23]\n[-0.838]]", fillcolor="#f2c09c"] ;
1666 -> 1667 ;
1668 [label="squared_error = 0.332\nsamples = 133\nvalue = [[-0.047]\n[-0.524]\n[-0.805]]", fillcolor="#f1b992"] ;
1666 -> 1668 ;
798 [label="vel_z <= -0.448\nsquared_error = 0.45\nsamples = 184\nvalue = [[-0.251]\n[-0.772]\n[-0.362]]", fillcolor="#f5ceb1"] ;
353 -> 798 ;
1681 [label="squared_error = 0.329\nsamples = 31\nvalue = [[-0.19]\n[-0.968]\n[0.541]]", fillcolor="#f1b991"] ;
798 -> 1681 ;
1682 [label="squared_error = 0.405\nsamples = 153\nvalue = [[-0.264]\n[-0.732]\n[-0.544]]", fillcolor="#f3c6a5"] ;
798 -> 1682 ;
354 [label="ang1 <= -0.159\nsquared_error = 0.391\nsamples = 799\nvalue = [[-0.531]\n[0.143]\n[-0.717]]", fillcolor="#f3c3a1"] ;
156 -> 354 ;
567 [label="ang_vel3 <= 2.962\nsquared_error = 0.456\nsamples = 373\nvalue = [[-0.326]\n[-0.093]\n[-0.534]]", fillcolor="#f5ceb3"] ;
354 -> 567 ;
995 [label="ang1 <= -0.22\nsquared_error = 0.511\nsamples = 131\nvalue = [[-0.196]\n[-0.289]\n[-0.081]]", fillcolor="#f7d8c2"] ;
567 -> 995 ;
1789 [label="squared_error = 0.452\nsamples = 60\nvalue = [[-0.028]\n[-0.317]\n[0.411]]", fillcolor="#f5ceb2"] ;
995 -> 1789 ;
1790 [label="squared_error = 0.421\nsamples = 71\nvalue = [[-0.338]\n[-0.265]\n[-0.497]]", fillcolor="#f4c9a9"] ;
995 -> 1790 ;
996 [label="squared_error = 0.353\nsamples = 242\nvalue = [[-0.397]\n[0.013]\n[-0.78]]", fillcolor="#f1bd97"] ;
567 -> 996 ;
568 [label="vel_z <= 0.329\nsquared_error = 0.262\nsamples = 426\nvalue = [[-0.711]\n[0.35]\n[-0.877]]", fillcolor="#eeae7f"] ;
354 -> 568 ;
1319 [label="squared_error = 0.246\nsamples = 283\nvalue = [[-0.833]\n[0.176]\n[-0.823]]", fillcolor="#eeab7b"] ;
568 -> 1319 ;
1320 [label="squared_error = 0.2\nsamples = 143\nvalue = [[-0.469]\n[0.696]\n[-0.985]]", fillcolor="#eca36e"] ;
568 -> 1320 ;
136 [label="ang_vel3 <= 6.619\nsquared_error = 0.475\nsamples = 2265\nvalue = [[0.154]\n[0.226]\n[-0.089]]", fillcolor="#f6d2b8"] ;
110 -> 136 ;
337 [label="ang_vel0 <= -0.248\nsquared_error = 0.548\nsamples = 945\nvalue = [[0.028]\n[0.404]\n[0.126]]", fillcolor="#f8decb"] ;
136 -> 337 ;
387 [label="ang3 <= -0.643\nsquared_error = 0.44\nsamples = 301\nvalue = [[0.479]\n[0.664]\n[-0.048]]", fillcolor="#f4ccae"] ;
337 -> 387 ;
1423 [label="squared_error = 0.415\nsamples = 173\nvalue = [[0.276]\n[0.686]\n[-0.274]]", fillcolor="#f4c8a8"] ;
387 -> 1423 ;
1424 [label="squared_error = 0.375\nsamples = 128\nvalue = [[0.753]\n[0.633]\n[0.258]]", fillcolor="#f2c19d"] ;
387 -> 1424 ;
388 [label="ang3 <= -0.377\nsquared_error = 0.53\nsamples = 644\nvalue = [[-0.183]\n[0.282]\n[0.207]]", fillcolor="#f8dbc7"] ;
337 -> 388 ;
801 [label="vel_x <= 3.206\nsquared_error = 0.517\nsamples = 368\nvalue = [[-0.457]\n[0.327]\n[0.2]]", fillcolor="#f7d9c3"] ;
388 -> 801 ;
803 [label="squared_error = 0.185\nsamples = 117\nvalue = [[-0.489]\n[0.946]\n[0.304]]", fillcolor="#eba06a"] ;
801 -> 803 ;
804 [label="ang0 <= -0.114\nsquared_error = 0.581\nsamples = 251\nvalue = [[-0.442]\n[0.038]\n[0.151]]", fillcolor="#f9e4d4"] ;
801 -> 804 ;
963 [label="squared_error = 0.535\nsamples = 101\nvalue = [[-0.09]\n[0.399]\n[-0.107]]", fillcolor="#f8dcc8"] ;
804 -> 963 ;
964 [label="ang2 <= -0.73\nsquared_error = 0.492\nsamples = 150\nvalue = [[-0.679]\n[-0.204]\n[0.325]]", fillcolor="#f6d5bc"] ;
804 -> 964 ;
1299 [label="squared_error = 0.269\nsamples = 28\nvalue = [[-0.806]\n[0.859]\n[0.086]]", fillcolor="#eeaf81"] ;
964 -> 1299 ;
1300 [label="squared_error = 0.43\nsamples = 122\nvalue = [[-0.65]\n[-0.448]\n[0.379]]", fillcolor="#f4caac"] ;
964 -> 1300 ;
802 [label="z_coord <= 1.392\nsquared_error = 0.468\nsamples = 276\nvalue = [[0.183]\n[0.223]\n[0.217]]", fillcolor="#f5d1b6"] ;
388 -> 802 ;
1729 [label="squared_error = 0.537\nsamples = 75\nvalue = [[0.371]\n[0.308]\n[-0.293]]", fillcolor="#f8dcc8"] ;
802 -> 1729 ;
1730 [label="ang_vel1 <= 0.664\nsquared_error = 0.391\nsamples = 201\nvalue = [[0.112]\n[0.191]\n[0.407]]", fillcolor="#f3c3a1"] ;
802 -> 1730 ;
1877 [label="squared_error = 0.429\nsamples = 78\nvalue = [[0.224]\n[-0.255]\n[0.522]]", fillcolor="#f4caac"] ;
1730 -> 1877 ;
1878 [label="squared_error = 0.289\nsamples = 123\nvalue = [[0.041]\n[0.474]\n[0.333]]", fillcolor="#efb286"] ;
1730 -> 1878 ;
338 [label="ang2 <= -0.691\nsquared_error = 0.384\nsamples = 1320\nvalue = [[0.244]\n[0.099]\n[-0.243]]", fillcolor="#f2c2a0"] ;
136 -> 338 ;
769 [label="squared_error = 0.197\nsamples = 62\nvalue = [[0.587]\n[0.86]\n[-0.851]]", fillcolor="#eca36e"] ;
338 -> 769 ;
770 [label="ang_vel0 <= -0.604\nsquared_error = 0.375\nsamples = 1258\nvalue = [[0.228]\n[0.062]\n[-0.213]]", fillcolor="#f2c19d"] ;
338 -> 770 ;
933 [label="ang2 <= -0.173\nsquared_error = 0.416\nsamples = 225\nvalue = [[0.528]\n[0.398]\n[-0.243]]", fillcolor="#f4c8a8"] ;
770 -> 933 ;
1509 [label="squared_error = 0.338\nsamples = 161\nvalue = [[0.551]\n[0.632]\n[-0.33]]", fillcolor="#f1ba93"] ;
933 -> 1509 ;
1510 [label="squared_error = 0.427\nsamples = 64\nvalue = [[0.472]\n[-0.189]\n[-0.024]]", fillcolor="#f4caab"] ;
933 -> 1510 ;
934 [label="vel_x <= 2.829\nsquared_error = 0.348\nsamples = 1033\nvalue = [[0.162]\n[-0.011]\n[-0.207]]", fillcolor="#f1bc96"] ;
770 -> 934 ;
1501 [label="ang_vel2 <= -1.207\nsquared_error = 0.292\nsamples = 388\nvalue = [[0.321]\n[0.159]\n[-0.153]]", fillcolor="#efb387"] ;
934 -> 1501 ;
1881 [label="squared_error = 0.29\nsamples = 41\nvalue = [[-0.056]\n[0.85]\n[-0.096]]", fillcolor="#efb287"] ;
1501 -> 1881 ;
1882 [label="squared_error = 0.264\nsamples = 347\nvalue = [[0.365]\n[0.078]\n[-0.16]]", fillcolor="#eeae80"] ;
1501 -> 1882 ;
1502 [label="ang0 <= -0.103\nsquared_error = 0.363\nsamples = 645\nvalue = [[0.067]\n[-0.114]\n[-0.239]]", fillcolor="#f2bf9a"] ;
934 -> 1502 ;
1519 [label="squared_error = 0.316\nsamples = 45\nvalue = [[0.489]\n[0.579]\n[-0.504]]", fillcolor="#f0b78d"] ;
1502 -> 1519 ;
1520 [label="ang1 <= -0.516\nsquared_error = 0.347\nsamples = 600\nvalue = [[0.035]\n[-0.166]\n[-0.22]]", fillcolor="#f1bc96"] ;
1502 -> 1520 ;
1521 [label="squared_error = 0.401\nsamples = 174\nvalue = [[-0.257]\n[-0.531]\n[-0.11]]", fillcolor="#f3c5a4"] ;
1520 -> 1521 ;
1522 [label="squared_error = 0.281\nsamples = 426\nvalue = [[0.154]\n[-0.017]\n[-0.265]]", fillcolor="#efb184"] ;
1520 -> 1522 ;
46 [label="z_coord <= 1.607\nsquared_error = 0.36\nsamples = 21695\nvalue = [[-0.028]\n[0.067]\n[0.206]]", fillcolor="#f2be99"] ;
44 -> 46 ;
47 [label="vel_z <= -0.035\nsquared_error = 0.455\nsamples = 7455\nvalue = [[-0.187]\n[0.096]\n[0.485]]", fillcolor="#f5ceb3"] ;
46 -> 47 ;
115 [label="ang3 <= 0.566\nsquared_error = 0.429\nsamples = 5000\nvalue = [[-0.197]\n[0.098]\n[0.664]]", fillcolor="#f4caac"] ;
47 -> 115 ;
131 [label="ang_vel3 <= 4.608\nsquared_error = 0.41\nsamples = 3520\nvalue = [[-0.31]\n[0.244]\n[0.687]]", fillcolor="#f3c7a6"] ;
115 -> 131 ;
157 [label="ang_vel0 <= -2.178\nsquared_error = 0.416\nsamples = 879\nvalue = [[-0.555]\n[-0.24]\n[0.743]]", fillcolor="#f4c8a8"] ;
131 -> 157 ;
247 [label="squared_error = 0.277\nsamples = 239\nvalue = [[0.073]\n[0.269]\n[0.656]]", fillcolor="#efb083"] ;
157 -> 247 ;
248 [label="ang2 <= -0.151\nsquared_error = 0.355\nsamples = 640\nvalue = [[-0.789]\n[-0.43]\n[0.775]]", fillcolor="#f1bd98"] ;
157 -> 248 ;
541 [label="squared_error = 0.566\nsamples = 89\nvalue = [[-0.655]\n[0.358]\n[0.231]]", fillcolor="#f9e1d0"] ;
248 -> 541 ;
542 [label="vel_x <= 0.142\nsquared_error = 0.263\nsamples = 551\nvalue = [[-0.81]\n[-0.557]\n[0.863]]", fillcolor="#eeae7f"] ;
248 -> 542 ;
1045 [label="ang_vel1 <= 0.726\nsquared_error = 0.207\nsamples = 495\nvalue = [[-0.904]\n[-0.552]\n[0.903]]", fillcolor="#eca470"] ;
542 -> 1045 ;
1131 [label="ang0 <= -0.018\nsquared_error = 0.174\nsamples = 456\nvalue = [[-0.9]\n[-0.642]\n[0.899]]", fillcolor="#eb9f68"] ;
1045 -> 1131 ;
1315 [label="squared_error = 0.214\nsamples = 97\nvalue = [[-0.776]\n[-0.08]\n[0.937]]", fillcolor="#eda572"] ;
1131 -> 1315 ;
1316 [label="squared_error = 0.125\nsamples = 359\nvalue = [[-0.933]\n[-0.794]\n[0.888]]", fillcolor="#e9965b"] ;
1131 -> 1316 ;
1132 [label="squared_error = 0.193\nsamples = 39\nvalue = [[-0.948]\n[0.499]\n[0.959]]", fillcolor="#eca26d"] ;
1045 -> 1132 ;
1046 [label="squared_error = 0.452\nsamples = 56\nvalue = [[0.015]\n[-0.606]\n[0.502]]", fillcolor="#f5ceb2"] ;
542 -> 1046 ;
158 [label="ang_vel0 <= -2.733\nsquared_error = 0.364\nsamples = 2641\nvalue = [[-0.229]\n[0.405]\n[0.668]]", fillcolor="#f2bf9a"] ;
131 -> 158 ;
399 [label="squared_error = 0.317\nsamples = 218\nvalue = [[0.328]\n[0.654]\n[0.268]]", fillcolor="#f0b78e"] ;
158 -> 399 ;
400 [label="ang2 <= -0.324\nsquared_error = 0.35\nsamples = 2423\nvalue = [[-0.279]\n[0.382]\n[0.704]]", fillcolor="#f1bd97"] ;
158 -> 400 ;
411 [label="ang2 <= -0.708\nsquared_error = 0.404\nsamples = 211\nvalue = [[-0.487]\n[0.585]\n[0.035]]", fillcolor="#f3c6a5"] ;
400 -> 411 ;
1649 [label="squared_error = 0.312\nsamples = 44\nvalue = [[-0.777]\n[0.822]\n[-0.63]]", fillcolor="#f0b68c"] ;
411 -> 1649 ;
1650 [label="squared_error = 0.364\nsamples = 167\nvalue = [[-0.411]\n[0.523]\n[0.21]]", fillcolor="#f2bf9a"] ;
411 -> 1650 ;
412 [label="ang1 <= -0.508\nsquared_error = 0.327\nsamples = 2212\nvalue = [[-0.259]\n[0.363]\n[0.768]]", fillcolor="#f0b990"] ;
400 -> 412 ;
499 [label="squared_error = 0.497\nsamples = 78\nvalue = [[-0.095]\n[-0.484]\n[0.028]]", fillcolor="#f6d5be"] ;
412 -> 499 ;
500 [label="ang3 <= 0.416\nsquared_error = 0.304\nsamples = 2134\nvalue = [[-0.265]\n[0.394]\n[0.795]]", fillcolor="#f0b58a"] ;
412 -> 500 ;
755 [label="ang_vel0 <= 1.155\nsquared_error = 0.288\nsamples = 1681\nvalue = [[-0.275]\n[0.486]\n[0.81]]", fillcolor="#efb286"] ;
500 -> 755 ;
757 [label="ang1 <= -0.155\nsquared_error = 0.276\nsamples = 1486\nvalue = [[-0.214]\n[0.532]\n[0.816]]", fillcolor="#efb083"] ;
755 -> 757 ;
759 [label="ang_vel3 <= 9.009\nsquared_error = 0.234\nsamples = 1072\nvalue = [[-0.082]\n[0.576]\n[0.82]]", fillcolor="#eda977"] ;
757 -> 759 ;
947 [label="vel_x <= 2.484\nsquared_error = 0.241\nsamples = 486\nvalue = [[0.021]\n[0.386]\n[0.695]]", fillcolor="#edaa79"] ;
759 -> 947 ;
1861 [label="squared_error = 0.217\nsamples = 114\nvalue = [[0.269]\n[0.724]\n[0.832]]", fillcolor="#eda673"] ;
947 -> 1861 ;
1862 [label="squared_error = 0.223\nsamples = 372\nvalue = [[-0.055]\n[0.282]\n[0.653]]", fillcolor="#eda775"] ;
947 -> 1862 ;
948 [label="ang_vel0 <= 0.375\nsquared_error = 0.196\nsamples = 586\nvalue = [[-0.167]\n[0.733]\n[0.924]]", fillcolor="#eca26d"] ;
759 -> 948 ;
